{"learner":{"attributes":{},"feature_names":[],"feature_types":[],"gradient_booster":{"model":{"cats":{"enc":[],"feature_segments":[],"sorted_idx":[]},"gbtree_model_param":{"num_parallel_tree":"1","num_trees":"500"},"iteration_indptr":[0,1,2,3,4,5,6,7,8,9,10,11,12,13,14,15,16,17,18,19,20,21,22,23,24,25,26,27,28,29,30,31,32,33,34,35,36,37,38,39,40,41,42,43,44,45,46,47,48,49,50,51,52,53,54,55,56,57,58,59,60,61,62,63,64,65,66,67,68,69,70,71,72,73,74,75,76,77,78,79,80,81,82,83,84,85,86,87,88,89,90,91,92,93,94,95,96,97,98,99,100,101,102,103,104,105,106,107,108,109,110,111,112,113,114,115,116,117,118,119,120,121,122,123,124,125,126,127,128,129,130,131,132,133,134,135,136,137,138,139,140,141,142,143,144,145,146,147,148,149,150,151,152,153,154,155,156,157,158,159,160,161,162,163,164,165,166,167,168,169,170,171,172,173,174,175,176,177,178,179,180,181,182,183,184,185,186,187,188,189,190,191,192,193,194,195,196,197,198,199,200,201,202,203,204,205,206,207,208,209,210,211,212,213,214,215,216,217,218,219,220,221,222,223,224,225,226,227,228,229,230,231,232,233,234,235,236,237,238,239,240,241,242,243,244,245,246,247,248,249,250,251,252,253,254,255,256,257,258,259,260,261,262,263,264,265,266,267,268,269,270,271,272,273,274,275,276,277,278,279,280,281,282,283,284,285,286,287,288,289,290,291,292,293,294,295,296,297,298,299,300,301,302,303,304,305,306,307,308,309,310,311,312,313,314,315,316,317,318,319,320,321,322,323,324,325,326,327,328,329,330,331,332,333,334,335,336,337,338,339,340,341,342,343,344,345,346,347,348,349,350,351,352,353,354,355,356,357,358,359,360,361,362,363,364,365,366,367,368,369,370,371,372,373,374,375,376,377,378,379,380,381,382,383,384,385,386,387,388,389,390,391,392,393,394,395,396,397,398,399,400,401,402,403,404,405,406,407,408,409,410,411,412,413,414,415,416,417,418,419,420,421,422,423,424,425,426,427,428,429,430,431,432,433,434,435,436,437,438,439,440,441,442,443,444,445,446,447,448,449,450,451,452,453,454,455,456,457,458,459,460,461,462,463,464,465,466,467,468,469,470,471,472,473,474,475,476,477,478,479,480,481,482,483,484,485,486,487,488,489,490,491,492,493,494,495,496,497,498,499,500],"tree_info":[0,0,0,0,0,0,0,0,0,0,0,0,0,0,0,0,0,0,0,0,0,0,0,0,0,0,0,0,0,0,0,0,0,0,0,0,0,0,0,0,0,0,0,0,0,0,0,0,0,0,0,0,0,0,0,0,0,0,0,0,0,0,0,0,0,0,0,0,0,0,0,0,0,0,0,0,0,0,0,0,0,0,0,0,0,0,0,0,0,0,0,0,0,0,0,0,0,0,0,0,0,0,0,0,0,0,0,0,0,0,0,0,0,0,0,0,0,0,0,0,0,0,0,0,0,0,0,0,0,0,0,0,0,0,0,0,0,0,0,0,0,0,0,0,0,0,0,0,0,0,0,0,0,0,0,0,0,0,0,0,0,0,0,0,0,0,0,0,0,0,0,0,0,0,0,0,0,0,0,0,0,0,0,0,0,0,0,0,0,0,0,0,0,0,0,0,0,0,0,0,0,0,0,0,0,0,0,0,0,0,0,0,0,0,0,0,0,0,0,0,0,0,0,0,0,0,0,0,0,0,0,0,0,0,0,0,0,0,0,0,0,0,0,0,0,0,0,0,0,0,0,0,0,0,0,0,0,0,0,0,0,0,0,0,0,0,0,0,0,0,0,0,0,0,0,0,0,0,0,0,0,0,0,0,0,0,0,0,0,0,0,0,0,0,0,0,0,0,0,0,0,0,0,0,0,0,0,0,0,0,0,0,0,0,0,0,0,0,0,0,0,0,0,0,0,0,0,0,0,0,0,0,0,0,0,0,0,0,0,0,0,0,0,0,0,0,0,0,0,0,0,0,0,0,0,0,0,0,0,0,0,0,0,0,0,0,0,0,0,0,0,0,0,0,0,0,0,0,0,0,0,0,0,0,0,0,0,0,0,0,0,0,0,0,0,0,0,0,0,0,0,0,0,0,0,0,0,0,0,0,0,0,0,0,0,0,0,0,0,0,0,0,0,0,0,0,0,0,0,0,0,0,0,0,0,0,0,0,0,0,0,0,0,0,0,0,0,0,0,0,0,0,0,0,0,0,0,0,0,0,0,0,0,0,0,0,0,0,0,0,0,0,0,0,0,0,0,0,0,0,0,0,0,0,0,0,0,0,0,0,0,0,0,0,0,0,0,0,0,0],"trees":[{"base_weights":[-4.2053688E-4,-4.5239705E-1,4.712209E0,1.5913719E0,-9.7726536E-1,5.074495E0,-1.2312765E0,1.377014E-1,4.697506E0,-8.624139E-2,-1.1714071E0,-4.3250475E-2,2.537882E-1,6.782879E-2,-1.2381989E0,2.235984E0,-1.2404413E0,4.9884105E0,-7.053591E-1,2.1669388E0,-1.2405189E0,-1.1854224E0,4.647355E0,-6.2222797E-2,4.1123282E-2,4.921293E0,8.8217217E-1,-8.5039806E-1,-1.2429758E0,5.0299954E0,-1.1071182E0,-8.759144E-1,2.3676811E-1,4.8030607E-2,4.7910337E0,-6.2232733E-2,-9.550318E-1,1.1546907E0,-1.2114285E0,5.008489E0,-7.478773E-1,-1.1424501E0,4.984883E0,2.3264964E0,-7.625846E-2,-6.175985E-2,1.2448746E0,-6.2260956E-2,-1.1457956E0,5.0350075E0,-8.8222706E-1,5.434869E-2,-6.167192E-2,-6.2165793E-2,1.3469863E-1,-5.3285617E-1,4.987579E0,4.972265E0,1.6962571E-2,-6.1923098E-2,2.2236767E0,-1.2382149E0,5.038326E0,-1.2323092E0,8.587225E-2,6.1699606E-2,2.5261799E-1,-5.953885E-2,7.580565E-2,-7.602141E-1,-5.9669655E-2,-5.6557663E-2,5.009074E0,1.1598784E0,4.1459823E0,-7.537699E-1,3.0745623E0,2.280664E-1,-5.7859458E-2,2.3495708E0,-1.2346842E0,2.4968874E-1,2.5376767E-1,-7.5879297E-3,-5.641937E-2,-6.1566234E-2,1.0122852E0,4.136283E0,-6.9843626E-1,-4.172395E-2,2.5318548E-1,5.001949E0,-1.0895863E0,2.4501713E-1,-1.154433E0,2.388614E-1,-5.765286E-2,-6.2169172E-2,2.8173978E-2,2.531732E-1,-3.726681E-3,-1.2335383E0,-8.4482336E-1,4.422448E0,-1.0683889E0,-4.928472E-2,-1.9425023E-2,-4.9699176E-2,2.5071344E-1,3.6153626E-2,1.1862083E-1,2.3872001E-1,-2.3812067E-2,-4.5318976E-2,8.982587E-2,8.245532E-2,2.3520045E-1,2.1186538E-1,-5.079765E-2,-9.273703E-3,-6.203709E-2,5.5181485E-2,-5.250421E-2,2.524241E-1,-6.0320713E-2,-6.9856443E-3,-6.1294895E-2,-4.255901E-2,2.5146642E-1,-9.273703E-3,-5.9698947E-2,4.0914632E-2,-6.0060658E-2,-5.9550907E-2,-6.2042743E-2,1.6590327E-1,-6.151693E-2,2.4881864E-1,-6.104502E-2,1.268223E-1,-5.9299666E-2],"categories":[],"categories_nodes":[],"categories_segments":[],"categories_sizes":[],"default_left":[0,0,0,0,0,0,0,0,0,0,0,0,0,0,0,0,0,0,0,0,0,0,0,0,0,0,0,0,0,0,0,0,0,0,0,0,0,0,0,0,0,0,0,0,0,0,0,0,0,0,0,0,0,0,0,0,0,0,0,0,0,0,0,0,0,0,0,0,0,0,0,0,0,0,0,0,0,0,0,0,0,0,0,0,0,0,0,0,0,0,0,0,0,0,0,0,0,0,0,0,0,0,0,0,0,0,0,0,0,0,0,0,0,0,0,0,0,0,0,0,0,0,0,0,0,0,0,0,0,0,0,0,0,0,0,0,0,0,0,0,0],"id":0,"left_children":[1,3,5,7,9,11,13,15,17,19,21,-1,-1,-1,23,25,27,29,31,33,35,37,39,-1,-1,41,43,45,47,49,51,53,-1,55,57,-1,59,61,63,65,67,69,71,73,75,-1,77,-1,79,81,83,-1,-1,-1,85,87,89,91,93,-1,95,97,99,101,103,-1,-1,-1,-1,105,-1,-1,107,109,111,113,115,-1,-1,117,119,-1,-1,-1,-1,-1,121,123,125,-1,-1,127,129,-1,131,-1,-1,-1,-1,-1,-1,133,135,137,139,-1,-1,-1,-1,-1,-1,-1,-1,-1,-1,-1,-1,-1,-1,-1,-1,-1,-1,-1,-1,-1,-1,-1,-1,-1,-1,-1,-1,-1,-1,-1,-1,-1,-1,-1,-1],"loss_changes":[6.101751E5,2.8040512E5,5.3988E4,2.4117766E5,3.597814E4,1.825625E2,2.7496826E1,1.0522235E5,2.6767188E4,9.678E4,1.39325625E4,0E0,0E0,0E0,1.95625E1,5.2435703E4,2.0652344E1,4.1014062E3,8.122759E2,7.008902E4,2.7859375E1,1.0369359E4,8.036631E2,0E0,0E0,1.8698828E3,1.3277128E4,1.1840636E2,3.328125E0,4.8009375E2,3.1913605E1,3.1401086E2,0E0,2.001636E4,4.87225E3,0E0,3.2318243E2,1.7412414E4,4.5643594E3,5.7503906E1,2.8504383E1,8.5609436E-2,7.135781E2,8.1161094E3,1.2311848E4,0E0,1.8841037E2,0E0,1.5975128E2,1.3125E0,2.4263353E0,0E0,0E0,0E0,2.724889E2,4.8287026E3,3.2958203E2,9.8171875E2,1.1895557E3,0E0,2.596527E2,1.1500122E1,9.218359E1,7.7921875E1,1.3369333E4,0E0,0E0,0E0,0E0,3.505354E-1,0E0,0E0,1.5360156E2,1.2337026E3,4.342758E3,1.849023E3,2.3629922E3,0E0,0E0,8.603381E1,2.9030762E0,0E0,0E0,0E0,0E0,0E0,2.7214188E1,1.0486621E3,1.776636E3,0E0,0E0,8.6953125E2,2.3513565E0,0E0,1.6461914E1,0E0,0E0,0E0,0E0,0E0,0E0,4.9953125E1,8.505681E2,1.7612021E3,8.973179E2,0E0,0E0,0E0,0E0,0E0,0E0,0E0,0E0,0E0,0E0,0E0,0E0,0E0,0E0,0E0,0E0,0E0,0E0,0E0,0E0,0E0,0E0,0E0,0E0,0E0,0E0,0E0,0E0,0E0,0E0,0E0,0E0,0E0,0E0,0E0,0E0],"parents":[2147483647,0,0,1,1,2,2,3,3,4,4,5,5,6,6,7,7,8,8,9,9,10,10,14,14,15,15,16,16,17,17,18,18,19,19,20,20,21,21,22,22,25,25,26,26,27,27,28,28,29,29,30,30,31,31,33,33,34,34,36,36,37,37,38,38,39,39,40,40,41,41,42,42,43,43,44,44,46,46,48,48,49,49,50,50,54,54,55,55,56,56,57,57,58,58,60,60,61,61,62,62,63,63,64,64,69,69,72,72,73,73,74,74,75,75,76,76,79,79,80,80,86,86,87,87,88,88,91,91,92,92,94,94,101,101,102,102,103,103,104,104],"right_children":[2,4,6,8,10,12,14,16,18,20,22,-1,-1,-1,24,26,28,30,32,34,36,38,40,-1,-1,42,44,46,48,50,52,54,-1,56,58,-1,60,62,64,66,68,70,72,74,76,-1,78,-1,80,82,84,-1,-1,-1,86,88,90,92,94,-1,96,98,100,102,104,-1,-1,-1,-1,106,-1,-1,108,110,112,114,116,-1,-1,118,120,-1,-1,-1,-1,-1,122,124,126,-1,-1,128,130,-1,132,-1,-1,-1,-1,-1,-1,134,136,138,140,-1,-1,-1,-1,-1,-1,-1,-1,-1,-1,-1,-1,-1,-1,-1,-1,-1,-1,-1,-1,-1,-1,-1,-1,-1,-1,-1,-1,-1,-1,-1,-1,-1,-1,-1,-1],"split_conditions":[1.6564286E3,4E0,1.3106E4,6E0,6E0,1.0867E4,2.86E3,1.23E2,1.2E1,1.23E2,5.755E3,-4.3250475E-2,2.537882E-1,6.782879E-2,2.2447627E3,1.8E1,3.89E2,4.27E2,1.21E7,1.8E1,2E0,2.4E1,1.3E1,-6.2222797E-2,4.1123282E-2,2E0,4.623E3,3E0,1E0,1E0,9.41E2,1E0,2.3676811E-1,3.4641016E0,5.688E3,-6.2232733E-2,3.86E2,3.850106E6,3.352E3,1.1086702E7,1.34E2,2.4E1,2.4E1,7.51E2,5.03163E5,-6.175985E-2,1.335E3,-6.2260956E-2,1.335E3,2.9277003E0,3.7134E4,5.434869E-2,-6.167192E-2,-6.2165793E-2,1.717E3,2E0,2.4E0,2.669281E2,3E0,-6.1923098E-2,2.1908903E0,2.08E2,5.389E3,1.449375E3,8E0,6.1699606E-2,2.5261799E-1,-5.953885E-2,7.580565E-2,5E0,-5.9669655E-2,-5.6557663E-2,1E0,1.87E2,1.151E3,5E0,1E0,2.280664E-1,-5.7859458E-2,5.63E2,4.623E3,2.4968874E-1,2.5376767E-1,-7.5879297E-3,-5.641937E-2,-6.1566234E-2,8.193E3,7.4E1,4.8E0,-4.172395E-2,2.5318548E-1,5.3E1,3.1259644E2,2.4501713E-1,9.311E3,2.388614E-1,-5.765286E-2,-6.2169172E-2,2.8173978E-2,2.531732E-1,-3.726681E-3,4.6E1,1.1632E4,1.23E2,1E0,-4.928472E-2,-1.9425023E-2,-4.9699176E-2,2.5071344E-1,3.6153626E-2,1.1862083E-1,2.3872001E-1,-2.3812067E-2,-4.5318976E-2,8.982587E-2,8.245532E-2,2.3520045E-1,2.1186538E-1,-5.079765E-2,-9.273703E-3,-6.203709E-2,5.5181485E-2,-5.250421E-2,2.524241E-1,-6.0320713E-2,-6.9856443E-3,-6.1294895E-2,-4.255901E-2,2.5146642E-1,-9.273703E-3,-5.9698947E-2,4.0914632E-2,-6.0060658E-2,-5.9550907E-2,-6.2042743E-2,1.6590327E-1,-6.151693E-2,2.4881864E-1,-6.104502E-2,1.268223E-1,-5.9299666E-2],"split_indices":[19,1,18,20,19,18,7,13,18,13,7,0,0,0,0,21,13,21,16,1,20,13,15,0,0,15,21,15,6,4,21,6,0,0,16,0,16,21,7,21,3,13,13,21,16,0,21,0,21,0,13,0,0,0,13,3,17,10,15,0,0,16,18,19,15,0,0,0,0,21,0,0,4,16,16,15,6,0,0,13,21,0,0,0,0,0,13,16,17,0,0,13,10,0,16,0,0,0,0,0,0,19,18,13,6,0,0,0,0,0,0,0,0,0,0,0,0,0,0,0,0,0,0,0,0,0,0,0,0,0,0,0,0,0,0,0,0,0,0,0,0],"split_type":[0,0,0,0,0,0,0,0,0,0,0,0,0,0,0,0,0,0,0,0,0,0,0,0,0,0,0,0,0,0,0,0,0,0,0,0,0,0,0,0,0,0,0,0,0,0,0,0,0,0,0,0,0,0,0,0,0,0,0,0,0,0,0,0,0,0,0,0,0,0,0,0,0,0,0,0,0,0,0,0,0,0,0,0,0,0,0,0,0,0,0,0,0,0,0,0,0,0,0,0,0,0,0,0,0,0,0,0,0,0,0,0,0,0,0,0,0,0,0,0,0,0,0,0,0,0,0,0,0,0,0,0,0,0,0,0,0,0,0,0,0],"sum_hessian":[2.8646547E5,2.613965E5,2.506898E4,5.341263E4,2.0798388E5,2.3628828E4,1.4401514E3,3.6385336E4,1.7027291E4,3.720966E4,1.7077422E5,4.903855E0,2.3623926E4,3.3219662E0,1.4368295E3,1.4423819E4,2.1961518E4,1.615741E4,8.6988055E2,1.2604488E4,2.460517E4,1.7036466E5,4.0955096E2,1.4328748E3,3.9547217E0,4.833619E3,9.5902E3,1.4395187E2,2.1817566E4,1.6048103E4,1.093085E2,8.4425397E2,2.5626596E1,6.9740723E3,5.630416E3,2.4250512E4,3.5465942E2,1.8720071E3,1.6849266E5,3.8392438E2,2.5626596E1,4.9987682E1,4.7836313E3,3.8248486E3,5.7653516E3,1.21963615E2,2.1988253E1,2.1313734E4,5.0383154E2,1.6034656E4,1.34460535E1,5.53661E0,1.037719E2,6.1899304E2,2.2526094E2,6.2410254E3,7.330472E2,5.4244546E3,2.059619E2,3.2618542E2,2.8473995E1,1.1587334E3,7.132736E2,1.6582369E5,2.6689624E3,4.745666E0,3.791787E2,2.1830063E1,3.7965326E0,7.7512546E0,4.2236427E1,1.8666286E1,4.764965E3,2.3315457E3,1.4933029E3,4.745666E3,1.0196854E3,8.858577E0,1.3129676E1,1.1864165E1,4.9196738E2,7.99186E3,8.0427964E3,3.7965326E0,9.649521E0,8.795301E1,1.3730794E2,2.1292221E2,6.028103E3,9.333143E0,7.2371405E2,5.398195E3,2.6259352E1,3.923084E1,1.6673106E2,1.5977076E1,1.2496921E1,1.1557279E3,3.0055885E0,7.0979346E2,3.480155E0,1.6529723E5,5.264525E2,5.6046313E2,2.1084993E3,3.7965326E0,3.9547217E0,3.9547217E0,4.7610103E3,1.7152418E3,6.1630383E2,1.3145494E3,1.7875342E2,4.4783267E3,2.6733917E2,5.4496063E2,4.747248E2,7.4348764E0,4.4292884E0,3.0055885E0,4.889618E2,1.3192952E2,5.3784213E0,1.8191719E2,3.1005018E1,2.9279177E3,3.1001853E3,2.4993841E1,5.373201E3,3.0055885E0,2.3253763E1,3.480155E0,1.6325092E2,2.429164E4,1.410056E5,4.3976505E1,4.8247604E2,5.1047546E2,4.9987682E1,6.596476E1,2.0425347E3],"tree_param":{"num_deleted":"0","num_feature":"23","num_nodes":"141","size_leaf_vector":"1"}},{"base_weights":[-3.924673E-3,-4.3822965E-1,3.9016232E0,1.4321854E0,-9.5753175E-1,4.1615167E0,-1.218248E0,1.2565906E-1,3.8919752E0,-8.22137E-2,-1.1547658E0,-2.9432097E-2,2.0811176E-1,4.4724822E-2,-1.2239257E0,1.982777E0,-1.2252483E0,4.101717E0,-6.7602414E-1,1.9348569E0,-1.225641E0,-1.1687597E0,3.8680286E0,-6.1481643E-2,2.8796619E-2,3.2075403E0,-7.093732E-2,-8.121953E-1,-1.2278818E0,4.1318274E0,-1.1089121E0,-8.538289E-1,1.9790469E-1,4.9476083E-2,3.961022E0,-6.1497808E-2,-9.2807E-1,1.0613724E0,-1.195166E0,4.1029916E0,-5.8996875E-2,4.067561E0,2.0661342E0,-7.27853E-1,2.6463408E0,-6.099682E-2,1.247552E0,-6.152276E-2,-1.1832327E0,2.0663837E-1,-4.718468E-2,-6.0935415E-2,5.5954397E-2,-6.142223E-2,7.784546E-2,-5.052806E-1,4.086647E0,4.092055E0,2.5055144E-2,-6.1170943E-2,1.8877373E0,4.1382284E0,-1.2249744E0,-1.2168622E0,9.547045E-2,2.0762971E-1,-4.0568367E-2,-5.8885403E-2,4.1063337E0,1.0842791E0,3.4993865E0,-8.805807E-1,1.6272913E0,3.8449814E0,1.522867E0,-5.6805987E-2,1.9340633E-1,-6.1381735E-2,-1.096661E0,-6.088197E-2,9.2947674E-1,3.4933276E0,-6.721644E-1,-4.3809336E-2,2.0761164E-1,4.114132E0,-1.0430297E0,2.030319E-1,-1.1564196E0,1.9979589E-1,-5.7267692E-2,1.2395683E-2,2.0779946E-1,-6.1474334E-2,1.4664463E-2,-1.2181313E0,-8.191871E-1,3.70568E0,-1.0414127E0,-5.8247484E-2,2.0616975E-1,-1.0431747E-2,7.407771E-2,1.9765265E-1,-1.9334694E-2,-4.6566527E-2,2.098488E-1,-6.296539E-2,2.2078672E-1,2.0616798E-1,-4.8182465E-2,-8.110746E-3,1.4825132E-1,-2.9960355E-2,-6.133468E-2,5.2678067E-2,-5.460895E-2,2.0722842E-1,-5.954485E-2,-6.027435E-3,-6.0524132E-2,-4.184581E-2,2.0659693E-1,-5.9070755E-2,-1.9293653E-3,1.3878772E-2,-5.9289403E-2,-4.869247E-2,-6.09805E-2,2.1243976E-1,-5.716091E-2,2.0504074E-1,-6.027585E-2,2.0663546E-1,-5.7889223E-2],"categories":[],"categories_nodes":[],"categories_segments":[],"categories_sizes":[],"default_left":[0,0,0,0,0,0,0,0,0,0,0,0,0,0,0,0,0,0,0,0,0,0,0,0,0,0,0,0,0,0,0,0,0,0,0,0,0,0,0,0,0,0,0,0,0,0,0,0,0,0,0,0,0,0,0,0,0,0,0,0,0,0,0,0,0,0,0,0,0,0,0,0,0,0,0,0,0,0,0,0,0,0,0,0,0,0,0,0,0,0,0,0,0,0,0,0,0,0,0,0,0,0,0,0,0,0,0,0,0,0,0,0,0,0,0,0,0,0,0,0,0,0,0,0,0,0,0,0,0,0,0,0,0,0,0],"id":1,"left_children":[1,3,5,7,9,11,13,15,17,19,21,-1,-1,-1,23,25,27,29,31,33,35,37,39,-1,-1,41,43,45,47,49,51,53,-1,55,57,-1,59,61,63,65,-1,67,69,71,73,-1,75,-1,77,-1,-1,-1,-1,-1,79,81,83,85,87,-1,89,91,93,95,97,-1,-1,-1,99,101,103,105,107,109,111,-1,-1,-1,113,-1,115,117,119,-1,-1,121,123,-1,125,-1,-1,-1,-1,-1,-1,127,129,131,133,-1,-1,-1,-1,-1,-1,-1,-1,-1,-1,-1,-1,-1,-1,-1,-1,-1,-1,-1,-1,-1,-1,-1,-1,-1,-1,-1,-1,-1,-1,-1,-1,-1,-1,-1,-1],"loss_changes":[4.8622225E5,2.5056792E5,3.817597E4,1.8015928E5,3.485814E4,9.559375E1,1.7728027E1,9.1856875E4,1.8634469E4,8.56398E4,1.1586672E4,0E0,0E0,0E0,1.491748E1,3.878185E4,2.2058594E1,2.92175E3,7.0750757E2,5.1318234E4,2.9285156E1,9.678203E3,5.48125E2,0E0,0E0,9.472531E3,1.0285194E4,1.1677769E2,9.6484375E-1,9.20625E1,2.7688828E1,2.8761908E2,0E0,1.5589288E4,3.3394062E3,0E0,2.8740515E2,1.3536148E4,4.5476406E3,1.1011328E2,0E0,1.1248203E3,5.839455E3,1.6704482E3,1.5047896E3,0E0,1.4913947E2,0E0,3.1652832E0,0E0,0E0,0E0,0E0,0E0,2.6281677E2,4.0860815E3,2.7734766E2,7.147031E2,1.0041812E3,0E0,2.1518497E2,5.564258E1,7.9259033E0,7.9609375E1,1.1027521E4,0E0,0E0,0E0,4.9648438E2,1.2667551E3,2.9768145E3,1.1269365E3,2.282886E3,7.296138E2,1.4116864E3,0E0,0E0,0E0,2.5609589E1,0E0,3.7193115E1,7.5335864E2,1.744529E3,0E0,0E0,5.535703E2,3.794094E0,0E0,7.1908875E0,0E0,0E0,0E0,0E0,0E0,0E0,5.6328125E1,8.442571E2,1.2536123E3,1.2351462E3,0E0,0E0,0E0,0E0,0E0,0E0,0E0,0E0,0E0,0E0,0E0,0E0,0E0,0E0,0E0,0E0,0E0,0E0,0E0,0E0,0E0,0E0,0E0,0E0,0E0,0E0,0E0,0E0,0E0,0E0,0E0,0E0,0E0,0E0,0E0,0E0],"parents":[2147483647,0,0,1,1,2,2,3,3,4,4,5,5,6,6,7,7,8,8,9,9,10,10,14,14,15,15,16,16,17,17,18,18,19,19,20,20,21,21,22,22,25,25,26,26,27,27,28,28,29,29,30,30,31,31,33,33,34,34,36,36,37,37,38,38,39,39,41,41,42,42,43,43,44,44,46,46,48,48,54,54,55,55,56,56,57,57,58,58,60,60,61,61,62,62,63,63,64,64,68,68,69,69,70,70,71,71,72,72,73,73,74,74,78,78,80,80,81,81,82,82,85,85,86,86,88,88,95,95,96,96,97,97,98,98],"right_children":[2,4,6,8,10,12,14,16,18,20,22,-1,-1,-1,24,26,28,30,32,34,36,38,40,-1,-1,42,44,46,48,50,52,54,-1,56,58,-1,60,62,64,66,-1,68,70,72,74,-1,76,-1,78,-1,-1,-1,-1,-1,80,82,84,86,88,-1,90,92,94,96,98,-1,-1,-1,100,102,104,106,108,110,112,-1,-1,-1,114,-1,116,118,120,-1,-1,122,124,-1,126,-1,-1,-1,-1,-1,-1,128,130,132,134,-1,-1,-1,-1,-1,-1,-1,-1,-1,-1,-1,-1,-1,-1,-1,-1,-1,-1,-1,-1,-1,-1,-1,-1,-1,-1,-1,-1,-1,-1,-1,-1,-1,-1,-1,-1],"split_conditions":[1.6564286E3,4E0,1.3106E4,6E0,6E0,1.0867E4,2.86E3,1.23E2,1.2E1,1.23E2,5.755E3,-2.9432097E-2,2.0811176E-1,4.4724822E-2,2.2447627E3,4.623E3,3.89E2,4.27E2,1.21E7,1.8E1,2E0,2.4E1,1.23E2,-6.1481643E-2,2.8796619E-2,1.4E1,5.03163E5,3E0,3E0,2E0,1.0045203E3,9.00022E5,1.9790469E-1,3.4641016E0,5.688E3,-6.1497808E-2,3.86E2,3.1754253E0,3.352E3,1.6382E4,-5.8996875E-2,2E0,7.51E2,5E0,9.99937E5,-6.099682E-2,7.696057E1,-6.152276E-2,2.1786492E3,2.0663837E-1,-4.718468E-2,-6.0935415E-2,5.5954397E-2,-6.142223E-2,5.999E3,2E0,2.4E0,2.669281E2,3E0,-6.1170943E-2,2.1908903E0,7.7781744E0,1.18304695E2,1.449375E3,8E0,2.0762971E-1,-4.0568367E-2,-5.8885403E-2,2.2E1,7.6045625E3,1.151E3,2.9277003E0,2.4E1,1.0491201E0,1.21E7,-5.6805987E-2,1.9340633E-1,-6.1381735E-2,6.896552E3,-6.088197E-2,8.193E3,8.76E2,4.8E0,-4.3809336E-2,2.0761164E-1,5.3E1,1.797E3,2.030319E-1,9.311E3,1.9979589E-1,-5.7267692E-2,1.2395683E-2,2.0779946E-1,-6.1474334E-2,1.4664463E-2,2.3805594E-2,1.3787585E-1,1.23E2,1.0629712E-1,-5.8247484E-2,2.0616975E-1,-1.0431747E-2,7.407771E-2,1.9765265E-1,-1.9334694E-2,-4.6566527E-2,2.098488E-1,-6.296539E-2,2.2078672E-1,2.0616798E-1,-4.8182465E-2,-8.110746E-3,1.4825132E-1,-2.9960355E-2,-6.133468E-2,5.2678067E-2,-5.460895E-2,2.0722842E-1,-5.954485E-2,-6.027435E-3,-6.0524132E-2,-4.184581E-2,2.0659693E-1,-5.9070755E-2,-1.9293653E-3,1.3878772E-2,-5.9289403E-2,-4.869247E-2,-6.09805E-2,2.1243976E-1,-5.716091E-2,2.0504074E-1,-6.027585E-2,2.0663546E-1,-5.7889223E-2],"split_indices":[19,1,12,20,19,12,7,13,12,13,7,0,0,0,0,21,13,21,16,1,20,13,13,0,0,21,16,15,15,15,11,21,0,0,16,0,16,11,7,12,0,15,21,15,16,0,11,0,11,0,0,0,0,0,13,3,17,10,15,0,0,10,10,19,15,0,0,0,13,11,16,0,13,11,16,0,0,0,11,0,13,16,17,0,0,13,1,0,16,0,0,0,0,0,0,11,11,13,11,0,0,0,0,0,0,0,0,0,0,0,0,0,0,0,0,0,0,0,0,0,0,0,0,0,0,0,0,0,0,0,0,0,0,0,0],"split_type":[0,0,0,0,0,0,0,0,0,0,0,0,0,0,0,0,0,0,0,0,0,0,0,0,0,0,0,0,0,0,0,0,0,0,0,0,0,0,0,0,0,0,0,0,0,0,0,0,0,0,0,0,0,0,0,0,0,0,0,0,0,0,0,0,0,0,0,0,0,0,0,0,0,0,0,0,0,0,0,0,0,0,0,0,0,0,0,0,0,0,0,0,0,0,0,0,0,0,0,0,0,0,0,0,0,0,0,0,0,0,0,0,0,0,0,0,0,0,0,0,0,0,0,0,0,0,0,0,0,0,0,0,0,0,0],"sum_hessian":[2.8665203E5,2.579665E5,2.868552E4,5.6057523E4,2.0190898E5,2.7299916E4,1.3856025E3,3.6611984E4,1.944554E4,3.7129766E4,1.6477922E5,4.005336E0,2.7295912E4,3.2941017E0,1.3823083E3,1.54172E4,2.1194785E4,1.8591982E4,8.5355707E2,1.3432818E4,2.3696945E4,1.6432217E5,4.570473E2,1.378255E3,4.0534215E0,9.657339E3,5.759861E3,1.3623477E2,2.105855E4,1.848537E4,1.0661332E2,8.22803E2,3.0754084E1,6.958677E3,6.474142E3,2.3355137E4,3.4180923E2,1.9224601E3,1.623997E5,4.3689856E2,2.014873E1,5.506081E3,4.151258E3,4.6390737E3,1.1207872E3,1.1406296E2,2.2171818E1,1.9885852E4,1.1726984E3,1.8482133E4,3.2367046E0,1.0203789E2,4.5754366E0,5.866138E2,2.3618922E2,6.1187593E3,8.399175E2,6.2655156E3,2.0862628E2,3.0987238E2,3.1936855E1,8.192043E2,1.1032559E3,1.5971488E5,2.6848247E3,4.326863E2,4.212242E0,4.01862E1,5.465895E3,2.464618E3,1.6866399E3,4.357145E3,2.8192856E2,5.410818E2,5.7970544E2,1.1907358E1,1.026446E1,7.664245E2,4.062739E2,9.3511536E1,1.4267769E2,2.4433975E2,5.8744194E3,1.0793795E1,8.2912366E2,6.238892E3,2.6623604E1,4.6694427E1,1.6193185E2,1.865386E1,1.3282995E1,3.790941E0,8.154133E2,1.1001763E3,3.0795383E0,1.5920473E5,5.1014865E2,6.4244867E2,2.0423761E3,1.7417198E1,5.4484775E3,5.7941437E2,1.8852035E3,1.5103073E3,1.7633264E2,4.3148354E3,4.230985E1,1.387956E2,1.4313297E2,5.1160666E2,2.9475115E1,2.6774643E2,3.1195905E2,8.535346E1,3.2092044E2,1.3487804E2,7.7996407E0,2.1461708E2,2.9722681E1,2.9019792E3,2.97244E3,2.2192902E1,6.216699E3,2.3244888E1,3.3787158E0,3.0802195E0,1.5885164E2,9.61827E2,1.582429E5,2.9929306E1,4.8021933E2,5.9476154E2,4.7687126E1,4.416575E1,1.9982103E3],"tree_param":{"num_deleted":"0","num_feature":"23","num_nodes":"135","size_leaf_vector":"1"}},{"base_weights":[-7.570639E-3,-4.271272E-1,3.3669682E0,1.314117E0,-9.419097E-1,3.56747E0,-1.2025685E0,1.1960672E-1,3.3578234E0,-8.724606E-2,-1.1398773E0,-3.2258116E-2,1.7840624E-1,5.0224066E-2,-1.2100269E0,1.7948859E0,-1.2116867E0,3.5206518E0,-6.4367086E-1,1.7357485E0,-1.2121081E0,-1.1694882E0,1.0683405E0,-6.0797583E-2,3.6923386E-2,-3.164948E-2,2.832701E0,-8.279195E-1,-1.214192E0,3.5437245E0,-1.091452E0,-8.1880933E-1,1.7233512E-1,2.9787622E-2,3.4111938E0,-6.0802497E-2,-9.4391567E-1,9.69952E-1,-1.1968889E0,3.531773E0,-6.0885597E-2,3.1627252E0,-6.1141795E-1,3.098617E0,-6.0463184E-1,-6.0310405E-2,1.0546087E0,-6.0833734E-2,-1.1072048E0,3.5469565E0,-9.9168783E-1,3.998423E-2,-6.0226154E-2,-6.0733974E-2,1.6119087E-1,3.73902E0,-1.0993706E0,3.5142303E0,1.9117227E-2,-6.0645547E-2,1.7393095E0,3.551592E0,-1.2102475E0,-1.2035275E0,-8.106632E-1,-5.6688476E-2,3.6080375E0,3.6843467E0,-6.47567E-2,-8.098834E-1,1.2638228E0,-9.087029E-1,3.2914867E0,-9.677052E-1,3.781889E0,1.6773951E-1,-5.6114208E-2,2.5313518E0,-6.049594E-2,1.7607906E-1,1.7858844E-1,-1.0618205E-2,-5.8309432E-2,-5.950823E-2,9.0291685E-1,-4.264895E-1,4.038219E0,2.3409212E0,-1.1755668E0,3.5306768E0,-1.0547138E0,1.7764413E-1,-1.1544849E0,1.7288373E-1,-5.599168E-2,-1.5495206E-3,1.7822821E-1,-6.078743E-2,1.7129516E-2,-5.773045E-1,-1.2050495E0,2.7813907E0,-1.1441555E0,1.8102972E-1,3.63703E-2,-4.1079488E-2,1.8745796E-1,-4.257397E-2,2.1537888E-1,-2.2299655E-2,1.5545468E-1,6.5450564E-2,-5.5607047E-2,1.6617863E-1,-6.263978E-2,2.4773443E-2,-5.4265853E-2,2.0318854E-1,-3.6479846E-2,1.87791E-1,-4.6646368E-2,4.849425E-2,-5.009941E-2,-6.0048264E-2,6.0648568E-2,2.3752534E-1,1.7828666E-1,1.7664984E-1,-5.8876254E-2,3.6486205E-2,-6.011315E-2,-3.4603104E-2,1.772167E-1,-5.8151733E-2,-1.4838907E-2,-1.8725966E-3,-5.9889715E-2,-5.976371E-2,2.6919636E-1,-6.0523536E-2,-5.7437133E-2,1.6140358E-1,-5.8540195E-2,1.8456672E-1,-5.971573E-2],"categories":[],"categories_nodes":[],"categories_segments":[],"categories_sizes":[],"default_left":[0,0,0,0,0,0,0,0,0,0,0,0,0,0,0,0,0,0,0,0,0,0,0,0,0,0,0,0,0,0,0,0,0,0,0,0,0,0,0,0,0,0,0,0,0,0,0,0,0,0,0,0,0,0,0,0,0,0,0,0,0,0,0,0,0,0,0,0,0,0,0,0,0,0,0,0,0,0,0,0,0,0,0,0,0,0,0,0,0,0,0,0,0,0,0,0,0,0,0,0,0,0,0,0,0,0,0,0,0,0,0,0,0,0,0,0,0,0,0,0,0,0,0,0,0,0,0,0,0,0,0,0,0,0,0,0,0,0,0,0,0,0,0,0,0],"id":2,"left_children":[1,3,5,7,9,11,13,15,17,19,21,-1,-1,-1,23,25,27,29,31,33,35,37,39,-1,-1,41,43,45,47,49,51,53,-1,55,57,-1,59,61,63,65,-1,67,69,71,73,-1,75,-1,77,79,81,-1,-1,-1,83,85,87,89,91,-1,93,95,97,99,101,-1,103,105,-1,107,109,111,113,115,117,-1,-1,119,-1,-1,-1,-1,-1,-1,121,123,125,127,129,131,133,-1,135,-1,-1,-1,-1,-1,-1,137,139,141,143,-1,-1,-1,-1,-1,-1,-1,-1,-1,-1,-1,-1,-1,-1,-1,-1,-1,-1,-1,-1,-1,-1,-1,-1,-1,-1,-1,-1,-1,-1,-1,-1,-1,-1,-1,-1,-1,-1,-1,-1,-1,-1],"loss_changes":[4.0347756E5,2.2719898E5,2.8876969E4,1.4119208E5,3.3099797E4,8.55625E1,2.303247E1,8.141431E4,1.3903047E4,7.545097E4,1.0387266E4,0E0,0E0,0E0,1.6152588E1,3.0640121E4,1.8550781E1,2.1854375E3,6.010364E2,4.0130254E4,2.2910156E1,9.189469E3,1.1843303E4,0E0,0E0,1.084991E4,9.423141E3,9.7456665E1,4.0214844E0,3.0251562E2,2.2947868E1,3.1116754E2,0E0,2.9145375E4,2.4756484E3,0E0,2.4322E2,1.11631875E4,3.958125E2,3.6422266E2,0E0,2.097459E3,1.8464264E3,7.3974688E3,1.1837367E3,0E0,1.19597824E2,0E0,1.7848419E2,2.65625E-1,1.8340034E0,0E0,0E0,0E0,2.3312892E2,2.0257324E3,1.4011924E3,5.203047E2,8.743009E2,0E0,1.5543188E2,4.230664E1,9.604614E0,1.443125E2,3.1394036E3,0E0,3.3396484E1,2.3844824E2,0E0,9.58272E2,1.4998761E3,2.0001785E2,1.3351328E3,1.1843713E2,7.5255066E1,0E0,0E0,5.9538918E1,0E0,0E0,0E0,0E0,0E0,0E0,2.0112206E1,1.4078986E2,4.9301367E2,4.903979E2,2.6638037E2,3.975078E2,1.7424259E0,0E0,7.611862E0,0E0,0E0,0E0,0E0,0E0,0E0,1.3724738E3,4.49375E1,3.9693823E2,5.856262E2,0E0,0E0,0E0,0E0,0E0,0E0,0E0,0E0,0E0,0E0,0E0,0E0,0E0,0E0,0E0,0E0,0E0,0E0,0E0,0E0,0E0,0E0,0E0,0E0,0E0,0E0,0E0,0E0,0E0,0E0,0E0,0E0,0E0,0E0,0E0,0E0,0E0,0E0,0E0,0E0,0E0,0E0],"parents":[2147483647,0,0,1,1,2,2,3,3,4,4,5,5,6,6,7,7,8,8,9,9,10,10,14,14,15,15,16,16,17,17,18,18,19,19,20,20,21,21,22,22,25,25,26,26,27,27,28,28,29,29,30,30,31,31,33,33,34,34,36,36,37,37,38,38,39,39,41,41,42,42,43,43,44,44,46,46,48,48,49,49,50,50,54,54,55,55,56,56,57,57,58,58,60,60,61,61,62,62,63,63,64,64,66,66,67,67,69,69,70,70,71,71,72,72,73,73,74,74,77,77,84,84,85,85,86,86,87,87,88,88,89,89,90,90,92,92,99,99,100,100,101,101,102,102],"right_children":[2,4,6,8,10,12,14,16,18,20,22,-1,-1,-1,24,26,28,30,32,34,36,38,40,-1,-1,42,44,46,48,50,52,54,-1,56,58,-1,60,62,64,66,-1,68,70,72,74,-1,76,-1,78,80,82,-1,-1,-1,84,86,88,90,92,-1,94,96,98,100,102,-1,104,106,-1,108,110,112,114,116,118,-1,-1,120,-1,-1,-1,-1,-1,-1,122,124,126,128,130,132,134,-1,136,-1,-1,-1,-1,-1,-1,138,140,142,144,-1,-1,-1,-1,-1,-1,-1,-1,-1,-1,-1,-1,-1,-1,-1,-1,-1,-1,-1,-1,-1,-1,-1,-1,-1,-1,-1,-1,-1,-1,-1,-1,-1,-1,-1,-1,-1,-1,-1,-1,-1,-1],"split_conditions":[1.6564286E3,4E0,1.3106E4,6E0,6E0,1.0867E4,9.281621E2,1.23E2,1.2E1,1.23E2,1.449375E3,-3.2258116E-2,1.7840624E-1,5.0224066E-2,2.2447627E3,7.0654736E2,3.89E2,4.27E2,3.936513E6,1.8E1,2E0,2.4E1,1.3106E4,-6.0797583E-2,3.6923386E-2,1.9079576E-1,2.83E2,3E0,1E0,1E0,9.41E2,1E0,1.7233512E-1,2.52E2,5.688E3,-6.0802497E-2,3.45E2,6.4345694E0,1.0370597E3,1.1595E4,-6.0885597E-2,3.1088E4,5.03163E5,2.51E2,1E0,-6.0310405E-2,1.335E3,-6.0833734E-2,1.335E3,1.073E3,3.7E1,3.998423E-2,-6.0226154E-2,-6.0733974E-2,1.717E3,2.1908903E0,2E0,2.669281E2,2.35E2,-6.0645547E-2,2.1908903E0,7.7781744E0,1.18304695E2,3.6978208E-2,2E0,-5.6688476E-2,1.4817878E3,2.42E2,-6.47567E-2,2.0539597E2,1E0,2.29E2,2.1908903E0,5E0,9.049773E3,1.6773951E-1,-5.6114208E-2,5.63E2,-6.049594E-2,1.7607906E-1,1.7858844E-1,-1.0618205E-2,-5.8309432E-2,-5.950823E-2,8.193E3,9.41E2,3.4641016E0,7.4E1,2.4E1,5.3E1,1.797E3,1.7764413E-1,2.1908903E0,1.7288373E-1,-5.599168E-2,-1.5495206E-3,1.7822821E-1,-6.078743E-2,1.7129516E-2,1.125E2,1.717E3,7.76E2,1.2E1,1.8102972E-1,3.63703E-2,-4.1079488E-2,1.8745796E-1,-4.257397E-2,2.1537888E-1,-2.2299655E-2,1.5545468E-1,6.5450564E-2,-5.5607047E-2,1.6617863E-1,-6.263978E-2,2.4773443E-2,-5.4265853E-2,2.0318854E-1,-3.6479846E-2,1.87791E-1,-4.6646368E-2,4.849425E-2,-5.009941E-2,-6.0048264E-2,6.0648568E-2,2.3752534E-1,1.7828666E-1,1.7664984E-1,-5.8876254E-2,3.6486205E-2,-6.011315E-2,-3.4603104E-2,1.772167E-1,-5.8151733E-2,-1.4838907E-2,-1.8725966E-3,-5.9889715E-2,-5.976371E-2,2.6919636E-1,-6.0523536E-2,-5.7437133E-2,1.6140358E-1,-5.8540195E-2,1.8456672E-1,-5.971573E-2],"split_indices":[19,1,12,20,19,12,0,13,12,13,19,0,0,0,0,22,13,21,16,1,20,13,12,0,0,22,14,15,6,4,21,6,0,14,16,0,16,22,0,12,0,14,16,14,6,0,21,0,21,14,21,0,0,0,13,0,3,10,14,0,0,10,10,22,8,0,19,14,0,0,6,14,0,21,22,0,0,13,0,0,0,0,0,0,13,21,0,16,13,13,1,0,0,0,0,0,0,0,0,3,13,1,14,0,0,0,0,0,0,0,0,0,0,0,0,0,0,0,0,0,0,0,0,0,0,0,0,0,0,0,0,0,0,0,0,0,0,0,0,0,0,0,0,0,0],"split_type":[0,0,0,0,0,0,0,0,0,0,0,0,0,0,0,0,0,0,0,0,0,0,0,0,0,0,0,0,0,0,0,0,0,0,0,0,0,0,0,0,0,0,0,0,0,0,0,0,0,0,0,0,0,0,0,0,0,0,0,0,0,0,0,0,0,0,0,0,0,0,0,0,0,0,0,0,0,0,0,0,0,0,0,0,0,0,0,0,0,0,0,0,0,0,0,0,0,0,0,0,0,0,0,0,0,0,0,0,0,0,0,0,0,0,0,0,0,0,0,0,0,0,0,0,0,0,0,0,0,0,0,0,0,0,0,0,0,0,0,0,0,0,0,0,0],"sum_hessian":[2.84978E5,2.534655E5,3.1512502E4,5.7835664E4,1.9562983E5,3.0188129E4,1.3243732E3,3.650197E4,2.1333695E4,3.6792242E4,1.588376E5,4.537436E0,3.0183592E4,4.0101757E0,1.3203629E3,1.6162712E4,2.0339256E4,2.0499646E4,8.340493E2,1.4039212E4,2.275303E4,1.5673633E5,2.1012688E3,1.316735E3,3.6279378E0,5.8564453E3,1.0306267E4,1.3406438E2,2.0205191E4,2.0397834E4,1.0181222E2,8.005709E2,3.3478416E1,6.9567617E3,7.08245E3,2.2419977E4,3.330521E2,1.9815724E3,1.5475475E5,1.01113385E3,1.090135E3,8.9895886E2,4.957487E3,9.566305E3,7.399617E2,1.1193136E2,2.213302E1,1.973681E4,4.683798E2,2.0383527E4,1.4307163E1,5.40134E0,9.641088E1,5.700573E2,2.3051361E2,1.6229932E3,5.3337686E3,6.873624E3,2.0882635E2,3.0320367E2,2.9848413E1,9.0697125E2,1.0746011E3,1.521377E5,2.61705E3,1.603942E1,9.950944E2,8.0494446E2,9.4014366E1,4.4835405E3,4.7394595E2,4.391074E2,9.127197E3,6.841166E2,5.58451E1,1.0498668E1,1.1634353E1,1.2209885E1,4.561699E2,1.0148061E4,1.0235467E4,3.0230675E0,1.1284096E1,8.147294E1,1.4904066E2,1.0873507E2,1.514258E3,1.1492946E2,5.2188394E3,6.849197E3,2.4427309E1,5.155743E1,1.5726892E2,1.851277E1,1.1335646E1,3.267148E0,9.037041E2,1.0710239E3,3.577127E0,3.6981708E2,1.5176789E5,2.2170628E2,2.3953438E3,9.9051984E2,4.5745955E0,1.1248368E1,7.936961E2,4.4482183E3,3.5322556E1,2.4639565E2,2.2755031E2,3.643949E1,4.026679E2,9.063471E3,6.37263E1,5.0659805E1,6.334567E2,5.265444E1,3.1906583E0,8.959089E0,3.2507956E0,1.4445317E2,4.5874968E0,7.4030685E1,3.4704384E1,6.002725E2,9.1398553E2,8.584156E1,2.9087894E1,7.175019E1,5.147089E3,2.1919643E1,6.827277E3,2.0905157E1,3.522152E0,5.9396214E0,1.513293E2,3.3580536E2,3.4011696E1,1.3842048E5,1.3347404E4,1.9935788E2,2.2348402E1,2.3846771E1,2.3714968E3],"tree_param":{"num_deleted":"0","num_feature":"23","num_nodes":"145","size_leaf_vector":"1"}},{"base_weights":[-1.0881879E-2,-4.159561E-1,2.983043E0,1.2126135E0,-9.2544824E-1,3.1479099E0,-1.1886917E0,1.0404575E-1,2.9599485E0,-8.2452685E-2,-1.1258825E0,-3.2997783E-2,1.5742442E-1,5.827974E-2,-1.197047E0,1.6277543E0,-1.1989785E0,3.1091661E0,-4.7013006E-1,1.5985247E0,-1.1988806E0,-1.1558425E0,9.862813E-1,-6.0116388E-2,2.4247091E-2,-6.9959275E-2,2.5181258E0,-8.1681275E-1,-1.2014357E0,3.1274076E0,-5.957492E-2,3.7116125E-1,-1.1781466E0,3.355856E-2,3.0196548E0,-1.1386657E0,-6.0074147E-2,9.044117E-1,-1.1835505E0,3.1101978E0,-6.0233682E-2,2.7755563E0,-6.4705884E-1,1.7013137E0,3.1205459E0,-5.9645843E-2,9.4636464E-1,-6.0193818E-2,-1.0940624E0,-9.496364E-1,3.129827E0,9.4145715E-2,3.494485E0,-5.9904274E-2,6.184118E-2,-4.8096058E-1,3.103085E0,3.1243758E0,2.1146266E0,-6.013176E-2,1.7545532E-1,3.1354208E0,-1.1991342E0,-1.1909369E0,-4.782339E-1,-5.634386E-2,3.1773014E0,-5.2633505E-2,2.8213162E0,-1.7763653E-1,-1.0625634E0,8.658394E-1,2.8164887E0,-5.688223E-2,3.1360898E0,-5.540192E-2,1.4929813E-1,2.2637212E0,-1.1967814E0,-5.6987293E-2,-1.1062195E-2,3.1301029E0,7.0106916E-2,-7.750022E-1,1.1478819E0,1.8146569E-1,7.615541E-2,2.6781592E0,-6.391343E-1,4.7970405E-1,1.571279E-1,-6.235748E-2,3.1439333E0,3.1014023E0,7.665542E-1,1.6269216E-1,-5.8273196E-2,1.808334E-2,1.5740421E-1,-6.0144693E-2,1.3557442E-3,-5.3115404E-1,-1.1925353E0,2.9209561E0,-1.1279845E0,1.5937081E-1,4.7846884E-2,-5.3331267E-2,1.4229558E-1,-2.7662763E-2,1.5905987E-1,-5.879814E-2,2.9571936E-2,-1.2230783E-2,5.8590513E-2,7.44649E-2,1.526702E-1,-5.8005888E-2,1.573304E-1,1.6305904E-1,-4.539065E-2,-6.0064163E-2,-2.1981293E-2,1.5543137E-1,1.5755312E-1,4.0730014E-2,-5.8328845E-2,1.5471904E-1,3.7909903E-2,-5.7929125E-2,1.5243857E-1,-5.8753517E-2,-5.999845E-3,1.3214925E-1,-4.0955555E-2,1.5740035E-1,-5.206078E-2,-2.710242E-2,1.5776297E-1,-3.9709862E-2,8.60619E-2,-5.8894362E-2,2.1818765E-1,-5.9914775E-2,-5.6998838E-2,1.6598772E-1,-5.761174E-2,1.4396204E-1,-5.944085E-2],"categories":[],"categories_nodes":[],"categories_segments":[],"categories_sizes":[],"default_left":[0,0,0,0,0,0,0,0,0,0,0,0,0,0,0,0,0,0,0,0,0,0,0,0,0,0,0,0,0,0,0,0,0,0,0,0,0,0,0,0,0,0,0,0,0,0,0,0,0,0,0,0,0,0,0,0,0,0,0,0,0,0,0,0,0,0,0,0,0,0,0,0,0,0,0,0,0,0,0,0,0,0,0,0,0,0,0,0,0,0,0,0,0,0,0,0,0,0,0,0,0,0,0,0,0,0,0,0,0,0,0,0,0,0,0,0,0,0,0,0,0,0,0,0,0,0,0,0,0,0,0,0,0,0,0,0,0,0,0,0,0,0,0,0,0,0,0,0,0],"id":3,"left_children":[1,3,5,7,9,11,13,15,17,19,21,-1,-1,-1,23,25,27,29,31,33,35,37,39,-1,-1,41,43,45,47,49,-1,51,53,55,57,59,-1,61,63,65,-1,67,69,71,73,-1,75,-1,77,79,81,83,85,-1,-1,87,89,91,93,-1,95,97,99,101,103,-1,105,-1,107,109,111,113,115,-1,117,-1,-1,119,121,-1,-1,123,-1,125,127,-1,-1,129,131,133,-1,-1,135,137,139,-1,-1,-1,-1,-1,-1,141,143,145,147,-1,-1,-1,-1,-1,-1,-1,-1,-1,-1,-1,-1,-1,-1,-1,-1,-1,-1,-1,-1,-1,-1,-1,-1,-1,-1,-1,-1,-1,-1,-1,-1,-1,-1,-1,-1,-1,-1,-1,-1,-1,-1,-1,-1],"loss_changes":[3.4243038E5,2.0636345E5,2.3147375E4,1.14800625E5,3.2008828E4,7.334375E1,2.6573853E1,7.1997664E4,1.1776156E4,6.82968E4,9.686281E3,0E0,0E0,0E0,1.1916382E1,2.5267922E4,1.7373047E1,1.73325E3,5.722189E2,3.2301383E4,2.0585938E0,8.615875E3,9.967287E3,0E0,0E0,9.446944E3,5.390289E3,8.601013E1,3.7714844E0,2.1953125E2,0E0,3.7987738E2,2.659259E1,1.0919673E4,7.147969E2,7.797363E1,0E0,9.404854E3,7.7521875E2,3.1277344E2,0E0,1.7289502E2,9.3266406E2,4.336118E3,4.2120312E2,0E0,9.9937744E1,0E0,1.553601E2,1.6570358E0,6.0625E0,3.7150452E2,3.9802856E0,0E0,0E0,2.9606714E3,1.0127539E2,5.8703125E2,1.0518525E3,0E0,1.8464337E2,3.301758E1,4.7891846E0,1.5476562E2,3.4155347E3,0E0,2.0998047E1,0E0,9.4723145E1,2.8364785E3,4.7651514E2,9.052887E2,6.2243066E2,0E0,2.877422E2,0E0,0E0,4.5614265E1,9.3792725E-1,0E0,0E0,9.375E-2,0E0,1.3935367E2,1.3670047E2,0E0,0E0,4.052926E2,1.5690588E3,4.6821167E1,0E0,0E0,1.19046875E2,9.143262E1,5.0241086E2,0E0,0E0,0E0,0E0,0E0,0E0,1.1382151E3,4.3140625E1,4.070044E2,3.1977576E2,0E0,0E0,0E0,0E0,0E0,0E0,0E0,0E0,0E0,0E0,0E0,0E0,0E0,0E0,0E0,0E0,0E0,0E0,0E0,0E0,0E0,0E0,0E0,0E0,0E0,0E0,0E0,0E0,0E0,0E0,0E0,0E0,0E0,0E0,0E0,0E0,0E0,0E0,0E0,0E0,0E0,0E0,0E0,0E0],"parents":[2147483647,0,0,1,1,2,2,3,3,4,4,5,5,6,6,7,7,8,8,9,9,10,10,14,14,15,15,16,16,17,17,18,18,19,19,20,20,21,21,22,22,25,25,26,26,27,27,28,28,29,29,31,31,32,32,33,33,34,34,35,35,37,37,38,38,39,39,41,41,42,42,43,43,44,44,46,46,48,48,49,49,50,50,51,51,52,52,55,55,56,56,57,57,58,58,60,60,61,61,62,62,63,63,64,64,66,66,68,68,69,69,70,70,71,71,72,72,74,74,77,77,78,78,81,81,83,83,84,84,87,87,88,88,89,89,92,92,93,93,94,94,101,101,102,102,103,103,104,104],"right_children":[2,4,6,8,10,12,14,16,18,20,22,-1,-1,-1,24,26,28,30,32,34,36,38,40,-1,-1,42,44,46,48,50,-1,52,54,56,58,60,-1,62,64,66,-1,68,70,72,74,-1,76,-1,78,80,82,84,86,-1,-1,88,90,92,94,-1,96,98,100,102,104,-1,106,-1,108,110,112,114,116,-1,118,-1,-1,120,122,-1,-1,124,-1,126,128,-1,-1,130,132,134,-1,-1,136,138,140,-1,-1,-1,-1,-1,-1,142,144,146,148,-1,-1,-1,-1,-1,-1,-1,-1,-1,-1,-1,-1,-1,-1,-1,-1,-1,-1,-1,-1,-1,-1,-1,-1,-1,-1,-1,-1,-1,-1,-1,-1,-1,-1,-1,-1,-1,-1,-1,-1,-1,-1,-1,-1],"split_conditions":[1.6564286E3,4E0,1.3106E4,6E0,6E0,1.0867E4,2.86E3,1.23E2,1.2E1,1.23E2,1.449375E3,-3.2997783E-2,1.5742442E-1,5.827974E-2,2.2447627E3,5.7110223E2,3.89E2,9.41E2,2.7715E4,1.8E1,3.89E2,2.4E1,1.3106E4,-6.0116388E-2,2.4247091E-2,1.9079576E-1,1.8181819E5,3E0,1E0,1E0,-5.957492E-2,1.786E3,3.0943438E7,3.4641016E0,2.9277003E0,2.828427E0,-6.0074147E-2,1.0420737E1,3.352E3,1.1595E4,-6.0233682E-2,2.4E1,1.0059518E0,7.51E2,8E1,-5.9645843E-2,7.696057E1,-6.0193818E-2,1.335E3,5.263158E4,4.27E2,5.63E2,1.8158926E2,-5.9904274E-2,6.184118E-2,2E0,4E0,1.335E3,1.9079576E-1,-6.013176E-2,2.4E1,9.25E0,8.4E1,3.6978208E-2,3.665E3,-5.634386E-2,1.4817878E3,-5.2633505E-2,2E0,9.964552E-1,5E0,7.6045625E3,1.8518518E3,-5.688223E-2,2E0,-5.540192E-2,1.4929813E-1,5.63E2,5.7110223E2,-5.6987293E-2,-1.1062195E-2,2.9277003E0,7.0106916E-2,3.89E2,1.1084143E-1,1.8146569E-1,7.615541E-2,2E0,1.4245015E2,1E0,1.571279E-1,-6.235748E-2,1E0,1.0327955E0,2.1410562E-1,1.6269216E-1,-5.8273196E-2,1.808334E-2,1.5740421E-1,-6.0144693E-2,1.3557442E-3,1.87E2,1.717E3,1.23E2,9.581567E-2,1.5937081E-1,4.7846884E-2,-5.3331267E-2,1.4229558E-1,-2.7662763E-2,1.5905987E-1,-5.879814E-2,2.9571936E-2,-1.2230783E-2,5.8590513E-2,7.44649E-2,1.526702E-1,-5.8005888E-2,1.573304E-1,1.6305904E-1,-4.539065E-2,-6.0064163E-2,-2.1981293E-2,1.5543137E-1,1.5755312E-1,4.0730014E-2,-5.8328845E-2,1.5471904E-1,3.7909903E-2,-5.7929125E-2,1.5243857E-1,-5.8753517E-2,-5.999845E-3,1.3214925E-1,-4.0955555E-2,1.5740035E-1,-5.206078E-2,-2.710242E-2,1.5776297E-1,-3.9709862E-2,8.60619E-2,-5.8894362E-2,2.1818765E-1,-5.9914775E-2,-5.6998838E-2,1.6598772E-1,-5.761174E-2,1.4396204E-1,-5.944085E-2],"split_indices":[19,1,12,19,19,12,7,13,12,13,19,0,0,0,0,11,13,21,13,1,13,13,12,0,0,22,11,15,6,6,0,12,21,0,0,10,0,22,7,12,0,13,22,21,13,0,11,0,21,22,21,13,22,0,0,3,3,21,22,0,1,3,3,22,12,0,19,0,15,11,15,11,11,0,15,0,0,13,11,0,0,0,0,13,11,0,0,2,22,8,0,0,6,10,11,0,0,0,0,0,0,2,13,13,11,0,0,0,0,0,0,0,0,0,0,0,0,0,0,0,0,0,0,0,0,0,0,0,0,0,0,0,0,0,0,0,0,0,0,0,0,0,0,0,0,0,0,0,0],"split_type":[0,0,0,0,0,0,0,0,0,0,0,0,0,0,0,0,0,0,0,0,0,0,0,0,0,0,0,0,0,0,0,0,0,0,0,0,0,0,0,0,0,0,0,0,0,0,0,0,0,0,0,0,0,0,0,0,0,0,0,0,0,0,0,0,0,0,0,0,0,0,0,0,0,0,0,0,0,0,0,0,0,0,0,0,0,0,0,0,0,0,0,0,0,0,0,0,0,0,0,0,0,0,0,0,0,0,0,0,0,0,0,0,0,0,0,0,0,0,0,0,0,0,0,0,0,0,0,0,0,0,0,0,0,0,0,0,0,0,0,0,0,0,0,0,0,0,0,0,0],"sum_hessian":[2.823538E5,2.4870519E5,3.3648637E4,5.9265188E4,1.8944E5,3.2369633E4,1.279002E3,3.6261035E4,2.3004152E4,3.6390137E4,1.5304988E5,4.7420526E0,3.236489E4,4.0332494E0,1.2749686E3,1.6714945E4,1.954609E4,2.204522E4,9.5893176E2,1.4522916E4,2.1867219E4,1.5090973E5,2.1401284E3,1.2712626E3,3.7060983E0,5.750711E3,1.0964234E4,1.2699926E2,1.941909E4,2.1952383E4,9.28389E1,4.3843863E2,5.2049316E2,6.912171E3,7.610745E3,9.240439E2,2.0943176E4,2.0022032E3,1.4890753E5,1.0864763E3,1.0536522E3,9.690059E2,4.781705E3,4.6556016E3,6.3086323E3,1.0493826E2,2.2060999E1,1.8977506E4,4.4158475E2,1.278738E1,2.1939594E4,4.0366653E2,3.477207E1,5.167307E2,3.762424E0,5.920594E3,9.9157654E2,6.819237E3,7.9150806E2,8.812317E2,4.281222E1,9.7142487E2,1.0307783E3,1.4736358E5,1.5439604E3,1.6692286E1,1.069784E3,1.1186075E1,9.578198E2,2.2458506E3,2.5358545E3,2.6625962E3,1.9930054E3,2.2682562E1,6.2859497E3,1.1218152E1,1.0842846E1,1.248318E1,4.2910156E2,9.692825E0,3.094555E0,2.193528E4,4.3158903E0,2.2135332E2,1.8231323E2,3.175897E1,3.0131023E0,2.815435E2,5.639051E3,1.4893598E1,9.766829E2,3.0092924E1,6.789144E3,4.5624246E2,3.352656E2,1.2557355E1,3.0254866E1,4.5491786E0,9.668757E2,1.0276467E3,3.1316254E0,3.5692255E2,1.4700666E5,2.4720493E2,1.2967555E3,1.0644993E3,5.2848144E0,5.7548566E0,9.52065E2,2.0207096E3,2.2514088E2,2.3734204E3,1.6243413E2,5.7520715E2,2.0873892E3,3.0298428E2,1.6900211E3,1.5084787E1,6.270865E3,9.474994E0,3.0081866E0,4.259822E2,3.119359E0,1.0908086E4,1.1027192E4,4.3536404E1,1.7781693E2,2.9252773E1,1.5306046E2,2.4612955E1,2.5693054E2,2.7740117E3,2.865039E3,5.199122E0,9.694475E0,6.7827896E3,6.3545885E0,6.5138373E0,4.4972864E2,1.27307236E2,2.0795836E2,3.159389E2,4.0983654E1,1.3246681E5,1.453984E4,2.2532843E2,2.1876492E1,1.8698456E1,1.2780571E3],"tree_param":{"num_deleted":"0","num_feature":"23","num_nodes":"149","size_leaf_vector":"1"}},{"base_weights":[-1.2660274E-2,-4.0611267E-1,2.6957908E0,1.1327384E0,-9.106551E-1,2.8351488E0,-1.1779398E0,9.745594E-2,2.6737068E0,-8.160094E-2,-1.113024E0,-3.942972E-2,1.4178094E-1,4.3141194E-2,-1.1851083E0,1.4998621E0,-1.1870638E0,2.8006248E0,-4.5781353E-1,1.4811699E0,-1.186751E0,-1.1430941E0,9.257558E-1,-5.9570987E-2,4.9898114E-2,-6.8014115E-2,2.281527E0,-7.8623635E-1,-1.1897641E0,2.8163152E0,-5.8976483E-2,3.4826347E-1,-1.1692526E0,2.2512361E-2,2.72336E0,-1.1564875E0,-5.9593093E-2,8.66804E-1,-1.171176E0,2.8006465E0,-5.9633117E-2,2.5024047E0,-6.3577366E-1,2.4871218E0,-6.587412E-1,-5.9053954E-2,9.218481E-1,-5.959654E-2,-1.1507721E0,2.8185182E0,-8.8825595E-1,8.9889295E-2,3.0430408E0,-5.939446E-2,5.7182062E-2,3.048574E0,-1.0716687E0,-3.0725765E-1,2.7860944E0,-1.1883452E0,-3.2210743E-1,2.8266768E0,-1.186995E0,-1.1786003E0,-4.6899953E-1,-5.5514228E-2,2.8588674E0,2.9238493E0,-6.603726E-2,-1.0127491E0,-8.616994E-2,-8.8831764E-1,2.6342847E0,2.625921E0,-9.104867E-1,-5.4946315E-2,1.363285E-1,-5.954774E-2,-9.847112E-1,2.818898E0,1.4385469E0,-2.5580663E-3,-5.683087E-2,-7.477097E-1,1.0537888E0,1.5856084E-1,6.4765975E-2,-3.8796064E-1,3.265719E0,1.956757E0,-1.1496087E0,2.588192E0,-1.1551291E0,2.8008986E0,-1.0906724E0,-5.958448E-2,-8.391044E-1,1.4841062E-1,-5.8957547E-2,3.3499707E-2,2.8327231E0,-5.9546124E-2,1.3035244E-3,-5.385105E-1,-1.1801846E0,2.6199276E0,-1.1131694E0,1.4330287E-1,4.0270697E-2,-4.05423E-2,1.4855309E-1,-5.5461384E-2,-8.505552E-4,-2.1946719E-2,6.741286E-2,7.938892E-2,-5.8033433E-2,1.463601E-1,1.14322424E-1,1.632653E-1,-5.4928005E-2,-5.0941546E-2,3.0181816E-2,-5.9173223E-2,-2.8862974E-2,1.4189516E-1,1.3997588E-1,-2.7037978E-3,1.1530274E-1,4.511655E-2,-5.7684254E-2,1.4054112E-1,3.484982E-2,-5.9317023E-2,5.343585E-2,1.9488497E-1,1.417351E-1,-5.7421632E-2,1.373745E-1,3.374138E-2,-5.885523E-2,1.3919434E-1,3.1875916E-2,-5.9120115E-2,-1.293773E-3,1.405298E-1,-6.990403E-2,-1.086404E-2,-5.923906E-2,-5.7315137E-2,2.616374E-2,1.4180408E-1,6.92314E-2,-5.8420476E-2,1.8534982E-1,-5.930231E-2,-5.6335952E-2,1.4832556E-1,-5.5352457E-2,1.3712107E-1,-5.888033E-2],"categories":[],"categories_nodes":[],"categories_segments":[],"categories_sizes":[],"default_left":[0,0,0,0,0,0,0,0,0,0,0,0,0,0,0,0,0,0,0,0,0,0,0,0,0,0,0,0,0,0,0,0,0,0,0,0,0,0,0,0,0,0,0,0,0,0,0,0,0,0,0,0,0,0,0,0,0,0,0,0,0,0,0,0,0,0,0,0,0,0,0,0,0,0,0,0,0,0,0,0,0,0,0,0,0,0,0,0,0,0,0,0,0,0,0,0,0,0,0,0,0,0,0,0,0,0,0,0,0,0,0,0,0,0,0,0,0,0,0,0,0,0,0,0,0,0,0,0,0,0,0,0,0,0,0,0,0,0,0,0,0,0,0,0,0,0,0,0,0,0,0,0,0,0,0,0,0,0,0,0,0],"id":4,"left_children":[1,3,5,7,9,11,13,15,17,19,21,-1,-1,-1,23,25,27,29,31,33,35,37,39,-1,-1,41,43,45,47,49,-1,51,53,55,57,59,-1,61,63,65,-1,67,69,71,73,-1,75,-1,77,79,81,83,85,-1,-1,87,89,91,93,95,97,99,101,103,105,-1,107,109,-1,111,113,115,117,119,121,-1,-1,-1,123,125,127,-1,-1,129,131,-1,-1,133,135,137,139,141,143,145,147,-1,149,-1,-1,-1,151,-1,-1,153,155,157,159,-1,-1,-1,-1,-1,-1,-1,-1,-1,-1,-1,-1,-1,-1,-1,-1,-1,-1,-1,-1,-1,-1,-1,-1,-1,-1,-1,-1,-1,-1,-1,-1,-1,-1,-1,-1,-1,-1,-1,-1,-1,-1,-1,-1,-1,-1,-1,-1,-1,-1,-1,-1,-1,-1],"loss_changes":[2.9702775E5,1.889614E5,1.9089078E4,9.586868E4,3.0750203E4,6.034375E1,1.8993774E1,6.475451E4,9.599141E3,6.2111383E4,9.032844E3,0E0,0E0,0E0,1.8061157E1,2.1060832E4,1.9373047E1,1.4526875E3,5.4031616E2,2.6992557E4,1.8789062E0,8.195281E3,8.510294E3,0E0,0E0,8.346459E3,6.933797E3,8.775187E1,2.0117188E-1,1.9114062E2,0E0,3.0757715E2,2.2924744E1,2.269264E4,1.5305117E3,8.141504E1,0E0,8.058002E3,7.45875E2,2.61958E2,0E0,1.6710508E3,9.704542E2,5.326539E3,6.2276294E2,0E0,9.30336E1,0E0,5.566284E0,8.0625E0,2.9561644E0,3.2736142E2,4.5512695E0,0E0,0E0,1.3594375E3,1.1903447E3,4.0577155E2,4.5544922E2,2.461914E0,3.265088E2,1.145752E1,4.6896973E0,1.4303125E2,2.9870732E3,0E0,1.4229492E1,1.6679541E2,0E0,2.6690015E2,9.6551794E2,3.0431207E2,1.0397656E3,1.3138281E2,1.1504956E2,0E0,0E0,0E0,1.5718796E1,5.78125E-1,1.1002722E1,0E0,0E0,1.464119E2,1.1620027E2,0E0,0E0,1.2810619E2,4.5528906E2,3.1416257E2,2.4699658E2,1.2529007E1,3.8992157E0,3.236875E2,2.2664032E0,0E0,1.3779772E1,0E0,0E0,0E0,1.0390625E0,0E0,0E0,9.447585E2,4.296875E1,3.379485E2,3.1170813E2,0E0,0E0,0E0,0E0,0E0,0E0,0E0,0E0,0E0,0E0,0E0,0E0,0E0,0E0,0E0,0E0,0E0,0E0,0E0,0E0,0E0,0E0,0E0,0E0,0E0,0E0,0E0,0E0,0E0,0E0,0E0,0E0,0E0,0E0,0E0,0E0,0E0,0E0,0E0,0E0,0E0,0E0,0E0,0E0,0E0,0E0,0E0,0E0,0E0,0E0,0E0,0E0,0E0,0E0],"parents":[2147483647,0,0,1,1,2,2,3,3,4,4,5,5,6,6,7,7,8,8,9,9,10,10,14,14,15,15,16,16,17,17,18,18,19,19,20,20,21,21,22,22,25,25,26,26,27,27,28,28,29,29,31,31,32,32,33,33,34,34,35,35,37,37,38,38,39,39,41,41,42,42,43,43,44,44,46,46,48,48,49,49,50,50,51,51,52,52,55,55,56,56,57,57,58,58,59,59,60,60,61,61,62,62,63,63,64,64,66,66,67,67,69,69,70,70,71,71,72,72,73,73,74,74,78,78,79,79,80,80,83,83,84,84,87,87,88,88,89,89,90,90,91,91,92,92,93,93,94,94,96,96,100,100,103,103,104,104,105,105,106,106],"right_children":[2,4,6,8,10,12,14,16,18,20,22,-1,-1,-1,24,26,28,30,32,34,36,38,40,-1,-1,42,44,46,48,50,-1,52,54,56,58,60,-1,62,64,66,-1,68,70,72,74,-1,76,-1,78,80,82,84,86,-1,-1,88,90,92,94,96,98,100,102,104,106,-1,108,110,-1,112,114,116,118,120,122,-1,-1,-1,124,126,128,-1,-1,130,132,-1,-1,134,136,138,140,142,144,146,148,-1,150,-1,-1,-1,152,-1,-1,154,156,158,160,-1,-1,-1,-1,-1,-1,-1,-1,-1,-1,-1,-1,-1,-1,-1,-1,-1,-1,-1,-1,-1,-1,-1,-1,-1,-1,-1,-1,-1,-1,-1,-1,-1,-1,-1,-1,-1,-1,-1,-1,-1,-1,-1,-1,-1,-1,-1,-1,-1,-1,-1,-1,-1,-1],"split_conditions":[1.6564286E3,4E0,1.3106E4,6E0,6E0,1.0867E4,7.558461E2,1.23E2,1.2E1,1.23E2,1.449375E3,-3.942972E-2,1.4178094E-1,4.3141194E-2,5.6768565E6,5.7110223E2,3.89E2,9.41E2,2.7715E4,1.8E1,3.3333333E0,2.4E1,1.3106E4,-5.9570987E-2,4.9898114E-2,1.9079576E-1,2.83E2,3E0,3E0,1E0,-5.8976483E-2,2.9876923E2,3.0943438E7,2.52E2,4.4E0,2.8E0,-5.9593093E-2,1.0420737E1,3.352E3,1.1595E4,-5.9633117E-2,3.1088E4,2.92E4,2.51E2,1E0,-5.9053954E-2,7.696057E1,-5.959654E-2,2.92E4,3.1088E4,3.7134E4,5.63E2,6.1383587E1,-5.939446E-2,5.7182062E-2,4.8E0,2E0,2.52E2,2.669281E2,1.6425E4,4.8E0,7.9E1,8.4E1,3.6978208E-2,3.665E3,-5.5514228E-2,1.4817878E3,2.51E2,-6.603726E-2,5E0,9.964552E-1,2.29E2,2.52E2,9.049773E3,4E5,-5.4946315E-2,1.363285E-1,-5.954774E-2,2.503129E3,2E0,8.097166E3,-2.5580663E-3,-5.683087E-2,1.23E2,1.1084143E-1,1.5856084E-1,6.4765975E-2,9.41E2,1.2E1,2E0,2.4E1,1E0,1.2847835E0,3.1088E4,1.5706778E-1,-5.958448E-2,4E0,1.4841062E-1,-5.8957547E-2,3.3499707E-2,3E1,-5.9546124E-2,1.3035244E-3,1.21E2,1.717E3,1.8717455E0,1.2E1,1.4330287E-1,4.0270697E-2,-4.05423E-2,1.4855309E-1,-5.5461384E-2,-8.505552E-4,-2.1946719E-2,6.741286E-2,7.938892E-2,-5.8033433E-2,1.463601E-1,1.14322424E-1,1.632653E-1,-5.4928005E-2,-5.0941546E-2,3.0181816E-2,-5.9173223E-2,-2.8862974E-2,1.4189516E-1,1.3997588E-1,-2.7037978E-3,1.1530274E-1,4.511655E-2,-5.7684254E-2,1.4054112E-1,3.484982E-2,-5.9317023E-2,5.343585E-2,1.9488497E-1,1.417351E-1,-5.7421632E-2,1.373745E-1,3.374138E-2,-5.885523E-2,1.3919434E-1,3.1875916E-2,-5.9120115E-2,-1.293773E-3,1.405298E-1,-6.990403E-2,-1.086404E-2,-5.923906E-2,-5.7315137E-2,2.616374E-2,1.4180408E-1,6.92314E-2,-5.8420476E-2,1.8534982E-1,-5.930231E-2,-5.6335952E-2,1.4832556E-1,-5.5352457E-2,1.3712107E-1,-5.888033E-2],"split_indices":[19,9,12,19,19,12,17,13,12,13,19,0,0,0,5,11,13,21,13,9,17,13,12,0,0,22,14,15,15,4,0,17,21,14,17,17,0,22,7,12,0,14,14,14,4,0,11,0,14,14,13,13,11,0,0,5,3,14,10,14,5,12,3,22,12,0,19,14,0,15,11,14,14,22,11,0,0,0,22,2,11,0,0,13,11,0,0,21,5,2,13,4,11,14,11,0,3,0,0,0,15,0,0,2,13,22,14,0,0,0,0,0,0,0,0,0,0,0,0,0,0,0,0,0,0,0,0,0,0,0,0,0,0,0,0,0,0,0,0,0,0,0,0,0,0,0,0,0,0,0,0,0,0,0,0,0,0,0,0,0,0],"split_type":[0,0,0,0,0,0,0,0,0,0,0,0,0,0,0,0,0,0,0,0,0,0,0,0,0,0,0,0,0,0,0,0,0,0,0,0,0,0,0,0,0,0,0,0,0,0,0,0,0,0,0,0,0,0,0,0,0,0,0,0,0,0,0,0,0,0,0,0,0,0,0,0,0,0,0,0,0,0,0,0,0,0,0,0,0,0,0,0,0,0,0,0,0,0,0,0,0,0,0,0,0,0,0,0,0,0,0,0,0,0,0,0,0,0,0,0,0,0,0,0,0,0,0,0,0,0,0,0,0,0,0,0,0,0,0,0,0,0,0,0,0,0,0,0,0,0,0,0,0,0,0,0,0,0,0,0,0,0,0,0,0],"sum_hessian":[2.7872803E5,2.433743E5,3.535375E4,6.009221E4,1.832821E5,3.412632E4,1.2274309E3,3.5944418E4,2.4147793E4,3.5960875E4,1.473212E5,4.2072625E0,3.4122113E4,3.8786922E0,1.2235521E3,1.7183615E4,1.8760803E4,2.3207322E4,9.4046954E2,1.4896164E4,2.106471E4,1.4518038E5,2.1408367E3,1.2204779E3,3.0742385E0,5.717092E3,1.1466522E4,1.2749928E2,1.8633303E4,2.3116486E4,9.083624E1,4.4114853E2,4.9932104E2,6.8516016E3,8.0445625E3,3.076249E3,1.7988463E4,2.0000625E3,1.4318031E5,1.1355258E3,1.00531104E3,1.0337203E3,4.6833716E3,1.0717283E4,7.492392E2,1.038108E2,2.3688482E1,1.762439E4,1.00891284E3,2.3102988E4,1.3498729E1,4.0349493E2,3.765358E1,4.9581232E2,3.508708E0,1.8190529E3,5.032549E3,1.6306801E2,7.8814946E3,2.9627048E3,1.1354427E2,1.023241E3,9.7682153E2,1.4168158E5,1.4987317E3,1.639121E1,1.1191345E3,9.3129443E2,1.0242596E2,2.7774587E3,1.9059127E3,4.475231E2,1.026976E4,5.2664593E1,6.965746E2,1.1359812E1,1.2328671E1,8.073755E2,2.0153732E2,2.3095588E4,7.400908E0,3.3645647E0,1.0134164E1,2.160117E2,1.8748325E2,3.4321957E1,3.3316228E0,1.0806302E2,1.7109899E3,1.2566382E2,4.9068853E3,3.647039E1,1.2659762E2,7.8517886E3,2.9705858E1,2.932213E3,3.0491737E1,2.2954636E1,9.058964E1,3.1733053E0,1.0200677E3,9.736873E2,3.1342194E0,3.5066144E2,1.4133092E5,2.5808652E2,1.2406451E3,1.1148353E3,4.29921E0,1.1424144E1,9.1987024E2,2.5320142E3,2.4544469E2,1.5302716E3,3.7564114E2,4.386765E1,4.0365546E2,5.5709644E3,4.6987954E3,4.50535E1,7.6110897E0,6.5036444E2,4.621017E1,1.3418024E2,6.735709E1,1.1587316E4,1.15082705E4,3.0649905E0,4.3359175E0,4.2411674E1,1.7360004E2,3.0484322E1,1.5699892E2,6.99243E1,3.8138714E1,6.904993E2,1.0204905E3,2.5413448E1,1.0025037E2,7.2503586E1,4.8343813E3,3.2757015E1,3.7133753E0,1.2356624E2,3.0313783E0,7.834027E3,1.7761833E1,3.211339E0,2.649452E1,2.5010748E1,5.480988E0,1.01675104E3,3.3166542E0,3.059874E2,4.4674065E1,1.2734811E5,1.39828125E4,2.3631488E2,2.1771643E1,1.971051E1,1.2209347E3],"tree_param":{"num_deleted":"0","num_feature":"23","num_nodes":"161","size_leaf_vector":"1"}},{"base_weights":[-1.2861272E-2,-3.957581E-1,2.4711065E0,1.0690081E0,-8.9630747E-1,2.5924962E0,-1.1672497E0,9.672029E-2,2.461098E0,-7.930957E-2,-1.0999997E0,-3.0498832E-2,1.2964551E-1,4.002076E-2,-1.174503E0,1.5380903E0,-4.4161916E-1,2.5605402E0,-6.246945E-1,-7.7896595E-1,1.9770982E0,-1.1309687E0,9.007032E-1,-5.9004106E-2,1.653429E-2,2.2107913E0,-5.9158202E-2,-1.0262203E0,1.4031598E-1,2.5743127E0,-5.841279E-2,-5.9040498E-2,4.5834273E-1,-2.2790766E-1,-1.0923275E0,2.4849315E0,-3.285759E-1,-1.1684433E0,-9.1531265E-1,2.563651E0,-5.9067022E-2,-5.9069067E-2,2.5792887E0,-1.0405498E0,2.0425875E0,-7.3544025E-2,1.864114E0,-5.0167736E-2,2.5762784E0,1.2137535E-1,1.3294391E-1,1.5867319E0,-8.124249E-1,-1.1285713E0,2.313344E0,-1.8717109E-1,2.5885744E0,-1.0050852E0,2.07648E0,-1.1687135E0,9.908589E-1,6.7464304E-1,-1.0160894E0,-5.7446856E-2,2.6105685E0,-5.981135E-2,2.5986297E0,-8.894516E-1,-1.1758498E0,1.5189725E-1,-5.546419E-2,5.1084936E-1,-5.9735686E-1,2.3546765E0,-9.867329E-1,2.576665E0,1.2462672E0,-5.8332223E-2,6.431788E-1,-3.9512175E-1,2.1990178E0,-1.1665692E0,5.26123E-1,1.0914389E0,-1.1505525E0,4.8039753E-2,1.2915033E-1,-9.8522985E-1,1.3881216E0,2.5959244E0,-5.5725276E-2,-5.9165575E-2,-1.4998792E-1,-1.1234201E0,1.2982187E-1,-1.1136767E0,-1.1789516E0,1.1739484E-1,-5.092151E-2,-5.904309E-2,1.294872E-1,-1.0997574E0,-2.1915708E-2,1.3086702E-1,3.8998496E-2,1.3025773E-1,-5.4935392E-2,-5.894487E-2,1.2476418E-1,-5.9139438E-2,-5.6762137E-2,-5.5260487E-2,6.5634586E-2,-4.3581784E-2,4.3244366E-2,1.250696E-1,-2.5507007E-2,1.0791302E-1,-5.8620866E-2,1.2790929E-1,1.2974076E-1,-1.583271E-2,1.08780615E-1,-5.375978E-2,3.6887724E-2,-5.845086E-2,9.2882514E-2,1.2332543E-1,-8.543199E-3,-5.887683E-2,-4.6392642E-2,7.51278E-2,-4.9707286E-2,1.2419212E-1,-5.8120873E-2,-5.8458257E-2,1.7965546E-2,1.124207E-1,-5.5050492E-2,8.628578E-2,-5.4240197E-2,8.40536E-2,-4.6031043E-2,-2.3493042E-2,1.3006055E-1,-5.8111023E-2,8.084377E-2,-2.273245E-2,-5.7870712E-2,-5.6278575E-2,1.6206786E-1,-6.1177798E-3,-5.8972012E-2,-5.7068992E-2,3.2228213E-2,1.1390283E-1,-5.6332476E-2],"categories":[],"categories_nodes":[],"categories_segments":[],"categories_sizes":[],"default_left":[0,0,0,0,0,0,0,0,0,0,0,0,0,0,0,0,0,0,0,0,0,0,0,0,0,0,0,0,0,0,0,0,0,0,0,0,0,0,0,0,0,0,0,0,0,0,0,0,0,0,0,0,0,0,0,0,0,0,0,0,0,0,0,0,0,0,0,0,0,0,0,0,0,0,0,0,0,0,0,0,0,0,0,0,0,0,0,0,0,0,0,0,0,0,0,0,0,0,0,0,0,0,0,0,0,0,0,0,0,0,0,0,0,0,0,0,0,0,0,0,0,0,0,0,0,0,0,0,0,0,0,0,0,0,0,0,0,0,0,0,0,0,0,0,0,0,0,0,0,0,0,0,0,0,0,0,0],"id":5,"left_children":[1,3,5,7,9,11,13,15,17,19,21,-1,-1,-1,23,25,27,29,31,33,35,37,39,-1,-1,41,-1,43,45,47,-1,-1,49,51,53,55,57,59,61,63,-1,-1,65,67,69,71,73,-1,75,77,-1,79,81,83,85,87,89,91,93,95,97,99,101,-1,103,-1,105,107,109,-1,-1,111,113,115,117,119,121,-1,123,125,127,129,131,133,135,137,-1,139,141,143,-1,-1,145,147,-1,149,151,-1,-1,-1,-1,153,155,-1,-1,-1,-1,-1,-1,-1,-1,-1,-1,-1,-1,-1,-1,-1,-1,-1,-1,-1,-1,-1,-1,-1,-1,-1,-1,-1,-1,-1,-1,-1,-1,-1,-1,-1,-1,-1,-1,-1,-1,-1,-1,-1,-1,-1,-1,-1,-1,-1,-1,-1,-1,-1,-1],"loss_changes":[2.6044281E5,1.7395666E5,1.6155766E4,8.179037E4,2.9427594E4,4.85E1,1.7802856E1,2.7608754E4,7.6268594E3,5.0776383E4,8.770953E3,0E0,0E0,0E0,1.0279053E1,1.7714326E4,8.813184E3,1.2393438E3,4.6828278E2,4.5468E3,1.0490992E4,1.1254062E3,7.475103E3,0E0,0E0,9.700641E3,0E0,5.7041504E2,4.7864194E3,1.7126562E2,0E0,0E0,1.955821E2,1.0127629E4,2.0746074E3,2.0338359E3,2.6346135E3,7.0390625E1,3.307832E3,2.1204248E2,0E0,0E0,5.141289E2,2.619375E2,1.9286072E2,3.5362798E3,2.0064004E3,0E0,9.109375E0,1.5544026E2,0E0,2.8237485E3,3.423958E3,8.1180273E2,1.0805359E2,3.4718893E2,1.9527344E2,1.9237378E2,5.944501E2,6.5609375E1,4.435773E1,4.376865E3,1.6145195E3,0E0,1.2654785E1,0E0,1.7083203E2,5.9607134E3,5.683594E-1,0E0,0E0,7.077198E3,2.4439453E3,5.152827E2,1.2580058E2,1.40625E0,1.361471E1,0E0,2.7518463E1,9.609031E2,1.1271465E3,1.3858887E1,2.2453728E3,5.155692E2,4.6264258E2,5.2681103E1,0E0,5.131578E1,6.4388535E1,1.1555859E2,0E0,0E0,3.9366977E2,6.19442E-1,0E0,9.6929297E2,5.1515625E1,0E0,0E0,0E0,0E0,1.3005703E3,3.8335117E3,0E0,0E0,0E0,0E0,0E0,0E0,0E0,0E0,0E0,0E0,0E0,0E0,0E0,0E0,0E0,0E0,0E0,0E0,0E0,0E0,0E0,0E0,0E0,0E0,0E0,0E0,0E0,0E0,0E0,0E0,0E0,0E0,0E0,0E0,0E0,0E0,0E0,0E0,0E0,0E0,0E0,0E0,0E0,0E0,0E0,0E0,0E0,0E0,0E0,0E0,0E0,0E0,0E0,0E0],"parents":[2147483647,0,0,1,1,2,2,3,3,4,4,5,5,6,6,7,7,8,8,9,9,10,10,14,14,15,15,16,16,17,17,18,18,19,19,20,20,21,21,22,22,25,25,27,27,28,28,29,29,32,32,33,33,34,34,35,35,36,36,37,37,38,38,39,39,42,42,43,43,44,44,45,45,46,46,48,48,49,49,51,51,52,52,53,53,54,54,55,55,56,56,57,57,58,58,59,59,60,60,61,61,62,62,64,64,66,66,67,67,68,68,71,71,72,72,73,73,74,74,75,75,76,76,78,78,79,79,80,80,81,81,82,82,83,83,84,84,85,85,87,87,88,88,89,89,92,92,93,93,95,95,96,96,101,101,102,102],"right_children":[2,4,6,8,10,12,14,16,18,20,22,-1,-1,-1,24,26,28,30,32,34,36,38,40,-1,-1,42,-1,44,46,48,-1,-1,50,52,54,56,58,60,62,64,-1,-1,66,68,70,72,74,-1,76,78,-1,80,82,84,86,88,90,92,94,96,98,100,102,-1,104,-1,106,108,110,-1,-1,112,114,116,118,120,122,-1,124,126,128,130,132,134,136,138,-1,140,142,144,-1,-1,146,148,-1,150,152,-1,-1,-1,-1,154,156,-1,-1,-1,-1,-1,-1,-1,-1,-1,-1,-1,-1,-1,-1,-1,-1,-1,-1,-1,-1,-1,-1,-1,-1,-1,-1,-1,-1,-1,-1,-1,-1,-1,-1,-1,-1,-1,-1,-1,-1,-1,-1,-1,-1,-1,-1,-1,-1,-1,-1,-1,-1,-1,-1],"split_conditions":[1.6564286E3,4E0,1.3106E4,6E0,6E0,1.0867E4,2.86E3,9E0,1.2E1,3E0,1.449375E3,-3.0498832E-2,1.2964551E-1,4.002076E-2,5.0393485E6,3.04E2,2E0,9.41E2,1E0,2.52E2,3.7E1,2.92E4,1.3106E4,-5.9004106E-2,1.653429E-2,2.51E2,-5.9158202E-2,4.52E2,5E0,1E0,-5.841279E-2,-5.9040498E-2,3.936513E6,6E0,1.0504912E8,6E0,9.933358E7,5.755E3,2.048E2,1.1595E4,-5.9067022E-2,-5.9069067E-2,2E0,2.69E2,2.35E2,3.04E2,8E0,-5.0167736E-2,3.1088E4,2.7668564E0,1.3294391E-1,9.41E2,2.29E2,2E0,3E1,1.2094221E2,2.58E2,2.92E4,1E0,4.6E1,5.803E3,7.5E1,1.6E1,-5.7446856E-2,1.4817878E3,-5.981135E-2,1E0,2.59E2,1.444E3,1.5189725E-1,-5.546419E-2,2.51E2,5.03163E5,9.99937E5,1.0085413E-1,1.073E3,8.097166E3,-5.8332223E-2,4.9E1,2.19E2,4.2426405E0,8.095E3,1.5625E2,2.2142856E0,2E0,2E0,1.2915033E-1,6.991782E-2,2.52E2,2.56E2,-5.5725276E-2,-5.9165575E-2,7.56152E5,6.6E1,1.2982187E-1,6.41E7,6.7E1,1.1739484E-1,-5.092151E-2,-5.904309E-2,1.294872E-1,1.1921644E6,8.9E1,1.3086702E-1,3.8998496E-2,1.3025773E-1,-5.4935392E-2,-5.894487E-2,1.2476418E-1,-5.9139438E-2,-5.6762137E-2,-5.5260487E-2,6.5634586E-2,-4.3581784E-2,4.3244366E-2,1.250696E-1,-2.5507007E-2,1.0791302E-1,-5.8620866E-2,1.2790929E-1,1.2974076E-1,-1.583271E-2,1.08780615E-1,-5.375978E-2,3.6887724E-2,-5.845086E-2,9.2882514E-2,1.2332543E-1,-8.543199E-3,-5.887683E-2,-4.6392642E-2,7.51278E-2,-4.9707286E-2,1.2419212E-1,-5.8120873E-2,-5.8458257E-2,1.7965546E-2,1.124207E-1,-5.5050492E-2,8.628578E-2,-5.4240197E-2,8.40536E-2,-4.6031043E-2,-2.3493042E-2,1.3006055E-1,-5.8111023E-2,8.084377E-2,-2.273245E-2,-5.7870712E-2,-5.6278575E-2,1.6206786E-1,-6.1177798E-3,-5.8972012E-2,-5.7068992E-2,3.2228213E-2,1.1390283E-1,-5.6332476E-2],"split_indices":[19,1,12,20,19,12,7,21,12,8,19,0,0,0,5,14,15,21,6,14,1,14,12,0,0,14,0,12,15,6,0,0,16,17,21,17,21,7,5,12,0,0,15,14,14,14,15,0,14,11,0,21,14,3,3,11,14,14,6,19,7,12,8,0,19,0,6,14,14,0,0,14,16,16,11,14,11,0,16,14,10,21,5,19,20,3,0,11,14,14,0,0,21,1,0,16,21,0,0,0,0,5,19,0,0,0,0,0,0,0,0,0,0,0,0,0,0,0,0,0,0,0,0,0,0,0,0,0,0,0,0,0,0,0,0,0,0,0,0,0,0,0,0,0,0,0,0,0,0,0,0,0,0,0,0,0,0],"split_type":[0,0,0,0,0,0,0,0,0,0,0,0,0,0,0,0,0,0,0,0,0,0,0,0,0,0,0,0,0,0,0,0,0,0,0,0,0,0,0,0,0,0,0,0,0,0,0,0,0,0,0,0,0,0,0,0,0,0,0,0,0,0,0,0,0,0,0,0,0,0,0,0,0,0,0,0,0,0,0,0,0,0,0,0,0,0,0,0,0,0,0,0,0,0,0,0,0,0,0,0,0,0,0,0,0,0,0,0,0,0,0,0,0,0,0,0,0,0,0,0,0,0,0,0,0,0,0,0,0,0,0,0,0,0,0,0,0,0,0,0,0,0,0,0,0,0,0,0,0,0,0,0,0,0,0,0,0],"sum_hessian":[2.7383025E5,2.3725838E5,3.6571887E4,6.0427426E4,1.7683095E5,3.539138E4,1.1805057E3,3.5578875E4,2.4848553E4,3.5289234E4,1.4154172E5,4.383012E0,3.5386996E4,3.9340699E0,1.1765717E3,9.674405E3,2.5904469E4,2.4072953E4,7.756004E2,2.6331148E4,8.958086E3,1.3938461E5,2.1571057E3,1.1724419E3,4.129771E0,7.757034E3,1.9173711E3,1.2922253E4,1.2982217E4,2.3984672E4,8.827978E1,5.124027E2,2.6319763E2,9.545953E3,1.6785195E4,7.3411035E3,1.6169825E3,1.1874568E5,2.063893E4,1.1991233E3,9.5798236E2,7.598736E2,6.9971606E3,1.2862853E4,5.9400486E1,1.1550217E4,1.4320002E3,1.2891465E1,2.3971781E4,2.2916138E2,3.4036263E1,2.3253052E3,7.2206475E3,1.6609107E4,1.7608865E2,2.7407788E2,7.067026E3,1.2624536E3,3.5452887E2,1.1873129E5,1.4391077E1,1.2298522E3,1.9409078E4,1.4671526E1,1.1844518E3,3.5351818E1,6.9618086E3,6.080239E3,6.7826133E3,4.5171516E1,1.42289715E1,5.4594214E3,6.0907954E3,1.2219125E3,2.1008778E2,2.3963883E4,7.8990383E0,6.5714905E1,1.6344647E2,5.4891736E2,1.7763878E3,5.7100483E3,1.5105991E3,1.6236414E2,1.6446744E4,1.8857134E1,1.5723152E2,1.8216557E2,9.19123E1,7.053325E3,1.3700555E1,1.0443898E3,2.1806386E2,4.9393417E1,3.0513544E2,1.8639824E4,1.0009146E5,8.489142E0,5.901935E0,6.2483997E2,6.050122E2,1.790234E4,1.5067373E3,1.1796581E3,4.793605E0,6.94984E3,1.1968883E1,5.601848E3,4.783904E2,5.7687266E3,1.0138868E3,1.8103682E3,3.649053E3,5.129112E3,9.616836E2,1.162504E3,5.940844E1,1.112009E1,1.989677E2,1.1944523E4,1.2019358E4,3.1913214E0,4.707717E0,7.985567E0,1.554609E2,4.0892154E2,1.3999586E2,1.5961841E3,1.8020364E2,5.455473E3,2.5457555E2,9.198272E2,5.907719E2,1.0029878E2,6.2065346E1,1.624669E4,2.0005315E2,6.1408825E0,1.2716251E1,5.8753695E0,1.762902E2,8.1804245E1,1.0108059E1,1.1991045E1,7.041334E3,1.3885583E2,7.920802E1,3.084571E0,4.6308846E1,1.8589793E4,5.0032627E1,4.6386726E1,1.0004508E5,1.7485455E4,4.168866E2,4.8855035E2,1.01818695E3],"tree_param":{"num_deleted":"0","num_feature":"23","num_nodes":"157","size_leaf_vector":"1"}},{"base_weights":[-1.4633272E-2,-3.8775444E-1,2.2912464E0,1.0106866E0,-8.840526E-1,2.3987873E0,-1.153803E0,9.2061006E-2,2.2802145E0,-7.91192E-2,-1.088787E0,-2.9754901E-2,1.199579E-1,-1.1613536E0,5.7984807E-2,1.3267982E0,-1.1666286E0,2.36955E0,-6.172753E-1,1.3163185E0,-1.1660095E0,-1.1198728E0,8.4616387E-1,3.965439E-2,-5.849504E-2,-2.6836686E-2,1.9607522E0,-5.859028E-2,-9.7570837E-1,2.3815334E0,-5.7864465E-2,-5.8523446E-2,3.984998E-1,3.571661E-2,2.316098E0,-5.8544673E-2,-8.465202E-1,7.75872E-1,-1.1485554E0,2.370363E0,-5.8545597E-2,2.1440127E0,-5.473704E-1,2.1189675E0,-5.6896764E-1,1.2796739E0,-1.1717526E0,2.383205E0,-8.3860993E-1,-9.922216E-1,9.4663066E-1,2.5643015E0,-1.0454569E0,2.3713706E0,4.1355576E-2,1.5780215E0,-5.837046E-2,2.4031293E0,-1.1645269E0,-1.1562717E0,-4.3731463E-1,-5.6516003E-2,2.4113767E0,2.4859498E0,-6.554265E-2,-7.460905E-1,1.0724738E0,-8.826068E-1,2.2293139E0,-9.152849E-1,3.0265849E0,-5.515447E-2,1.4532126E-1,-5.880178E-2,-2.1354802E-2,2.3834045E0,5.621297E-2,-3.4005295E-3,-5.502025E-2,1.1228279E-1,-5.8026817E-2,6.3683057E-1,1.1976359E-1,-4.5185953E-1,2.7429686E0,1.2040806E0,-1.1142464E0,2.3818054E0,-6.527605E-2,1.2321464E-1,-1.1031094E0,-5.387802E-2,1.340421E-1,2.0200858E-2,1.20536566E-1,1.0878561E-3,-5.8491495E-2,-5.166243E-1,-1.1579154E0,2.389481E0,-1.0812794E0,1.209378E-1,2.6514832E-2,-4.6507027E-2,1.272228E-1,-8.67778E-3,-5.9105653E-2,-2.993597E-2,1.1572701E-1,7.589095E-2,-5.1867127E-2,1.12557426E-1,-6.338027E-2,-2.4899213E-2,-6.310298E-2,1.113413E-3,1.5911381E-1,1.1829739E-1,1.2002573E-1,-4.8774365E-2,3.449379E-2,1.294346E-1,-3.9790258E-2,1.570162E-1,1.2294383E-1,-5.8891483E-2,1.2833798E-1,5.2523036E-2,-5.7168406E-2,-4.1641947E-2,1.1952787E-1,-3.0570333E-3,-5.8399923E-2,-5.7246447E-2,1.4571989E-1,-5.8211964E-2,-5.5029053E-2,1.3417412E-1,-5.401482E-2,1.2522222E-1,-5.764057E-2],"categories":[],"categories_nodes":[],"categories_segments":[],"categories_sizes":[],"default_left":[0,0,0,0,0,0,0,0,0,0,0,0,0,0,0,0,0,0,0,0,0,0,0,0,0,0,0,0,0,0,0,0,0,0,0,0,0,0,0,0,0,0,0,0,0,0,0,0,0,0,0,0,0,0,0,0,0,0,0,0,0,0,0,0,0,0,0,0,0,0,0,0,0,0,0,0,0,0,0,0,0,0,0,0,0,0,0,0,0,0,0,0,0,0,0,0,0,0,0,0,0,0,0,0,0,0,0,0,0,0,0,0,0,0,0,0,0,0,0,0,0,0,0,0,0,0,0,0,0,0,0,0,0,0,0,0,0,0,0,0,0],"id":6,"left_children":[1,3,5,7,9,11,13,15,17,19,21,-1,-1,23,-1,25,27,29,31,33,35,37,39,-1,-1,41,43,-1,45,47,-1,-1,49,51,53,-1,55,57,59,61,-1,63,65,67,69,71,73,75,77,79,81,83,85,87,89,91,-1,93,95,97,99,-1,101,103,-1,105,107,109,111,113,115,-1,-1,-1,-1,117,-1,-1,-1,-1,-1,119,-1,121,123,125,127,129,-1,-1,131,-1,-1,-1,-1,-1,-1,133,135,137,139,-1,-1,-1,-1,-1,-1,-1,-1,-1,-1,-1,-1,-1,-1,-1,-1,-1,-1,-1,-1,-1,-1,-1,-1,-1,-1,-1,-1,-1,-1,-1,-1,-1,-1,-1,-1,-1,-1,-1,-1],"loss_changes":[2.3125116E5,1.6056478E5,1.3871703E4,7.067034E4,2.8138875E4,4.16875E1,2.1153687E1,5.4643746E4,6.586578E3,5.2516023E4,8.1888125E3,0E0,0E0,1.9815674E1,0E0,1.5231027E4,1.6064453E1,1.0457812E3,4.2848074E2,1.941062E4,2.938086E1,7.285672E3,6.621703E3,0E0,0E0,6.399315E3,4.8391914E3,0E0,2.073805E2,1.3440625E2,0E0,0E0,2.0623294E2,1.8177037E4,1.0703672E3,0E0,2.3266214E2,6.3096504E3,7.238281E2,1.7883594E2,0E0,1.2971758E3,1.4711484E3,3.7699805E3,8.8970996E2,1.4939636E2,8.6572266E-1,3.5E0,2.6489992E0,4.4365097E1,8.5398254E1,1.0744014E3,7.220615E2,3.2201562E2,5.655867E2,1.056882E2,0E0,1.5540039E1,5.7608643E0,1.3667188E2,2.5839724E3,0E0,1.555127E1,2.016289E2,0E0,1.0156306E3,1.0383091E3,1.5167581E2,8.4070703E2,9.350128E1,2.9308716E1,0E0,0E0,0E0,0E0,1.65625E0,0E0,0E0,0E0,0E0,0E0,1.4436096E1,0E0,1.1942566E2,2.0452539E2,4.5314047E2,2.8613037E2,2.351875E2,0E0,0E0,9.296646E0,0E0,0E0,0E0,0E0,0E0,0E0,7.2861633E2,4.5921875E1,2.7161853E2,2.9930396E2,0E0,0E0,0E0,0E0,0E0,0E0,0E0,0E0,0E0,0E0,0E0,0E0,0E0,0E0,0E0,0E0,0E0,0E0,0E0,0E0,0E0,0E0,0E0,0E0,0E0,0E0,0E0,0E0,0E0,0E0,0E0,0E0,0E0,0E0,0E0,0E0,0E0,0E0,0E0,0E0],"parents":[2147483647,0,0,1,1,2,2,3,3,4,4,5,5,6,6,7,7,8,8,9,9,10,10,13,13,15,15,16,16,17,17,18,18,19,19,20,20,21,21,22,22,25,25,26,26,28,28,29,29,32,32,33,33,34,34,36,36,37,37,38,38,39,39,41,41,42,42,43,43,44,44,45,45,46,46,47,47,48,48,49,49,50,50,51,51,52,52,53,53,54,54,55,55,57,57,58,58,59,59,60,60,62,62,63,63,65,65,66,66,67,67,68,68,69,69,70,70,75,75,81,81,83,83,84,84,85,85,86,86,87,87,90,90,97,97,98,98,99,99,100,100],"right_children":[2,4,6,8,10,12,14,16,18,20,22,-1,-1,24,-1,26,28,30,32,34,36,38,40,-1,-1,42,44,-1,46,48,-1,-1,50,52,54,-1,56,58,60,62,-1,64,66,68,70,72,74,76,78,80,82,84,86,88,90,92,-1,94,96,98,100,-1,102,104,-1,106,108,110,112,114,116,-1,-1,-1,-1,118,-1,-1,-1,-1,-1,120,-1,122,124,126,128,130,-1,-1,132,-1,-1,-1,-1,-1,-1,134,136,138,140,-1,-1,-1,-1,-1,-1,-1,-1,-1,-1,-1,-1,-1,-1,-1,-1,-1,-1,-1,-1,-1,-1,-1,-1,-1,-1,-1,-1,-1,-1,-1,-1,-1,-1,-1,-1,-1,-1,-1,-1],"split_conditions":[1.6564286E3,4E0,1.3106E4,6E0,6E0,1.0867E4,2.382648E3,1.23E2,1.2E1,1.23E2,1.449375E3,-2.9754901E-2,1.199579E-1,9.281621E2,5.7984807E-2,7.0654736E2,1E0,9.41E2,1E0,1.8E1,2E0,2.4E1,1.3106E4,3.965439E-2,-5.849504E-2,2.1648233E-1,2.83E2,-5.859028E-2,1.335E3,1E0,-5.7864465E-2,-5.8523446E-2,5.63E2,2.52E2,5.688E3,-5.8544673E-2,2.1908903E0,6.4345694E0,3.352E3,1.1595E4,-5.8545597E-2,3.1088E4,5.03163E5,2.51E2,1E0,3E0,7.0654736E2,4.27E2,3.7134E4,1.1084143E-1,9.99937E5,2.1908903E0,3E0,3.1088E4,2.35E2,6E0,-5.837046E-2,7E0,1.8338614E1,3.6978208E-2,3.665E3,-5.6516003E-2,1.4817878E3,2.51E2,-6.554265E-2,3.425E3,9.964552E-1,1.0045203E3,2.1908903E0,2.348E3,4.27E2,-5.515447E-2,1.4532126E-1,-5.880178E-2,-2.1354802E-2,1.073E3,5.621297E-2,-3.4005295E-3,-5.502025E-2,1.1228279E-1,-5.8026817E-2,3.7071E4,1.1976359E-1,1.2E1,3.4641016E0,3E0,2.4E1,5.3E1,-6.527605E-2,1.2321464E-1,2.1908903E0,-5.387802E-2,1.340421E-1,2.0200858E-2,1.20536566E-1,1.0878561E-3,-5.8491495E-2,1.87E2,1.717E3,1.8717455E0,1.2E1,1.209378E-1,2.6514832E-2,-4.6507027E-2,1.272228E-1,-8.67778E-3,-5.9105653E-2,-2.993597E-2,1.1572701E-1,7.589095E-2,-5.1867127E-2,1.12557426E-1,-6.338027E-2,-2.4899213E-2,-6.310298E-2,1.113413E-3,1.5911381E-1,1.1829739E-1,1.2002573E-1,-4.8774365E-2,3.449379E-2,1.294346E-1,-3.9790258E-2,1.570162E-1,1.2294383E-1,-5.8891483E-2,1.2833798E-1,5.2523036E-2,-5.7168406E-2,-4.1641947E-2,1.1952787E-1,-3.0570333E-3,-5.8399923E-2,-5.7246447E-2,1.4571989E-1,-5.8211964E-2,-5.5029053E-2,1.3417412E-1,-5.401482E-2,1.2522222E-1,-5.764057E-2],"split_indices":[19,1,18,20,19,18,0,13,18,13,19,0,0,0,0,22,6,21,6,1,20,13,18,0,0,22,14,0,21,4,0,0,13,14,16,0,0,22,7,18,0,14,16,14,6,15,22,21,13,11,16,0,16,14,14,2,0,15,22,22,18,0,19,14,0,16,11,11,0,14,21,0,0,0,0,14,0,0,0,0,0,16,0,14,0,15,13,13,0,0,0,0,0,0,0,0,0,2,13,22,14,0,0,0,0,0,0,0,0,0,0,0,0,0,0,0,0,0,0,0,0,0,0,0,0,0,0,0,0,0,0,0,0,0,0,0,0,0,0,0,0],"split_type":[0,0,0,0,0,0,0,0,0,0,0,0,0,0,0,0,0,0,0,0,0,0,0,0,0,0,0,0,0,0,0,0,0,0,0,0,0,0,0,0,0,0,0,0,0,0,0,0,0,0,0,0,0,0,0,0,0,0,0,0,0,0,0,0,0,0,0,0,0,0,0,0,0,0,0,0,0,0,0,0,0,0,0,0,0,0,0,0,0,0,0,0,0,0,0,0,0,0,0,0,0,0,0,0,0,0,0,0,0,0,0,0,0,0,0,0,0,0,0,0,0,0,0,0,0,0,0,0,0,0,0,0,0,0,0,0,0,0,0,0,0],"sum_hessian":[2.6877822E5,2.313445E5,3.74337E4,6.0596906E4,1.707476E5,3.6300836E4,1.1328646E3,3.515787E4,2.5439033E4,3.4623457E4,1.3612414E5,4.29522E0,3.6296543E4,1.1296757E3,3.188937E0,1.7747775E4,1.7410096E4,2.4678334E4,7.606993E2,1.5159829E4,1.9463627E4,1.3397225E5,2.1518994E3,4.5191336E0,1.1251565E3,5.661071E3,1.2086706E4,1.6945465E4,4.6463132E2,2.459509E4,8.324393E1,4.9239014E2,2.6830917E2,6.6469243E3,8.512905E3,1.9167945E4,2.9568036E2,1.9964014E3,1.3197584E5,1.2256012E3,9.262981E2,1.0942903E3,4.5667803E3,1.137542E4,7.1128595E2,3.6715206E1,4.279161E2,2.4582588E4,1.2501784E1,7.562436E1,1.9268481E2,1.9904365E3,4.656488E3,8.310921E3,2.0198415E2,3.4101555E1,2.6157883E2,1.0856853E3,9.1071594E2,1.3055877E5,1.4170673E3,1.3885211E1,1.211716E3,9.959946E2,9.82957E1,4.0682349E3,4.9854565E2,4.0311533E2,1.0972305E4,6.494751E2,6.1810852E1,1.5026799E1,2.1688406E1,4.2489288E2,3.0232315E0,2.45778E4,4.787568E0,3.4896657E0,9.012118E0,3.1270547E0,7.24973E1,1.5992381E2,3.2761E1,1.1122732E2,1.8792092E3,1.3767772E2,4.51881E3,8.287753E3,2.3167887E1,6.442894E1,1.375552E2,1.001307E1,2.4088484E1,4.3179636E0,1.0813674E3,4.039199E0,9.0667676E2,3.354431E2,1.3022333E5,2.624197E2,1.1546476E3,1.2066963E3,5.019636E0,1.651996E1,9.794747E2,1.7593958E3,2.308839E3,2.1277548E2,2.857702E2,2.3878448E1,3.7923688E2,1.0904573E4,6.7731445E1,2.9586908E2,3.5360602E2,3.101694E0,5.8709156E1,1.2234672E4,1.2343128E4,4.5400014E0,1.553838E2,1.0640104E1,1.0058721E2,7.792418E2,1.0999674E3,5.0151134E1,8.752659E1,5.951894E1,4.459291E3,2.2246447E1,8.265507E3,8.177985E0,1.2937721E2,2.8408624E2,5.1356884E1,1.172694E5,1.2953936E4,2.4213014E2,2.0289574E1,2.1918436E1,1.1327291E3],"tree_param":{"num_deleted":"0","num_feature":"23","num_nodes":"141","size_leaf_vector":"1"}},{"base_weights":[-1.4190373E-2,-3.9012602E-1,2.083142E0,9.610573E-1,-8.9258224E-1,2.2293007E0,-1.1435335E0,8.504762E-2,2.1328661E0,-7.804272E-2,-1.1064627E0,2.237753E0,-5.7218846E-2,-1.1479932E0,5.2822538E-2,1.2471105E0,-1.1564357E0,-5.779571E-2,2.1996365E0,1.2413311E0,-1.156325E0,7.4040484E-1,-1.1352057E0,-5.745101E-2,2.2412128E0,-5.8091737E-2,-6.644024E-1,-4.8804518E-2,1.8244607E0,-7.1697825E-1,-1.1594217E0,2.2253919E0,1.861609E-1,2.3267997E-2,2.164364E0,-5.8047768E-2,-8.531888E-1,2.2430441E0,-1.156747E0,-1.1439667E0,-2.4552254E-1,-1.6763793E-2,1.1207304E-1,-9.614587E-1,8.727419E-2,1.9937238E0,-5.727679E-1,1.9668828E0,-5.5416745E-1,-5.739373E-2,2.8517067E-1,-5.8101203E-2,-1.0523139E0,2.225757E0,1.1173729E0,-1.0456667E0,9.418905E-1,2.3593583E0,-1.0324028E0,2.2151456E0,-3.249872E-3,-5.7894345E-2,1.4018018E0,1.1718397E-2,1.1241807E-1,-9.214247E-3,-5.8004E-2,-4.98463E-1,-1.1456553E0,1.4281851E0,-5.8047988E-2,-5.657045E-2,-7.744766E-2,2.3112283E0,-6.4540364E-2,-7.751634E-1,9.971455E-1,-7.2728217E-1,2.0690963E0,-9.2008847E-1,2.7756295E0,-5.561487E-2,1.18082084E-1,1.954854E0,-1.1582918E0,1.1046664E-1,1.1210201E-1,8.785571E-2,-1.376311E-2,1.0524597E-1,-5.7430863E-2,1.1305697E-1,5.976624E-1,-4.3563095E-1,2.5166183E0,1.1585392E0,-1.1025718E0,2.2239254E0,-6.385102E-2,1.14964426E-1,-1.0921006E0,1.2278219E-1,-5.318078E-2,-1.1306248E0,1.3274829E-1,-1.1503838E0,-1.0553368E0,2.145852E0,-5.783182E-2,5.407949E-2,-4.7303762E-2,-4.4072203E-2,1.1791164E-1,-1.2704717E-2,-5.8573186E-2,-2.798912E-2,1.0616505E-1,8.484441E-2,-5.12033E-2,1.046281E-1,-6.0511317E-2,-5.1194247E-2,1.6416645E-2,1.4814727E-1,-4.744522E-2,1.12043224E-1,3.566025E-2,-8.558362E-3,-5.827416E-2,3.2449003E-2,-4.820087E-2,1.2729575E-1,-4.0517088E-2,1.4255136E-1,1.1403985E-1,-5.8236282E-2,1.19188204E-1,4.7091097E-2,-5.6557085E-2,-3.365716E-2,1.1156684E-1,-1.0167941E-2,-5.7483185E-2,-5.7775743E-2,-3.5384335E-2,-5.7875104E-2,-5.3997915E-2,-8.362132E-3,-5.6708064E-2,1.1685058E-1,-5.5954337E-2],"categories":[],"categories_nodes":[],"categories_segments":[],"categories_sizes":[],"default_left":[0,0,0,0,0,0,0,0,0,0,0,0,0,0,0,0,0,0,0,0,0,0,0,0,0,0,0,0,0,0,0,0,0,0,0,0,0,0,0,0,0,0,0,0,0,0,0,0,0,0,0,0,0,0,0,0,0,0,0,0,0,0,0,0,0,0,0,0,0,0,0,0,0,0,0,0,0,0,0,0,0,0,0,0,0,0,0,0,0,0,0,0,0,0,0,0,0,0,0,0,0,0,0,0,0,0,0,0,0,0,0,0,0,0,0,0,0,0,0,0,0,0,0,0,0,0,0,0,0,0,0,0,0,0,0,0,0,0,0,0,0,0,0,0,0,0,0,0,0,0,0],"id":7,"left_children":[1,3,5,7,9,11,13,15,17,19,21,23,-1,25,-1,27,29,-1,31,33,35,37,39,-1,41,-1,43,45,47,49,51,53,55,57,59,-1,61,63,65,67,69,-1,-1,71,-1,73,75,77,79,-1,81,-1,83,85,87,89,91,93,95,97,99,-1,101,-1,-1,-1,-1,103,105,107,-1,-1,109,111,-1,113,115,117,119,121,123,-1,-1,125,127,-1,-1,-1,-1,-1,-1,-1,129,131,133,135,137,139,-1,-1,141,-1,-1,143,-1,145,147,149,-1,-1,-1,-1,-1,-1,-1,-1,-1,-1,-1,-1,-1,-1,-1,-1,-1,-1,-1,-1,-1,-1,-1,-1,-1,-1,-1,-1,-1,-1,-1,-1,-1,-1,-1,-1,-1,-1,-1,-1,-1,-1,-1],"loss_changes":[2.0739303E5,1.5143434E5,1.8857969E4,6.2065508E4,2.8325758E4,1.0932344E3,1.8217773E1,4.9916863E4,5.6821562E3,4.8109137E4,6.836953E3,4.4964062E2,0E0,1.0809326E1,0E0,1.337159E4,2.1121094E1,0E0,1.3141953E3,1.7098553E4,2.5128906E1,5.630163E3,9.8809375E2,0E0,2.5109375E1,0E0,3.7815094E1,5.8970435E3,4.1894688E3,5.0210426E1,3.40625E0,7.625E0,3.000563E2,1.6173542E4,9.5235156E2,0E0,1.965713E2,1.1242676E1,2.616333E0,1.3629688E2,1.8981583E3,0E0,0E0,6.7609444E0,0E0,1.1761289E3,1.3941312E3,3.2139023E3,8.5453186E2,0E0,1.0574385E2,0E0,1.3122742E2,1.7421875E0,9.617286E0,4.219243E1,8.930693E1,8.9829297E2,6.957095E2,2.6203125E2,5.0154764E2,0E0,9.15384E1,0E0,0E0,0E0,0E0,6.5961755E2,5.2265625E1,8.1515405E2,0E0,0E0,9.504306E0,1.5607031E2,0E0,8.019441E2,8.7999585E2,3.090391E2,8.673906E2,8.207025E1,5.1286438E1,0E0,0E0,3.425972E0,2.579834E0,0E0,0E0,0E0,0E0,0E0,0E0,0E0,1.3422859E1,1.2449202E2,1.4590723E2,4.0318146E2,2.5673828E2,1.8257422E2,0E0,0E0,6.7145233E0,0E0,0E0,2.078064E0,0E0,5.840625E1,4.368247E2,2.1683789E2,0E0,0E0,0E0,0E0,0E0,0E0,0E0,0E0,0E0,0E0,0E0,0E0,0E0,0E0,0E0,0E0,0E0,0E0,0E0,0E0,0E0,0E0,0E0,0E0,0E0,0E0,0E0,0E0,0E0,0E0,0E0,0E0,0E0,0E0,0E0,0E0,0E0,0E0,0E0,0E0,0E0,0E0,0E0],"parents":[2147483647,0,0,1,1,2,2,3,3,4,4,5,5,6,6,7,7,8,8,9,9,10,10,11,11,13,13,15,15,16,16,18,18,19,19,20,20,21,21,22,22,24,24,26,26,27,27,28,28,29,29,30,30,31,31,32,32,33,33,34,34,36,36,37,37,38,38,39,39,40,40,43,43,45,45,46,46,47,47,48,48,50,50,52,52,53,53,54,54,55,55,56,56,57,57,58,58,59,59,60,60,62,62,67,67,68,68,69,69,72,72,73,73,75,75,76,76,77,77,78,78,79,79,80,80,83,83,84,84,92,92,93,93,94,94,95,95,96,96,97,97,100,100,103,103,105,105,106,106,107,107],"right_children":[2,4,6,8,10,12,14,16,18,20,22,24,-1,26,-1,28,30,-1,32,34,36,38,40,-1,42,-1,44,46,48,50,52,54,56,58,60,-1,62,64,66,68,70,-1,-1,72,-1,74,76,78,80,-1,82,-1,84,86,88,90,92,94,96,98,100,-1,102,-1,-1,-1,-1,104,106,108,-1,-1,110,112,-1,114,116,118,120,122,124,-1,-1,126,128,-1,-1,-1,-1,-1,-1,-1,130,132,134,136,138,140,-1,-1,142,-1,-1,144,-1,146,148,150,-1,-1,-1,-1,-1,-1,-1,-1,-1,-1,-1,-1,-1,-1,-1,-1,-1,-1,-1,-1,-1,-1,-1,-1,-1,-1,-1,-1,-1,-1,-1,-1,-1,-1,-1,-1,-1,-1,-1,-1,-1,-1,-1],"split_conditions":[1.4592941E6,4E0,1.23E2,6E0,6E0,1.3106E4,1.1595E4,1.23E2,1E0,1.23E2,2.4E1,1.1834375E3,-5.7218846E-2,4.5495905E2,5.2822538E-2,4.5495905E2,3.89E2,-5.779571E-2,4.27E2,1.8E1,2E0,1.0420737E1,1.0925289E3,-5.745101E-2,1.0867E4,-5.8091737E-2,3.12294E3,2.1648233E-1,2.83E2,1.2882448E2,1E0,3.1088E4,5.63E2,2.52E2,5.688E3,-5.8047768E-2,3.86E2,1.2132601E1,1.8338614E1,3.6978208E-2,1.3106E4,-1.6763793E-2,1.1207304E-1,1.9115957E3,8.727419E-2,3.1088E4,5.03163E5,2.51E2,1E0,-5.739373E-2,1.61E2,-5.8101203E-2,1.335E3,1.073E3,1.8867924E4,1.1084143E-1,1.8E1,2.1908903E0,3E0,3.1088E4,2.35E2,-5.7894345E-2,2.1908903E0,1.1718397E-2,1.1241807E-1,-9.214247E-3,-5.8004E-2,4.9398045E1,7.1029315E2,1.23E2,-5.8047988E-2,-5.657045E-2,5.0978E4,2.5E2,-6.4540364E-2,3.425E3,9.964552E-1,2.29E2,1.151E3,4E5,7.29927E3,-5.561487E-2,1.18082084E-1,7.8125E3,2.425E3,1.1046664E-1,1.1210201E-1,8.785571E-2,-1.376311E-2,1.0524597E-1,-5.7430863E-2,1.1305697E-1,3.572004E0,1.2E1,1E0,1.0327955E0,2.4E1,5.3E1,-6.385102E-2,1.14964426E-1,2.1908903E0,1.2278219E-1,-5.318078E-2,2.381E3,1.3274829E-1,1.717E3,2E0,4.1719595E2,-5.783182E-2,5.407949E-2,-4.7303762E-2,-4.4072203E-2,1.1791164E-1,-1.2704717E-2,-5.8573186E-2,-2.798912E-2,1.0616505E-1,8.484441E-2,-5.12033E-2,1.046281E-1,-6.0511317E-2,-5.1194247E-2,1.6416645E-2,1.4814727E-1,-4.744522E-2,1.12043224E-1,3.566025E-2,-8.558362E-3,-5.827416E-2,3.2449003E-2,-4.820087E-2,1.2729575E-1,-4.0517088E-2,1.4255136E-1,1.1403985E-1,-5.8236282E-2,1.19188204E-1,4.7091097E-2,-5.6557085E-2,-3.365716E-2,1.1156684E-1,-1.0167941E-2,-5.7483185E-2,-5.7775743E-2,-3.5384335E-2,-5.7875104E-2,-5.3997915E-2,-8.362132E-3,-5.6708064E-2,1.1685058E-1,-5.5954337E-2],"split_indices":[5,9,13,20,19,12,7,13,6,13,13,19,0,22,0,22,13,0,21,9,20,22,0,0,12,0,10,22,14,11,6,14,13,14,16,0,16,0,22,22,12,0,0,0,0,14,16,14,6,0,21,0,21,14,11,11,12,0,16,14,14,0,0,0,0,0,0,10,0,13,0,0,13,14,0,16,11,14,16,11,11,0,0,22,21,0,0,0,0,0,0,0,11,14,4,10,13,13,0,0,0,0,0,13,0,13,8,10,0,0,0,0,0,0,0,0,0,0,0,0,0,0,0,0,0,0,0,0,0,0,0,0,0,0,0,0,0,0,0,0,0,0,0,0,0,0,0,0,0,0,0],"split_type":[0,0,0,0,0,0,0,0,0,0,0,0,0,0,0,0,0,0,0,0,0,0,0,0,0,0,0,0,0,0,0,0,0,0,0,0,0,0,0,0,0,0,0,0,0,0,0,0,0,0,0,0,0,0,0,0,0,0,0,0,0,0,0,0,0,0,0,0,0,0,0,0,0,0,0,0,0,0,0,0,0,0,0,0,0,0,0,0,0,0,0,0,0,0,0,0,0,0,0,0,0,0,0,0,0,0,0,0,0,0,0,0,0,0,0,0,0,0,0,0,0,0,0,0,0,0,0,0,0,0,0,0,0,0,0,0,0,0,0,0,0,0,0,0,0,0,0,0,0,0,0],"sum_hessian":[2.630329E5,2.230527E5,3.9980195E4,6.046146E4,1.6259123E5,3.8247984E4,1.7322112E3,3.459805E4,2.5863408E4,3.381438E4,1.2877686E5,3.8152734E4,9.5247635E1,1.729184E3,3.0271494E0,1.7870637E4,1.6727416E4,5.143167E2,2.5349092E4,1.5207052E4,1.8607326E4,1.9730765E3,1.2680378E5,3.8598553E1,3.8114137E4,1.6797045E3,4.947955E1,5.5081064E3,1.236253E4,1.1451762E2,1.6612898E4,2.502883E4,3.2026138E2,6.556248E3,8.650804E3,1.8324596E4,2.8272968E2,1.1009147E3,8.721619E2,1.25567E5,1.2367838E3,3.5373E0,3.8110598E4,4.458481E1,4.894741E0,1.1239376E3,4.384169E3,1.1664295E4,6.9823517E2,7.998211E1,3.4535503E1,1.6209236E4,4.0366248E2,2.5019578E4,9.251823E0,1.2162722E2,1.9863416E2,2.040219E3,4.516029E3,8.452757E3,1.980477E2,2.4950294E2,3.3226723E1,3.0255935E0,1.097889E3,3.1713228E0,8.689906E2,3.283822E2,1.2523862E5,4.370884E2,7.996955E2,3.7160816E1,7.4239936E0,1.0251373E3,9.880024E1,3.8839507E3,5.002182E2,4.2613116E2,1.1238163E4,6.297534E2,6.848174E1,2.0920387E1,1.3615118E1,1.31476E1,3.905149E2,1.252396E4,1.2495619E4,6.1602445E0,3.0915794E0,3.2332873E0,1.18393936E2,3.9951584E1,1.5868259E2,1.0858381E2,1.9316353E3,1.3966467E2,4.3763643E3,8.431921E3,2.0835697E1,6.322894E1,1.3481876E2,2.3279758E1,9.946963E0,2.740795E2,5.430272E1,1.1899685E5,6.2417695E3,3.422372E2,9.485118E1,3.075322E0,4.3486714E0,1.4616133E1,1.01052124E3,1.6785619E3,2.205389E3,2.1016487E2,2.9005334E2,4.5965015E1,3.8016614E2,1.1158679E4,7.948483E1,5.815795E2,4.817391E1,6.539724E1,3.0845027E0,1.0032005E1,3.1155946E0,3.003812E0,3.8751108E2,1.5419992E2,4.4826565E0,1.1475978E1,9.7107834E1,7.942501E2,1.1373851E3,4.824056E1,9.142411E1,5.9875053E1,4.3164893E3,2.1287167E1,8.410634E3,8.47667E0,1.2634209E2,2.5721045E2,1.6869043E1,1.080594E5,1.0937454E4,5.0909125E2,5.732678E3,3.235763E2,1.8660933E1],"tree_param":{"num_deleted":"0","num_feature":"23","num_nodes":"151","size_leaf_vector":"1"}},{"base_weights":[-1.5405843E-2,-3.8216954E-1,1.9639941E0,9.1992885E-1,-8.815093E-1,2.098458E0,-1.1324816E0,8.147783E-2,2.0025554E0,-7.5678445E-2,-1.0965158E0,2.104584E0,-1.0653844E0,-1.1483487E0,-5.8698434E-1,1.1766542E0,-1.1472678E0,-8.2323015E-1,2.0689719E0,1.1875658E0,-1.1471149E0,7.2475815E-1,-1.12576E0,2.10708E0,-5.6353856E-2,1.6995521E-2,-5.7077497E-2,-5.7622302E-2,1.3652928E-2,-5.6225576E-2,1.2169946E0,-6.786258E-2,1.7137611E0,-7.352452E-1,-1.1501467E0,1.9369361E0,-5.7609644E-2,2.0949726E0,1.0653276E-1,3.5566986E-2,2.0359244E0,-5.7620715E-2,-1.1131305E0,2.1067855E0,-5.7489216E-2,-1.1344483E0,-2.3953442E-1,2.107795E0,-5.4408576E-2,2.5930855E-1,-5.1449727E-2,1.8836344E0,-5.783583E-1,1.8466282E0,-5.7517624E-1,-5.6933682E-2,2.0055576E-1,-5.7642944E-2,-1.0354557E0,2.606719E0,-5.1199723E-2,2.0955982E0,5.9363747E-1,-9.3929577E-1,7.131671E-1,2.200855E0,-1.0167062E0,2.0827112E0,-1.9022021E-2,-1.1375666E0,3.4313762E-1,-5.0607212E-2,1.0592347E-1,-5.0590575E-1,-1.1361E0,1.3576865E0,-9.568147E-1,-4.7875974E-2,2.1082134E0,2.1667275E0,-6.359321E-2,-7.823101E-1,9.0081006E-1,-8.10249E-1,1.938676E0,-9.0791285E-1,2.4597692E0,1.0986997E-1,-5.5212315E-2,1.8963816E0,-1.1477532E0,6.7743205E-2,1.3672371E-1,1.0400019E-1,1.05546884E-1,-5.221417E-2,9.663162E-2,1.22684896E-1,-1.0673174E0,4.3867838E-1,1.0550719E-1,-4.0200436E-1,2.3409586E0,1.6443329E0,-1.0996737E0,2.0919867E0,-1.1105926E0,1.0756011E-1,-1.0862132E0,-1.1446589E0,-6.647793E-1,-5.5242162E-2,1.1268093E-1,-1.1239647E0,1.2234888E-1,-1.1428033E0,-1.0666932E0,1.9813988E0,-8.873079E-1,1.725893E0,-1.069183E0,1.0541525E-1,5.751375E-2,-4.4283208E-2,1.09713815E-1,-1.4916033E-2,-5.7722904E-2,-2.8146489E-2,9.785067E-2,6.792071E-2,-5.4487664E-2,1.05188966E-1,7.362653E-2,-5.1095556E-2,1.7168714E-2,1.3180992E-1,-3.663818E-2,1.1125131E-1,3.104648E-2,-5.7771742E-2,-1.0067945E-2,6.0198106E-2,-5.707215E-2,-5.5230826E-2,3.1017238E-2,-5.8835864E-2,4.9853683E-2,1.3050824E-1,1.0712633E-1,1.09494425E-1,-5.5651035E-2,2.8647294E-2,-5.6518234E-2,1.0490209E-1,-6.4425506E-2,-2.2956107E-2,-5.8978003E-2,-8.757736E-3,-5.6946535E-2,-4.480075E-2,-5.750661E-2,-5.5907022E-2,1.0059782E-1,-5.7499606E-2,-3.439794E-2,-5.7411093E-2,-5.239619E-2,-5.541574E-2,4.040071E-2,1.0814092E-1,-1.7485159E-2,8.777467E-2,-5.673616E-2,1.04132116E-1,-4.5537334E-2,1.2822342E-2,-5.5390883E-2],"categories":[],"categories_nodes":[],"categories_segments":[],"categories_sizes":[],"default_left":[0,0,0,0,0,0,0,0,0,0,0,0,0,0,0,0,0,0,0,0,0,0,0,0,0,0,0,0,0,0,0,0,0,0,0,0,0,0,0,0,0,0,0,0,0,0,0,0,0,0,0,0,0,0,0,0,0,0,0,0,0,0,0,0,0,0,0,0,0,0,0,0,0,0,0,0,0,0,0,0,0,0,0,0,0,0,0,0,0,0,0,0,0,0,0,0,0,0,0,0,0,0,0,0,0,0,0,0,0,0,0,0,0,0,0,0,0,0,0,0,0,0,0,0,0,0,0,0,0,0,0,0,0,0,0,0,0,0,0,0,0,0,0,0,0,0,0,0,0,0,0,0,0,0,0,0,0,0,0,0,0,0,0,0,0,0,0,0,0,0,0,0,0,0,0,0,0],"id":8,"left_children":[1,3,5,7,9,11,13,15,17,19,21,23,25,27,29,31,33,35,37,39,41,43,45,47,-1,-1,-1,-1,-1,-1,49,51,53,55,57,59,-1,61,63,65,67,-1,69,71,-1,73,75,77,-1,-1,-1,79,81,83,85,-1,87,-1,89,91,-1,93,95,97,99,101,103,105,107,109,111,-1,-1,113,115,117,119,-1,121,123,-1,125,127,129,131,133,135,-1,-1,137,139,-1,-1,-1,-1,-1,-1,-1,141,143,-1,145,147,149,151,153,155,-1,157,159,161,-1,-1,163,-1,165,167,169,171,173,175,-1,-1,-1,-1,-1,-1,-1,-1,-1,-1,-1,-1,-1,-1,-1,-1,-1,-1,-1,-1,-1,-1,-1,-1,-1,-1,-1,-1,-1,-1,-1,-1,-1,-1,-1,-1,-1,-1,-1,-1,-1,-1,-1,-1,-1,-1,-1,-1,-1,-1,-1,-1,-1,-1,-1,-1],"loss_changes":[1.8647822E5,1.4090481E5,1.6721344E4,5.452791E4,2.7139594E4,7.481406E2,1.3795898E1,4.5558543E4,4.922211E3,4.4656582E4,6.5866406E3,3.1217188E2,8.41935E0,9.77002E0,4.9173225E1,1.1965449E4,1.8080078E1,5.495499E2,1.3068203E3,1.4797928E4,1.9316406E0,5.0663574E3,9.3678125E2,9.0015625E1,0E0,0E0,0E0,0E0,0E0,0E0,1.10508705E2,5.3781567E3,3.803836E3,4.3069065E1,3.7363281E0,1.3070975E2,0E0,2.25E1,2.138443E2,1.4636014E4,8.3841797E2,0E0,8.7135254E1,4.315869E1,0E0,1.24546875E2,1.356357E3,5.121875E1,0E0,0E0,0E0,1.00270825E3,1.2915955E3,2.8918438E3,6.9575757E2,0E0,9.370669E1,0E0,1.258978E2,4.761017E0,0E0,1.6640625E0,2.8175827E1,5.6387123E1,8.083592E1,7.6703125E2,9.5620557E2,2.5484766E2,4.5421335E2,7.2785645E0,1.1590094E2,0E0,0E0,5.825185E2,5.4703125E1,5.155941E2,2.480752E2,0E0,9.53125E-1,8.8354004E1,0E0,6.7707886E2,8.034396E2,2.4178226E2,8.7602344E2,8.8739746E1,4.030307E1,0E0,0E0,4.5871925E0,2.4030151E0,0E0,0E0,0E0,0E0,0E0,0E0,0E0,2.1573914E1,5.1002457E1,0E0,1.1840154E2,1.009043E2,1.9965857E2,2.1587842E2,1.7672266E2,5.97229E-1,0E0,6.114151E0,2.182373E0,4.814658E1,0E0,0E0,2.1976624E0,0E0,5.5140625E1,8.280928E2,1.2233765E2,5.4612816E1,3.3144432E1,4.0467163E1,0E0,0E0,0E0,0E0,0E0,0E0,0E0,0E0,0E0,0E0,0E0,0E0,0E0,0E0,0E0,0E0,0E0,0E0,0E0,0E0,0E0,0E0,0E0,0E0,0E0,0E0,0E0,0E0,0E0,0E0,0E0,0E0,0E0,0E0,0E0,0E0,0E0,0E0,0E0,0E0,0E0,0E0,0E0,0E0,0E0,0E0,0E0,0E0,0E0,0E0,0E0,0E0,0E0,0E0,0E0,0E0],"parents":[2147483647,0,0,1,1,2,2,3,3,4,4,5,5,6,6,7,7,8,8,9,9,10,10,11,11,12,12,13,13,14,14,15,15,16,16,17,17,18,18,19,19,20,20,21,21,22,22,23,23,30,30,31,31,32,32,33,33,34,34,35,35,37,37,38,38,39,39,40,40,42,42,43,43,45,45,46,46,47,47,51,51,52,52,53,53,54,54,56,56,58,58,59,59,61,61,62,62,63,63,64,64,65,65,66,66,67,67,68,68,69,69,70,70,73,73,74,74,75,75,76,76,78,78,79,79,81,81,82,82,83,83,84,84,85,85,86,86,89,89,90,90,98,98,99,99,101,101,102,102,103,103,104,104,105,105,106,106,108,108,109,109,110,110,113,113,115,115,116,116,117,117,118,118,119,119,120,120],"right_children":[2,4,6,8,10,12,14,16,18,20,22,24,26,28,30,32,34,36,38,40,42,44,46,48,-1,-1,-1,-1,-1,-1,50,52,54,56,58,60,-1,62,64,66,68,-1,70,72,-1,74,76,78,-1,-1,-1,80,82,84,86,-1,88,-1,90,92,-1,94,96,98,100,102,104,106,108,110,112,-1,-1,114,116,118,120,-1,122,124,-1,126,128,130,132,134,136,-1,-1,138,140,-1,-1,-1,-1,-1,-1,-1,142,144,-1,146,148,150,152,154,156,-1,158,160,162,-1,-1,164,-1,166,168,170,172,174,176,-1,-1,-1,-1,-1,-1,-1,-1,-1,-1,-1,-1,-1,-1,-1,-1,-1,-1,-1,-1,-1,-1,-1,-1,-1,-1,-1,-1,-1,-1,-1,-1,-1,-1,-1,-1,-1,-1,-1,-1,-1,-1,-1,-1,-1,-1,-1,-1,-1,-1,-1,-1,-1,-1,-1,-1],"split_conditions":[1.2077565E3,4E0,1.23E2,6E0,6E0,1E1,4.5495905E2,1.23E2,1E0,1.23E2,2.4E1,7.99E2,4.909841E-1,2.89875E3,5.84E3,5.7110223E2,3.89E2,1.23E2,1.2008E4,1.8E1,3.86E2,1.29241085E1,1.0925289E3,3.1088E4,-5.6353856E-2,1.6995521E-2,-5.7077497E-2,-5.7622302E-2,1.3652928E-2,-5.6225576E-2,8.193E3,1.9079576E-1,2.83E2,1.2882448E2,1E0,2.52E2,-5.7609644E-2,3.1088E4,5.63E2,2.52E2,5.688E3,-5.7620715E-2,4.8899756E3,1.6425E4,-5.7489216E-2,3.6978208E-2,6.11E2,6E0,-5.4408576E-2,2.5930855E-1,-5.1449727E-2,3.1088E4,5.03163E5,2.51E2,1E0,-5.6933682E-2,6.896552E3,-5.7642944E-2,1.335E3,1.5735195E1,-5.1199723E-2,1.073E3,5.63E2,5.3E1,3.936513E6,2.1908903E0,2E0,2.669281E2,2.35E2,4.2918457E3,1E0,-5.0607212E-2,1.0592347E-1,1.87E2,1.717E3,1.8717455E0,2.1648233E-1,-4.7875974E-2,9E0,2.4E1,-6.359321E-2,3.425E3,9.964552E-1,2.29E2,1.6E1,4E5,9.049773E3,1.0986997E-1,-5.5212315E-2,7.8125E3,5.7110223E2,6.7743205E-2,1.3672371E-1,1.0400019E-1,1.05546884E-1,-5.221417E-2,9.663162E-2,1.22684896E-1,3.7106416E-1,3.7071E4,1.0550719E-1,9.41E2,1E0,7.4E1,2.4E1,3.1088E4,1.5706778E-1,1.0756011E-1,2.1908903E0,3.89E2,1E0,-5.5242162E-2,1.1268093E-1,2.381E3,1.2234888E-1,7.1029315E2,1.27E2,4.096E3,5.8E1,1.23E2,2E0,1.0541525E-1,5.751375E-2,-4.4283208E-2,1.09713815E-1,-1.4916033E-2,-5.7722904E-2,-2.8146489E-2,9.785067E-2,6.792071E-2,-5.4487664E-2,1.05188966E-1,7.362653E-2,-5.1095556E-2,1.7168714E-2,1.3180992E-1,-3.663818E-2,1.1125131E-1,3.104648E-2,-5.7771742E-2,-1.0067945E-2,6.0198106E-2,-5.707215E-2,-5.5230826E-2,3.1017238E-2,-5.8835864E-2,4.9853683E-2,1.3050824E-1,1.0712633E-1,1.09494425E-1,-5.5651035E-2,2.8647294E-2,-5.6518234E-2,1.0490209E-1,-6.4425506E-2,-2.2956107E-2,-5.8978003E-2,-8.757736E-3,-5.6946535E-2,-4.480075E-2,-5.750661E-2,-5.5907022E-2,1.0059782E-1,-5.7499606E-2,-3.439794E-2,-5.7411093E-2,-5.239619E-2,-5.541574E-2,4.040071E-2,1.0814092E-1,-1.7485159E-2,8.777467E-2,-5.673616E-2,1.04132116E-1,-4.5537334E-2,1.2822342E-2,-5.5390883E-2],"split_indices":[0,1,13,19,19,8,22,13,6,13,13,2,22,19,2,11,13,13,21,1,16,22,0,14,0,0,0,0,0,0,13,22,14,11,6,14,0,14,13,14,16,0,22,14,0,22,1,3,0,0,0,14,16,14,6,0,11,0,21,22,0,14,13,13,16,0,3,10,14,22,6,0,0,1,13,22,22,0,8,13,0,16,11,14,16,11,22,0,0,22,11,0,0,0,0,0,0,0,22,16,0,21,4,16,13,14,11,0,0,13,6,0,0,13,0,0,7,7,1,13,8,0,0,0,0,0,0,0,0,0,0,0,0,0,0,0,0,0,0,0,0,0,0,0,0,0,0,0,0,0,0,0,0,0,0,0,0,0,0,0,0,0,0,0,0,0,0,0,0,0,0,0,0,0,0,0,0],"split_type":[0,0,0,0,0,0,0,0,0,0,0,0,0,0,0,0,0,0,0,0,0,0,0,0,0,0,0,0,0,0,0,0,0,0,0,0,0,0,0,0,0,0,0,0,0,0,0,0,0,0,0,0,0,0,0,0,0,0,0,0,0,0,0,0,0,0,0,0,0,0,0,0,0,0,0,0,0,0,0,0,0,0,0,0,0,0,0,0,0,0,0,0,0,0,0,0,0,0,0,0,0,0,0,0,0,0,0,0,0,0,0,0,0,0,0,0,0,0,0,0,0,0,0,0,0,0,0,0,0,0,0,0,0,0,0,0,0,0,0,0,0,0,0,0,0,0,0,0,0,0,0,0,0,0,0,0,0,0,0,0,0,0,0,0,0,0,0,0,0,0,0,0,0,0,0,0,0],"sum_hessian":[2.568649E5,2.1671122E5,4.0153688E4,6.0069844E4,1.5664138E5,3.84829E4,1.6707893E3,3.385307E4,2.6216773E4,3.299175E4,1.2364963E5,3.8408863E4,7.4034584E1,1.6224902E3,4.829907E1,1.7899424E4,1.5953647E4,6.0177893E2,2.5614994E4,1.5140591E4,1.7851158E4,1.9536826E3,1.21695945E5,3.837957E4,2.9293964E1,3.628269E0,7.040632E1,1.6180154E3,4.4748826E0,3.750149E1,1.0797577E1,5.3964106E3,1.2503014E4,1.1247665E2,1.584117E4,6.3563175E1,5.3821576E2,2.5279988E4,3.3500644E2,6.4216196E3,8.718972E3,1.5414524E4,2.436634E3,1.124505E3,8.2917773E2,1.20514164E5,1.1817799E3,3.837132E4,8.248025E0,3.4288807E0,7.368696E0,1.1183914E3,4.2780195E3,1.1817245E4,6.8576825E2,7.844279E1,3.4033863E1,1.5466391E4,3.747802E2,5.1934795E1,1.162838E1,2.5269062E4,1.0926864E1,1.2278264E2,2.122238E2,2.0997737E3,4.321846E3,8.524864E3,1.9410709E2,2.3966375E3,3.9996788E1,3.877174E0,1.1206278E3,3.1667148E2,1.2019749E5,3.6596527E2,8.158147E2,4.924263E0,3.83664E4,1.0266038E3,9.178765E1,3.7600452E3,5.1797437E2,3.9543927E2,1.1421806E4,6.18644E2,6.712426E1,1.3179748E1,2.0854115E1,1.3239501E1,3.615407E2,5.88395E0,4.6050846E1,1.2598071E4,1.267099E4,5.013822E0,5.913042E0,3.8037746E0,1.1897887E2,1.7847055E2,3.3753246E1,1.07155754E2,1.9926179E3,1.3010585E2,4.19174E3,8.500519E3,2.43457E1,6.3651203E1,1.3045589E2,2.3598164E3,3.6821068E1,2.2992294E1,1.7004496E1,2.623741E2,5.429735E1,1.0959724E5,1.0600253E4,2.8648923E2,7.947603E1,3.2220303E1,7.835944E2,3.836153E4,4.8650074E0,8.903939E0,1.0176998E3,1.6352086E3,2.1248364E3,2.172984E2,3.00676E2,4.4706123E1,3.5073315E2,8.431833E3,2.9899731E3,5.671566E2,5.148738E1,6.3774166E1,3.3500946E0,9.935046E0,3.304455E0,3.584107E2,3.1299837E0,3.2785602E0,1.157003E2,1.8260782E1,1.6020978E2,6.906902E1,3.8086727E1,8.403665E2,1.1522513E3,1.0878752E2,2.1318333E1,7.520998E1,4.1165303E3,8.485698E3,1.4820092E1,3.0636232E0,2.1282076E1,7.3722157E0,1.2308367E2,5.4373703E1,2.3054426E3,3.1985865E1,4.8352013E0,2.4604866E2,1.632546E1,1.036658E5,5.931445E3,1.0370422E4,2.298313E2,2.6586993E2,2.061931E1,6.2817125E0,7.319432E1,2.856539E1,3.6549127E0,2.2030943E1,7.615635E2],"tree_param":{"num_deleted":"0","num_feature":"23","num_nodes":"177","size_leaf_vector":"1"}},{"base_weights":[-1.540833E-2,-3.749015E-1,1.8652555E0,8.842343E-1,-8.7259835E-1,1.9882818E0,-1.1241552E0,8.2711086E-2,1.8891454E0,-8.976566E-2,-1.0748937E0,1.9956353E0,-5.7089932E-2,-1.129557E0,5.6881297E-2,1.1267447E0,-1.1388097E0,1.9761499E0,-4.708817E-1,1.1280235E0,-1.1380312E0,6.9299686E-1,-1.1037151E0,-1.0875019E0,1.9985803E0,-5.715468E-2,-6.5775853E-1,-6.1063286E-2,1.6326145E0,-7.110913E-1,-1.1417849E0,1.9825635E0,-5.613276E-2,-8.68703E-1,3.8751394E-1,-7.373891E-3,1.936552E0,-5.7191618E-2,-1.1003665E0,1.9919957E0,-5.7061173E-2,-1.112386E0,-2.5751507E-1,-2.4561865E-2,-5.6357652E-2,9.9936694E-2,4.587159E-3,-1.011807E0,8.0204743E-1,1.7717388E0,-5.6646717E-1,1.7565291E0,-5.494359E-1,-5.648106E-2,2.7277252E-1,-5.7217162E-2,-1.034462E0,1.9834477E0,-7.37799E-1,-1.16602E0,1.436934E0,1.3305983E-1,1.0194198E-1,2.07848E0,-1.0012398E0,-2.3351794E-1,1.9720368E0,-1.1260389E0,3.3638608E-1,-5.264936E-2,1.0027363E-1,-8.83046E-1,-1.1312857E0,1.1226552E0,-5.7188597E-2,-5.5408247E-2,-4.5622456E-1,1.7194217E-1,-4.9276523E-2,2.023894E0,-6.266804E-2,-7.642658E-1,8.4073186E-1,-7.9000926E-1,1.8410656E0,-8.5904163E-1,2.269085E0,-5.449983E-2,1.0350572E-1,-5.731025E-2,1.3783273E0,1.9836388E0,4.1744374E-2,-9.305345E-3,-4.9666006E-2,-6.507205E-2,-5.7126295E-2,2.366738E0,-5.5075504E-2,-5.7107966E-2,6.68163E-1,-3.6841273E-1,2.2217398E0,7.870767E-1,-1.137383E0,1.7896607E0,-5.684479E-2,1.9799093E0,-6.145939E-2,-5.716741E-2,-8.110805E-1,-5.4733783E-2,1.0583147E-1,-1.0022069E0,1.99071E0,-1.1350862E0,-9.767782E-1,1.9164978E0,-5.699184E-2,5.909745E-3,-4.4204626E-2,-4.9299937E-2,1.03218436E-1,-1.4021452E-2,-5.7233598E-2,-2.3188662E-2,9.623544E-2,5.7297476E-2,-5.2714836E-2,1.0039842E-1,6.894125E-2,-2.0940037E-2,-6.1375894E-2,1.2191161E-1,-4.666177E-2,1.11366175E-1,-4.864599E-2,9.839784E-2,9.9957295E-2,6.289725E-2,1.2401699E-1,2.7250499E-2,1.4247726E-1,-5.8231037E-2,4.4915676E-2,1.2726265E-1,1.0144567E-1,-5.9486646E-2,1.2581232E-1,1.3542537E-1,-5.7517976E-2,9.9079534E-2,-6.7896927E-3,-3.1937987E-2,9.935929E-2,1.4375703E-1,-5.015981E-2,2.332098E-2,-5.3908493E-2,-5.006796E-2,1.0259669E-1,-5.7047606E-2,-5.165877E-2,-5.7294156E-2,9.526618E-2,1.03295855E-1,-5.4501142E-2],"categories":[],"categories_nodes":[],"categories_segments":[],"categories_sizes":[],"default_left":[0,0,0,0,0,0,0,0,0,0,0,0,0,0,0,0,0,0,0,0,0,0,0,0,0,0,0,0,0,0,0,0,0,0,0,0,0,0,0,0,0,0,0,0,0,0,0,0,0,0,0,0,0,0,0,0,0,0,0,0,0,0,0,0,0,0,0,0,0,0,0,0,0,0,0,0,0,0,0,0,0,0,0,0,0,0,0,0,0,0,0,0,0,0,0,0,0,0,0,0,0,0,0,0,0,0,0,0,0,0,0,0,0,0,0,0,0,0,0,0,0,0,0,0,0,0,0,0,0,0,0,0,0,0,0,0,0,0,0,0,0,0,0,0,0,0,0,0,0,0,0,0,0,0,0,0,0,0,0,0,0,0,0,0,0,0,0],"id":9,"left_children":[1,3,5,7,9,11,13,15,17,19,21,23,-1,25,-1,27,29,31,33,35,37,39,41,43,45,-1,47,49,51,53,55,57,-1,59,61,63,65,-1,67,69,-1,71,73,-1,-1,-1,-1,75,77,79,81,83,85,-1,87,-1,89,91,93,95,97,99,-1,101,103,105,107,109,111,-1,-1,113,115,117,-1,-1,119,-1,-1,121,-1,123,125,127,129,131,133,-1,-1,-1,135,137,-1,-1,-1,-1,-1,139,-1,-1,141,143,145,147,149,151,-1,153,-1,-1,155,-1,-1,157,159,161,163,165,-1,-1,-1,-1,-1,-1,-1,-1,-1,-1,-1,-1,-1,-1,-1,-1,-1,-1,-1,-1,-1,-1,-1,-1,-1,-1,-1,-1,-1,-1,-1,-1,-1,-1,-1,-1,-1,-1,-1,-1,-1,-1,-1,-1,-1,-1,-1,-1,-1],"loss_changes":[1.6935938E5,1.3178928E5,1.4786609E4,4.7986652E4,2.386914E4,8.909844E2,2.070642E1,4.226938E4,5.4288125E3,3.951389E4,6.1035625E3,3.5192188E2,0E0,9.379272E0,0E0,1.0738039E4,1.8625E1,5.089297E2,3.2157153E2,1.314474E4,2.375E0,4.581522E3,8.644375E2,3.3070755E-1,1.109375E1,0E0,2.4896282E1,4.9461196E3,3.3897148E3,4.484627E1,2.9824219E0,6.2648438E1,0E0,4.425236E2,1.2519287E2,1.2350414E4,6.444746E2,0E0,8.323657E1,4.829834E1,0E0,5.0464062E2,1.4650471E3,0E0,0E0,0E0,0E0,1.5258636E0,4.88916E1,8.8293066E2,1.1656061E3,2.5545586E3,5.903092E2,0E0,8.329361E1,0E0,9.959732E1,3.9296875E0,1.0832753E0,3.2720947E-1,1.7704094E2,1.7803996E2,0E0,6.747656E2,9.832822E2,2.495952E2,2.098125E2,1.1105469E1,1.0474359E2,0E0,0E0,3.0449639E3,6.2171875E1,8.435524E2,0E0,0E0,1.9006981E0,0E0,0E0,1.3186865E2,0E0,6.7517554E2,7.309366E2,1.9653156E2,8.828242E2,9.815201E1,3.85708E1,0E0,0E0,0E0,3.519568E1,2.25E0,0E0,0E0,0E0,0E0,0E0,3.7332764E0,0E0,0E0,4.777912E1,1.09160706E2,1.08146484E2,9.8074866E2,1.9026025E2,1.5863998E1,0E0,1.576875E2,0E0,0E0,8.6748604E1,0E0,0E0,9.5245605E2,6.692639E1,6.1703125E1,1.2666631E3,1.5820288E2,0E0,0E0,0E0,0E0,0E0,0E0,0E0,0E0,0E0,0E0,0E0,0E0,0E0,0E0,0E0,0E0,0E0,0E0,0E0,0E0,0E0,0E0,0E0,0E0,0E0,0E0,0E0,0E0,0E0,0E0,0E0,0E0,0E0,0E0,0E0,0E0,0E0,0E0,0E0,0E0,0E0,0E0,0E0,0E0,0E0,0E0,0E0,0E0,0E0],"parents":[2147483647,0,0,1,1,2,2,3,3,4,4,5,5,6,6,7,7,8,8,9,9,10,10,11,11,13,13,15,15,16,16,17,17,18,18,19,19,20,20,21,21,22,22,23,23,24,24,26,26,27,27,28,28,29,29,30,30,31,31,33,33,34,34,35,35,36,36,38,38,39,39,41,41,42,42,47,47,48,48,49,49,50,50,51,51,52,52,54,54,56,56,57,57,58,58,59,59,60,60,61,61,63,63,64,64,65,65,66,66,67,67,68,68,71,71,72,72,73,73,76,76,79,79,81,81,82,82,83,83,84,84,85,85,86,86,90,90,91,91,97,97,100,100,101,101,102,102,103,103,104,104,105,105,107,107,110,110,113,113,114,114,115,115,116,116,117,117],"right_children":[2,4,6,8,10,12,14,16,18,20,22,24,-1,26,-1,28,30,32,34,36,38,40,42,44,46,-1,48,50,52,54,56,58,-1,60,62,64,66,-1,68,70,-1,72,74,-1,-1,-1,-1,76,78,80,82,84,86,-1,88,-1,90,92,94,96,98,100,-1,102,104,106,108,110,112,-1,-1,114,116,118,-1,-1,120,-1,-1,122,-1,124,126,128,130,132,134,-1,-1,-1,136,138,-1,-1,-1,-1,-1,140,-1,-1,142,144,146,148,150,152,-1,154,-1,-1,156,-1,-1,158,160,162,164,166,-1,-1,-1,-1,-1,-1,-1,-1,-1,-1,-1,-1,-1,-1,-1,-1,-1,-1,-1,-1,-1,-1,-1,-1,-1,-1,-1,-1,-1,-1,-1,-1,-1,-1,-1,-1,-1,-1,-1,-1,-1,-1,-1,-1,-1,-1,-1,-1,-1],"split_conditions":[1.4592941E6,4E0,1.23E2,2E0,6E0,1.3106E4,1.1595E4,1.23E2,1.2E1,1.23E2,2.4E1,1.0867E4,-5.7089932E-2,4.5495905E2,5.6881297E-2,5.7110223E2,3.89E2,9.41E2,1E0,1.8E1,3.86E2,5.791159E0,1.0925289E3,2.915181E2,3.36347E2,-5.715468E-2,2.1706548E3,2.1648233E-1,2.83E2,1.2882448E2,1E0,1E0,-5.613276E-2,4.72E2,3.936513E6,2.52E2,4.4E0,-5.7191618E-2,4.8899756E3,1.6425E4,-5.7061173E-2,1.2E1,1.3106E4,-2.4561865E-2,-5.6357652E-2,9.9936694E-2,4.587159E-3,1.7076812E3,4.9861E4,3.1088E4,5.03163E5,2.51E2,1E0,-5.648106E-2,1.61E2,-5.7217162E-2,2.020202E3,4.27E2,4.9861E4,1.23E2,2.35E2,5.6469555E0,1.0194198E-1,2.1908903E0,1.2E1,5.688E3,3.1088E4,1E0,1E0,-5.264936E-2,1.0027363E-1,9.4166E7,7.92E3,1.23E2,-5.7188597E-2,-5.5408247E-2,5.0225E4,1.7194217E-1,-4.9276523E-2,2.51E2,-6.266804E-2,3.425E3,1E0,2.29E2,1.6E1,2.348E3,7.29927E3,-5.449983E-2,1.0350572E-1,-5.731025E-2,5.63E2,1.073E3,4.1744374E-2,-9.305345E-3,-4.9666006E-2,-6.507205E-2,-5.7126295E-2,1.5735195E1,-5.5075504E-2,-5.7107966E-2,2.8E0,9.41E2,1E0,1.0327955E0,3E0,2.52E2,-5.684479E-2,5.3E1,-6.145939E-2,-5.716741E-2,3.89E2,-5.4733783E-2,1.0583147E-1,6E0,2.828427E0,7.1029315E2,1.27E2,3.4978445E2,-5.699184E-2,5.909745E-3,-4.4204626E-2,-4.9299937E-2,1.03218436E-1,-1.4021452E-2,-5.7233598E-2,-2.3188662E-2,9.623544E-2,5.7297476E-2,-5.2714836E-2,1.0039842E-1,6.894125E-2,-2.0940037E-2,-6.1375894E-2,1.2191161E-1,-4.666177E-2,1.11366175E-1,-4.864599E-2,9.839784E-2,9.9957295E-2,6.289725E-2,1.2401699E-1,2.7250499E-2,1.4247726E-1,-5.8231037E-2,4.4915676E-2,1.2726265E-1,1.0144567E-1,-5.9486646E-2,1.2581232E-1,1.3542537E-1,-5.7517976E-2,9.9079534E-2,-6.7896927E-3,-3.1937987E-2,9.935929E-2,1.4375703E-1,-5.015981E-2,2.332098E-2,-5.3908493E-2,-5.006796E-2,1.0259669E-1,-5.7047606E-2,-5.165877E-2,-5.7294156E-2,9.526618E-2,1.03295855E-1,-5.4501142E-2],"split_indices":[5,1,13,17,12,12,7,13,12,13,13,12,0,22,0,11,13,21,6,1,16,11,0,10,10,0,0,22,14,11,6,4,0,12,16,14,17,0,22,14,0,12,12,0,0,0,0,0,13,14,16,14,6,0,21,0,11,21,13,13,14,22,0,0,1,16,14,6,6,0,0,21,13,13,0,0,13,0,0,14,0,16,6,14,16,14,11,0,0,0,13,14,0,0,0,0,0,22,0,0,17,21,4,10,3,14,0,13,0,0,13,0,0,17,10,0,7,10,0,0,0,0,0,0,0,0,0,0,0,0,0,0,0,0,0,0,0,0,0,0,0,0,0,0,0,0,0,0,0,0,0,0,0,0,0,0,0,0,0,0,0,0,0,0,0,0,0],"split_type":[0,0,0,0,0,0,0,0,0,0,0,0,0,0,0,0,0,0,0,0,0,0,0,0,0,0,0,0,0,0,0,0,0,0,0,0,0,0,0,0,0,0,0,0,0,0,0,0,0,0,0,0,0,0,0,0,0,0,0,0,0,0,0,0,0,0,0,0,0,0,0,0,0,0,0,0,0,0,0,0,0,0,0,0,0,0,0,0,0,0,0,0,0,0,0,0,0,0,0,0,0,0,0,0,0,0,0,0,0,0,0,0,0,0,0,0,0,0,0,0,0,0,0,0,0,0,0,0,0,0,0,0,0,0,0,0,0,0,0,0,0,0,0,0,0,0,0,0,0,0,0,0,0,0,0,0,0,0,0,0,0,0,0,0,0,0,0],"sum_hessian":[2.504978E5,2.1029939E5,4.0198406E4,5.9575938E4,1.5072345E5,3.8609793E4,1.5886149E3,3.3142418E4,2.6433518E4,3.0951252E4,1.19772195E5,3.851966E4,9.013084E1,1.5853292E3,3.285642E0,1.7869467E4,1.5272953E4,2.5493826E4,9.396912E2,1.4317858E4,1.6633393E4,1.9209141E3,1.1785128E5,3.640739E1,3.8483254E4,1.5397294E3,4.5599846E1,5.337537E3,1.253193E4,1.0716099E2,1.5165792E4,2.544153E4,5.229599E1,6.420997E2,2.9759152E2,5.9555757E3,8.362283E3,1.4388021E4,2.2453713E3,1.1244735E3,7.9644055E2,1.166556E5,1.1956815E3,3.1049488E0,3.3302444E1,3.8480105E4,3.1475194E0,3.6946144E1,8.653703E0,1.1531686E3,4.1843687E3,1.1858692E4,6.7323755E2,7.5075966E1,3.208502E1,1.4803242E4,3.625495E2,2.5433535E4,7.995876E0,5.69195E2,7.290469E1,2.5879428E2,3.879724E1,1.9215901E3,4.0339858E3,1.3444962E2,8.227833E3,2.2061667E3,3.920452E1,4.615079E0,1.1198584E3,8.885152E3,1.07770445E5,4.6745135E2,7.282301E2,3.0637844E1,6.308301E0,3.1231315E0,5.530571E0,1.0647482E3,8.842046E1,3.669091E3,5.152775E2,3.807523E2,1.1477939E4,6.072304E2,6.600714E1,1.847248E1,1.3612537E1,3.4700372E2,1.5545772E1,2.5428578E4,4.955959E0,3.0781748E0,4.917701E0,7.610887E1,4.9308612E2,5.3409153E1,1.9495543E1,7.616024E1,1.8263403E2,1.0619503E2,1.815395E3,2.850406E2,3.748945E3,4.119945E1,9.325017E1,8.208029E3,1.9803795E1,2.0887446E3,1.1742217E2,2.19472E1,1.725732E1,8.532021E3,3.5313083E2,1.0517699E5,2.593458E3,3.4615024E2,1.2130114E2,3.0019264E0,3.3063748E0,1.3817879E1,1.0509303E3,1.615756E3,2.0533352E3,2.3411066E2,2.8116684E2,4.5334187E1,3.3541812E2,8.430547E3,3.0473923E3,2.776462E2,3.2958417E2,6.2922184E1,3.0849583E0,1.1460339E1,4.0854325E0,1.2706615E4,1.2721963E4,6.085532E0,4.732362E1,1.7405724E2,8.576803E0,6.52576E1,4.093743E1,6.734012E2,1.1419939E3,1.331424E2,1.518982E2,1.1908266E1,3.7370369E3,3.7438423E1,3.7610278E0,2.2503792E1,8.185526E3,5.124776E0,1.122974E2,4.1935205E2,8.1126694E3,6.772963E0,3.4635785E2,9.944292E4,5.734068E3,2.4502917E3,1.4316634E2,3.3005966E2,1.6090572E1],"tree_param":{"num_deleted":"0","num_feature":"23","num_nodes":"167","size_leaf_vector":"1"}},{"base_weights":[-1.6221534E-2,-3.6964127E-1,1.7789075E0,8.4811646E-1,-8.621265E-1,1.8938322E0,-1.1166942E0,7.434755E-2,1.8155946E0,-7.419663E-2,-1.0788097E0,1.9008347E0,-5.6668997E-2,-1.1222377E0,5.5375434E-2,1.0666858E0,-1.1308336E0,-5.6691635E-2,1.8672442E0,1.0888172E0,-1.1302153E0,6.5697163E-1,-1.1078241E0,-5.5947404E-2,1.9035544E0,-5.6774974E-2,-6.8829966E-1,-4.2905595E-2,1.5259944E0,-7.401007E-1,-1.1335504E0,1.8880588E0,1.9215664E-1,2.6588492E-2,1.8372959E0,-5.675903E-2,-8.097913E-1,1.8990698E0,-5.6720253E-2,-1.1168107E0,-2.2755538E-1,-1.1461574E-2,9.518651E-2,-5.5393863E-2,6.19779E-1,1.677022E0,-5.202791E-1,1.0205238E0,1.8944913E0,-5.6194942E-2,7.5371534E-1,-5.681314E-2,-1.023885E0,9.358826E-2,9.520482E-2,-1.0466855E0,8.517003E-1,-4.0689522E-1,1.9167014E0,-2.628431E-1,1.8710753E0,1.2057319E0,-5.657099E-2,3.088362E-3,1.906019E0,-4.6690452E-1,-1.1185576E0,1.3582709E0,-1.0957336E0,1.8740973E-1,-5.1350094E-2,-6.009543E-2,1.6957154E0,-3.00089E-2,-9.550865E-1,1.09376594E-1,1.5968902E0,-5.8140703E-2,1.9040003E0,-5.096353E-2,9.729835E-2,1.53089E0,-1.1300755E0,6.16959E-2,-5.6149077E-2,9.564333E-2,5.9718084E-1,1.3445354E-1,-1.117995E0,-3.1315237E-2,9.678089E-2,1.2669932E0,-1.0086693E0,-7.645646E-1,1.8775187E0,-5.204624E-2,1.0504114E-1,9.548693E-2,2.8104616E-2,-1.1087569E0,1.0771878E-1,-1.1238134E0,-1.019565E0,1.7500749E0,-5.6195732E-2,7.526781E-2,-1.1155787E0,-4.153632E-2,8.573657E-2,-1.8951904E-2,1.04401626E-1,-5.127558E-2,1.1809553E-1,3.182515E-2,-3.0196805E-2,5.6854375E-2,9.073679E-2,-6.1887532E-2,9.556362E-2,1.1494749E-1,-4.6072762E-2,-5.6884527E-2,-1.3834903E-2,3.1764623E-2,-4.5561377E-2,-5.3326666E-2,9.8838426E-2,9.292429E-2,-5.6628894E-2,9.3549356E-2,-5.38684E-2,-5.6409772E-2,6.3302286E-2,6.186371E-2,-5.7909418E-2,9.4894946E-2,5.7202514E-2,-5.664997E-2,-3.3043638E-2,-5.658176E-2,-5.2346505E-2,-3.7984983E-3,-5.5289585E-2,9.6700124E-2,-1.6135044E-2,-4.0105503E-2,-5.6696367E-2],"categories":[],"categories_nodes":[],"categories_segments":[],"categories_sizes":[],"default_left":[0,0,0,0,0,0,0,0,0,0,0,0,0,0,0,0,0,0,0,0,0,0,0,0,0,0,0,0,0,0,0,0,0,0,0,0,0,0,0,0,0,0,0,0,0,0,0,0,0,0,0,0,0,0,0,0,0,0,0,0,0,0,0,0,0,0,0,0,0,0,0,0,0,0,0,0,0,0,0,0,0,0,0,0,0,0,0,0,0,0,0,0,0,0,0,0,0,0,0,0,0,0,0,0,0,0,0,0,0,0,0,0,0,0,0,0,0,0,0,0,0,0,0,0,0,0,0,0,0,0,0,0,0,0,0,0,0,0,0,0,0,0,0,0,0,0,0],"id":10,"left_children":[1,3,5,7,9,11,13,15,17,19,21,23,-1,25,-1,27,29,-1,31,33,35,37,39,-1,41,-1,43,45,47,49,51,53,55,57,59,-1,61,63,-1,65,67,-1,-1,-1,69,71,73,75,77,-1,79,-1,81,-1,-1,83,85,87,89,91,93,95,-1,-1,97,99,101,103,105,-1,-1,-1,107,109,111,113,115,-1,117,-1,-1,119,121,-1,-1,-1,123,125,127,-1,-1,129,131,133,135,-1,-1,-1,-1,137,-1,139,141,143,-1,-1,145,-1,-1,-1,-1,-1,-1,-1,-1,-1,-1,-1,-1,-1,-1,-1,-1,-1,-1,-1,-1,-1,-1,-1,-1,-1,-1,-1,-1,-1,-1,-1,-1,-1,-1,-1,-1,-1,-1,-1,-1],"loss_changes":[1.5461752E5,1.2211791E5,1.3342547E4,4.3894773E4,2.4753594E4,8.195E2,2.0119385E1,3.8965645E4,3.971461E3,3.840952E4,5.727703E3,3.1809375E2,0E0,8.009766E0,0E0,9.106664E3,1.478125E1,0E0,8.924922E2,1.1832783E4,2.5158203E1,4.1634E3,8.845E2,0E0,1.484375E1,0E0,2.6944357E1,4.296702E3,2.351963E3,6.074501E1,3.1816406E0,3.046875E0,2.5860718E2,5.042219E3,6.19875E2,0E0,1.657634E2,1.3988281E1,0E0,1.251875E2,1.5593687E3,0E0,0E0,0E0,6.701158E1,6.3225098E1,8.7316907E2,2.799191E3,2.1466406E2,0E0,4.8390835E1,0E0,1.0013574E2,0E0,0E0,2.0531143E1,5.4599228E1,1.9272329E3,5.6439453E1,1.5997281E2,1.4736328E2,7.334283E1,0E0,0E0,4.4279785E0,5.0460028E2,5.6296875E1,3.9172064E2,3.9452698E1,0E0,0E0,0E0,5.5713867E1,1.42485E3,5.095337E2,7.7740155E2,3.2498438E2,0E0,1.6882031E2,0E0,0E0,3.018327E1,1.9521179E0,0E0,0E0,0E0,1.0231812E1,6.292848E3,9.602881E1,0E0,0E0,6.718902E1,2.7001587E1,1.850547E1,1.259707E2,0E0,0E0,0E0,0E0,1.8619385E0,0E0,6.1875E1,4.5373682E2,1.327312E2,0E0,0E0,3.270874E0,0E0,0E0,0E0,0E0,0E0,0E0,0E0,0E0,0E0,0E0,0E0,0E0,0E0,0E0,0E0,0E0,0E0,0E0,0E0,0E0,0E0,0E0,0E0,0E0,0E0,0E0,0E0,0E0,0E0,0E0,0E0,0E0,0E0,0E0,0E0,0E0,0E0,0E0,0E0,