{"learner":{"attributes":{"best_iteration":"724","best_score":"0.9984572827275864"},"feature_names":[" Flow Duration"," Total Fwd Packets"," Total Backward Packets","Total Length of Fwd Packets"," Total Length of Bwd Packets"," Fwd Packet Length Max"," Fwd Packet Length Min"," Fwd Packet Length Mean"," Fwd Packet Length Std","Bwd Packet Length Max"," Bwd Packet Length Mean"," Bwd Packet Length Std","Flow Bytes/s"," Flow Packets/s"," Flow IAT Mean"," Flow IAT Std"," Flow IAT Max"," Flow IAT Min","Fwd IAT Total"," Fwd IAT Mean","Bwd IAT Total"," SYN Flag Count"," ACK Flag Count"],"feature_types":[],"gradient_booster":{"model":{"cats":{"enc":[],"feature_segments":[],"sorted_idx":[]},"gbtree_model_param":{"num_parallel_tree":"1","num_trees":"775"},"iteration_indptr":[0,1,2,3,4,5,6,7,8,9,10,11,12,13,14,15,16,17,18,19,20,21,22,23,24,25,26,27,28,29,30,31,32,33,34,35,36,37,38,39,40,41,42,43,44,45,46,47,48,49,50,51,52,53,54,55,56,57,58,59,60,61,62,63,64,65,66,67,68,69,70,71,72,73,74,75,76,77,78,79,80,81,82,83,84,85,86,87,88,89,90,91,92,93,94,95,96,97,98,99,100,101,102,103,104,105,106,107,108,109,110,111,112,113,114,115,116,117,118,119,120,121,122,123,124,125,126,127,128,129,130,131,132,133,134,135,136,137,138,139,140,141,142,143,144,145,146,147,148,149,150,151,152,153,154,155,156,157,158,159,160,161,162,163,164,165,166,167,168,169,170,171,172,173,174,175,176,177,178,179,180,181,182,183,184,185,186,187,188,189,190,191,192,193,194,195,196,197,198,199,200,201,202,203,204,205,206,207,208,209,210,211,212,213,214,215,216,217,218,219,220,221,222,223,224,225,226,227,228,229,230,231,232,233,234,235,236,237,238,239,240,241,242,243,244,245,246,247,248,249,250,251,252,253,254,255,256,257,258,259,260,261,262,263,264,265,266,267,268,269,270,271,272,273,274,275,276,277,278,279,280,281,282,283,284,285,286,287,288,289,290,291,292,293,294,295,296,297,298,299,300,301,302,303,304,305,306,307,308,309,310,311,312,313,314,315,316,317,318,319,320,321,322,323,324,325,326,327,328,329,330,331,332,333,334,335,336,337,338,339,340,341,342,343,344,345,346,347,348,349,350,351,352,353,354,355,356,357,358,359,360,361,362,363,364,365,366,367,368,369,370,371,372,373,374,375,376,377,378,379,380,381,382,383,384,385,386,387,388,389,390,391,392,393,394,395,396,397,398,399,400,401,402,403,404,405,406,407,408,409,410,411,412,413,414,415,416,417,418,419,420,421,422,423,424,425,426,427,428,429,430,431,432,433,434,435,436,437,438,439,440,441,442,443,444,445,446,447,448,449,450,451,452,453,454,455,456,457,458,459,460,461,462,463,464,465,466,467,468,469,470,471,472,473,474,475,476,477,478,479,480,481,482,483,484,485,486,487,488,489,490,491,492,493,494,495,496,497,498,499,500,501,502,503,504,505,506,507,508,509,510,511,512,513,514,515,516,517,518,519,520,521,522,523,524,525,526,527,528,529,530,531,532,533,534,535,536,537,538,539,540,541,542,543,544,545,546,547,548,549,550,551,552,553,554,555,556,557,558,559,560,561,562,563,564,565,566,567,568,569,570,571,572,573,574,575,576,577,578,579,580,581,582,583,584,585,586,587,588,589,590,591,592,593,594,595,596,597,598,599,600,601,602,603,604,605,606,607,608,609,610,611,612,613,614,615,616,617,618,619,620,621,622,623,624,625,626,627,628,629,630,631,632,633,634,635,636,637,638,639,640,641,642,643,644,645,646,647,648,649,650,651,652,653,654,655,656,657,658,659,660,661,662,663,664,665,666,667,668,669,670,671,672,673,674,675,676,677,678,679,680,681,682,683,684,685,686,687,688,689,690,691,692,693,694,695,696,697,698,699,700,701,702,703,704,705,706,707,708,709,710,711,712,713,714,715,716,717,718,719,720,721,722,723,724,725,726,727,728,729,730,731,732,733,734,735,736,737,738,739,740,741,742,743,744,745,746,747,748,749,750,751,752,753,754,755,756,757,758,759,760,761,762,763,764,765,766,767,768,769,770,771,772,773,774,775],"tree_info":[0,0,0,0,0,0,0,0,0,0,0,0,0,0,0,0,0,0,0,0,0,0,0,0,0,0,0,0,0,0,0,0,0,0,0,0,0,0,0,0,0,0,0,0,0,0,0,0,0,0,0,0,0,0,0,0,0,0,0,0,0,0,0,0,0,0,0,0,0,0,0,0,0,0,0,0,0,0,0,0,0,0,0,0,0,0,0,0,0,0,0,0,0,0,0,0,0,0,0,0,0,0,0,0,0,0,0,0,0,0,0,0,0,0,0,0,0,0,0,0,0,0,0,0,0,0,0,0,0,0,0,0,0,0,0,0,0,0,0,0,0,0,0,0,0,0,0,0,0,0,0,0,0,0,0,0,0,0,0,0,0,0,0,0,0,0,0,0,0,0,0,0,0,0,0,0,0,0,0,0,0,0,0,0,0,0,0,0,0,0,0,0,0,0,0,0,0,0,0,0,0,0,0,0,0,0,0,0,0,0,0,0,0,0,0,0,0,0,0,0,0,0,0,0,0,0,0,0,0,0,0,0,0,0,0,0,0,0,0,0,0,0,0,0,0,0,0,0,0,0,0,0,0,0,0,0,0,0,0,0,0,0,0,0,0,0,0,0,0,0,0,0,0,0,0,0,0,0,0,0,0,0,0,0,0,0,0,0,0,0,0,0,0,0,0,0,0,0,0,0,0,0,0,0,0,0,0,0,0,0,0,0,0,0,0,0,0,0,0,0,0,0,0,0,0,0,0,0,0,0,0,0,0,0,0,0,0,0,0,0,0,0,0,0,0,0,0,0,0,0,0,0,0,0,0,0,0,0,0,0,0,0,0,0,0,0,0,0,0,0,0,0,0,0,0,0,0,0,0,0,0,0,0,0,0,0,0,0,0,0,0,0,0,0,0,0,0,0,0,0,0,0,0,0,0,0,0,0,0,0,0,0,0,0,0,0,0,0,0,0,0,0,0,0,0,0,0,0,0,0,0,0,0,0,0,0,0,0,0,0,0,0,0,0,0,0,0,0,0,0,0,0,0,0,0,0,0,0,0,0,0,0,0,0,0,0,0,0,0,0,0,0,0,0,0,0,0,0,0,0,0,0,0,0,0,0,0,0,0,0,0,0,0,0,0,0,0,0,0,0,0,0,0,0,0,0,0,0,0,0,0,0,0,0,0,0,0,0,0,0,0,0,0,0,0,0,0,0,0,0,0,0,0,0,0,0,0,0,0,0,0,0,0,0,0,0,0,0,0,0,0,0,0,0,0,0,0,0,0,0,0,0,0,0,0,0,0,0,0,0,0,0,0,0,0,0,0,0,0,0,0,0,0,0,0,0,0,0,0,0,0,0,0,0,0,0,0,0,0,0,0,0,0,0,0,0,0,0,0,0,0,0,0,0,0,0,0,0,0,0,0,0,0,0,0,0,0,0,0,0,0,0,0,0,0,0,0,0,0,0,0,0,0,0,0,0,0,0,0,0,0,0,0,0,0,0,0,0,0,0,0,0,0,0,0,0,0,0,0,0,0,0,0,0,0,0,0,0,0,0,0,0,0,0,0,0,0,0,0,0,0,0,0,0,0,0,0,0,0,0,0,0,0,0,0,0,0,0,0,0,0,0,0,0,0,0,0,0,0,0,0,0,0,0,0,0,0,0,0,0,0,0,0,0,0,0,0,0,0,0,0,0,0,0,0,0,0,0,0,0,0,0,0,0,0,0,0,0,0,0,0,0,0,0,0,0,0,0,0,0,0,0,0,0,0],"trees":[{"base_weights":[7.645442E-5,1.0744983E0,-1.9161562E0,-1.5149399E0,1.4419084E0,-1.9697107E0,-1.0386454E0,-1.6501385E0,-4.4511846E-1,1.7171069E0,4.838297E-1,-1.2699906E0,-1.9825655E0,1.9179605E0,-1.9529496E0,-1.9703652E0,-1.4815049E0,-5.6915593E-1,1.8435371E0,-8.066305E-1,1.8655034E0,-1.8037059E0,1.8594866E0,1.7401413E0,-1.7981315E0,-1.8782424E0,-1.9967602E0,-1.8260797E0,1.9845046E0,-1.9927552E0,-1.3457419E0,-1.9856739E0,-1.782577E0,-1.3316772E0,-1.984119E0,-3.1911597E-1,-1.92639E0,1.1550461E0,9.874689E-2,-1.8180065E0,1.9173061E0,1.2981148E0,1.9792527E0,-1.8650935E0,-3.0729505E-1,-1.8484471E0,1.9802016E0,-9.6039586E-2,9.9719696E-2,-9.983099E-2,-6.187283E-1,-1.9756523E0,-2.0496725E-1,-1.9968301E0,-1.1485912E0,-9.6774176E-2,-4.831304E-2,-8.6206876E-2,9.98496E-2,-1.6567501E0,-9.99482E-2,8.991299E-1,-1.9024807E0,-9.9328764E-2,-2.861316E-2,-5.4150153E-2,-9.9831276E-2,-7.0389174E-2,7.188323E-2,-9.952918E-2,-8.822282E-2,-1.353352E-2,-8.990089E-2,-9.862519E-2,1.8521195E-2,-8.5714266E-2,9.263025E-2,-9.99045E-2,-6.379937E-2,2.415816E-2,9.851998E-2,9.95841E-2,-9.99799E-2,2.0537162E-2,9.927872E-2,-9.353939E-2,8.227202E-2,-9.921255E-2,7.342653E-2,-9.502125E-2,2.9982094E-2,9.986958E-2,-9.926872E-2,8.950985E-2,-9.950122E-2,-9.886348E-2,1.8521195E-2,-9.974585E-2,5.7146113E-2,-9.998515E-2,-9.875579E-2,-8.6206876E-2,-1.4071698E-2,-9.882004E-2,-4.0703822E-2,-9.5505595E-2,9.586803E-2,8.820439E-2,-9.968723E-2],"categories":[],"categories_nodes":[],"categories_segments":[],"categories_sizes":[],"default_left":[0,0,0,0,0,0,0,0,0,0,0,0,0,0,0,0,0,0,0,0,0,0,0,0,0,0,0,0,0,0,0,0,0,0,0,0,0,0,0,0,0,0,0,0,0,0,0,0,0,0,0,0,0,0,0,0,0,0,0,0,0,0,0,0,0,0,0,0,0,0,0,0,0,0,0,0,0,0,0,0,0,0,0,0,0,0,0,0,0,0,0,0,0,0,0,0,0,0,0,0,0,0,0,0,0,0,0,0,0],"id":0,"left_children":[1,3,5,7,9,11,13,15,17,19,21,23,25,27,29,31,33,35,37,39,41,43,45,47,49,51,53,55,57,59,61,63,65,67,69,71,73,75,-1,77,79,81,83,85,87,89,91,-1,-1,-1,93,95,97,99,101,-1,-1,-1,-1,103,-1,105,107,-1,-1,-1,-1,-1,-1,-1,-1,-1,-1,-1,-1,-1,-1,-1,-1,-1,-1,-1,-1,-1,-1,-1,-1,-1,-1,-1,-1,-1,-1,-1,-1,-1,-1,-1,-1,-1,-1,-1,-1,-1,-1,-1,-1,-1,-1],"loss_changes":[8.5821875E5,2.541074E5,7.035625E3,4.799578E3,6.167028E4,1.267E3,2.3294865E4,1.5881797E3,1.058491E3,6.805356E4,1.6425488E5,4.0553618E3,2.015E2,5.107793E2,1.5639062E2,2.5671875E1,1.4511016E3,1.1987728E3,1.5065063E1,2.780567E4,1.1073625E4,1.8000547E3,1.4593133E4,3.584436E2,5.0651367E2,2.7078984E3,4.9375E0,1.5226669E0,9.608887E1,9.5703125E0,5.1160834E2,1.0816406E1,1.1398706E2,3.137041E3,2.7792969E0,2.1342181E2,5.8942993E1,6.950229E1,0E0,7.1583594E2,2.0714551E2,6.556111E4,1.4166875E3,3.7947656E2,2.3067783E3,1.3197534E2,2.1558672E3,0E0,0E0,0E0,1.0404602E3,6.0316406E1,2.2103562E3,3.6875E0,5.6967316E0,0E0,0E0,0E0,0E0,3.0139069E1,0E0,2.3751465E2,1.1301599E2,0E0,0E0,0E0,0E0,0E0,0E0,0E0,0E0,0E0,0E0,0E0,0E0,0E0,0E0,0E0,0E0,0E0,0E0,0E0,0E0,0E0,0E0,0E0,0E0,0E0,0E0,0E0,0E0,0E0,0E0,0E0,0E0,0E0,0E0,0E0,0E0,0E0,0E0,0E0,0E0,0E0,0E0,0E0,0E0,0E0,0E0],"parents":[2147483647,0,0,1,1,2,2,3,3,4,4,5,5,6,6,7,7,8,8,9,9,10,10,11,11,12,12,13,13,14,14,15,15,16,16,17,17,18,18,19,19,20,20,21,21,22,22,23,23,24,24,25,25,26,26,27,27,28,28,29,29,30,30,31,31,32,32,33,33,34,34,35,35,36,36,37,37,39,39,40,40,41,41,42,42,43,43,44,44,45,45,46,46,50,50,51,51,52,52,53,53,54,54,59,59,61,61,62,62],"right_children":[2,4,6,8,10,12,14,16,18,20,22,24,26,28,30,32,34,36,38,40,42,44,46,48,50,52,54,56,58,60,62,64,66,68,70,72,74,76,-1,78,80,82,84,86,88,90,92,-1,-1,-1,94,96,98,100,102,-1,-1,-1,-1,104,-1,106,108,-1,-1,-1,-1,-1,-1,-1,-1,-1,-1,-1,-1,-1,-1,-1,-1,-1,-1,-1,-1,-1,-1,-1,-1,-1,-1,-1,-1,-1,-1,-1,-1,-1,-1,-1,-1,-1,-1,-1,-1,-1,-1,-1,-1,-1,-1],"split_conditions":[2.7E1,6.7862254E-1,2.9E1,2.8423765E6,6E0,1.4333333E1,3.174E3,1E0,1.25E7,6E0,4.4037E4,3.1E1,4.6E1,2.4530938E0,1.7832E4,3.4294678E2,4.93E2,2.007186E6,5E0,8.485281E0,3.9E1,1.6467E4,2.4E1,1E1,1.454975E1,4.4E1,7.215E3,3.6462488E2,4.613E4,5.77E3,6.21E2,6.363961E0,5.5436665E3,4.13E2,1.9968135E6,5.995397E6,2.21E7,1.4E1,9.874689E-2,4E0,2E0,1.2E1,2.7338156E1,1.2386875E3,2.4E1,4.8636425E6,1E0,-9.6039586E-2,9.9719696E-2,-9.983099E-2,1.29E2,2.6E1,5.1E1,8.5E1,5.2E1,-9.6774176E-2,-4.831304E-2,-8.6206876E-2,9.98496E-2,6.21E2,-9.99482E-2,5.67E2,6.2222223E0,-9.9328764E-2,-2.861316E-2,-5.4150153E-2,-9.9831276E-2,-7.0389174E-2,7.188323E-2,-9.952918E-2,-8.822282E-2,-1.353352E-2,-8.990089E-2,-9.862519E-2,1.8521195E-2,-8.5714266E-2,9.263025E-2,-9.99045E-2,-6.379937E-2,2.415816E-2,9.851998E-2,9.95841E-2,-9.99799E-2,2.0537162E-2,9.927872E-2,-9.353939E-2,8.227202E-2,-9.921255E-2,7.342653E-2,-9.502125E-2,2.9982094E-2,9.986958E-2,-9.926872E-2,8.950985E-2,-9.950122E-2,-9.886348E-2,1.8521195E-2,-9.974585E-2,5.7146113E-2,-9.998515E-2,-9.875579E-2,-8.6206876E-2,-1.4071698E-2,-9.882004E-2,-4.0703822E-2,-9.5505595E-2,9.586803E-2,8.820439E-2,-9.968723E-2],"split_indices":[5,12,2,15,6,7,4,2,19,10,18,5,10,13,3,15,14,14,10,8,14,18,3,2,11,10,9,8,16,4,5,8,19,18,15,18,15,3,0,7,16,4,12,10,3,15,2,0,0,0,3,2,7,7,7,0,0,0,0,5,0,5,10,0,0,0,0,0,0,0,0,0,0,0,0,0,0,0,0,0,0,0,0,0,0,0,0,0,0,0,0,0,0,0,0,0,0,0,0,0,0,0,0,0,0,0,0,0,0],"split_type":[0,0,0,0,0,0,0,0,0,0,0,0,0,0,0,0,0,0,0,0,0,0,0,0,0,0,0,0,0,0,0,0,0,0,0,0,0,0,0,0,0,0,0,0,0,0,0,0,0,0,0,0,0,0,0,0,0,0,0,0,0,0,0,0,0,0,0,0,0,0,0,0,0,0,0,0,0,0,0,0,0,0,0,0,0,0,0,0,0,0,0,0,0,0,0,0,0,0,0,0,0,0,0,0,0,0,0,0,0],"sum_hessian":[4.1684334E5,2.670886E5,1.4975475E5,3.318733E4,2.3390125E5,1.4113975E5,8.615009E3,2.9463357E4,3.7239722E3,1.8170695E5,5.219431E4,2.5479368E3,1.3859181E5,2.0345955E3,6.5804136E3,1.0159777E4,1.930358E4,3.5332341E3,1.9073817E2,1.0090814E4,1.7161612E5,1.960067E4,3.2593639E4,3.7997565E2,2.167961E3,1.661503E4,1.2197678E5,3.5068245E1,1.9995272E3,6.1734326E3,4.069812E2,9.385115E3,7.7466156E2,1.4873488E4,4.430092E3,2.9846199E3,5.486142E2,3.2137886E1,1.5860028E2,7.358861E3,2.731954E3,2.8661787E4,1.4295434E5,1.8828037E4,7.72633E2,1.0272068E3,3.1566432E4,2.425E1,3.5572565E2,1.8550682E3,3.1289276E2,1.5700824E4,9.142062E2,1.2196539E5,1.138649E1,3E1,5.068245E0,6.25E0,1.9932772E3,1.16864204E2,6.0565684E3,8.075349E1,3.2622772E2,9.3787295E3,6.3864903E0,1.8291156E2,5.9175E2,1.4476149E4,3.9733844E2,4.2956143E3,1.3447772E2,2.891097E3,9.352298E1,5.379547E2,1.06594715E1,6E0,2.6137884E1,5.5216367E3,1.8372242E3,9.788998E1,2.6340642E3,2.3681537E4,4.98025E3,5.7411145E2,1.4238023E5,1.8798014E4,3.0024374E1,3.9731824E2,3.753148E2,1.00606964E3,2.1137188E1,3.1430682E4,1.3575E2,1.1339276E2,1.995E2,1.5690164E4,1.06594715E1,3.925E2,5.217062E2,1.0763348E5,1.4331914E4,6.25E0,5.1364903E0,8.375E1,3.311421E1,2.125E1,5.9503483E1,7.4777164E0,3.1875E2],"tree_param":{"num_deleted":"0","num_feature":"23","num_nodes":"109","size_leaf_vector":"1"}},{"base_weights":[4.428453E-4,1.0239637E0,-1.8240937E0,-1.4191484E-1,1.5568E0,-1.8757294E0,-9.8063993E-1,-1.5819066E0,1.8229641E0,1.7761871E0,-1.7105423E0,-1.2148802E0,-1.8878952E0,1.8287169E0,-1.8539056E0,-1.8864442E0,-1.3049773E0,1.8421096E0,-1.5985878E0,1.231018E0,1.8847853E0,-1.3773915E0,-1.8370174E0,1.6712866E0,-1.7296193E0,-1.7855358E0,-1.9018468E0,1.8901303E0,-1.5231966E0,-1.8952436E0,-1.2258315E0,-1.8940338E0,-1.2121527E0,-1.5875567E0,-1.0176312E0,-3.090325E-1,1.859132E0,-9.5026776E-2,7.474137E-1,9.486839E-2,-9.522368E-2,1.8897151E0,-2.0298645E0,-1.3931911E0,1.3660966E0,-1.8459543E0,6.5922844E-1,-9.1477774E-2,9.499239E-2,-1.8660327E0,-6.775422E-1,-1.8823879E0,-1.5508968E-1,-1.9019122E0,-1.1496137E0,-8.1097744E-2,9.502778E-2,1.3210177E-2,-9.265044E-2,-1.4660001E0,-9.519314E-2,9.364738E-1,-1.7986586E0,-9.474797E-2,-2.7550478E-2,3.6036566E-2,-9.372541E-2,-9.578806E-2,-7.434929E-2,-2.8481653E-2,-9.3159296E-2,4.4857673E-2,-9.473616E-2,9.322843E-2,-7.5466536E-2,8.969749E-2,-9.063929E-2,9.465912E-2,4.6442702E-2,-1.026011E-1,-5.464619E-2,-6.7233376E-2,-9.518407E-2,8.45841E-2,2.186249E-2,-8.4766574E-2,-9.481531E-2,8.936801E-2,-9.186509E-2,-9.521421E-2,8.432337E-2,9.453666E-2,-9.480297E-2,-9.419666E-2,2.0274911E-2,-9.5240556E-2,5.5304337E-2,-9.522771E-2,-9.409692E-2,-1.24619E-2,-8.483907E-2,-9.420975E-2,-2.450513E-2,-9.099665E-2,9.094932E-2,8.57278E-2,-9.495405E-2],"categories":[],"categories_nodes":[],"categories_segments":[],"categories_sizes":[],"default_left":[0,0,0,0,0,0,0,0,0,0,0,0,0,0,0,0,0,0,0,0,0,0,0,0,0,0,0,0,0,0,0,0,0,0,0,0,0,0,0,0,0,0,0,0,0,0,0,0,0,0,0,0,0,0,0,0,0,0,0,0,0,0,0,0,0,0,0,0,0,0,0,0,0,0,0,0,0,0,0,0,0,0,0,0,0,0,0,0,0,0,0,0,0,0,0,0,0,0,0,0,0,0,0,0,0,0,0],"id":1,"left_children":[1,3,5,7,9,11,13,15,17,19,21,23,25,27,29,31,33,35,37,39,41,43,45,47,49,51,53,55,57,59,61,63,65,67,69,71,73,-1,75,-1,-1,77,79,81,83,85,87,-1,-1,89,91,93,95,97,99,-1,-1,-1,-1,101,-1,103,105,-1,-1,-1,-1,-1,-1,-1,-1,-1,-1,-1,-1,-1,-1,-1,-1,-1,-1,-1,-1,-1,-1,-1,-1,-1,-1,-1,-1,-1,-1,-1,-1,-1,-1,-1,-1,-1,-1,-1,-1,-1,-1,-1,-1],"loss_changes":[7.771453E5,1.6561684E5,6.511625E3,2.366116E5,1.3116122E5,1.1307188E3,2.1174535E4,4.067461E3,2.3197422E3,1.0149E4,4.8258984E2,3.7916057E3,1.9421875E2,4.24229E2,1.6861328E2,1.1530469E2,2.0509336E3,1.2884609E3,1.4120486E2,5.951761E4,2.763125E3,1.3940137E2,1.8732422E2,3.1273523E2,3.0941553E2,2.623379E3,3.8125E0,7.6694824E1,2.2526062E1,2.005664E1,5.0877362E2,2.7210938E1,3.323869E2,4.1776758E2,4.7477354E3,5.3147565E2,6.4184375E2,0E0,6.546559E1,0E0,0E0,4.74E2,1.5006714E0,7.557959E1,4.9059715E0,5.9828125E1,8.917475E1,0E0,0E0,2.6353613E2,7.8607574E2,5.620703E1,2.0603066E3,2.78125E0,6.042797E0,0E0,0E0,0E0,0E0,5.0462097E1,0E0,2.1348074E2,1.17563965E2,0E0,0E0,0E0,0E0,0E0,0E0,0E0,0E0,0E0,0E0,0E0,0E0,0E0,0E0,0E0,0E0,0E0,0E0,0E0,0E0,0E0,0E0,0E0,0E0,0E0,0E0,0E0,0E0,0E0,0E0,0E0,0E0,0E0,0E0,0E0,0E0,0E0,0E0,0E0,0E0,0E0,0E0,0E0,0E0],"parents":[2147483647,0,0,1,1,2,2,3,3,4,4,5,5,6,6,7,7,8,8,9,9,10,10,11,11,12,12,13,13,14,14,15,15,16,16,17,17,18,18,19,19,20,20,21,21,22,22,23,23,24,24,25,25,26,26,27,27,28,28,29,29,30,30,31,31,32,32,33,33,34,34,35,35,36,36,38,38,41,41,42,42,43,43,44,44,45,45,46,46,49,49,50,50,51,51,52,52,53,53,54,54,59,59,61,61,62,62],"right_children":[2,4,6,8,10,12,14,16,18,20,22,24,26,28,30,32,34,36,38,40,42,44,46,48,50,52,54,56,58,60,62,64,66,68,70,72,74,-1,76,-1,-1,78,80,82,84,86,88,-1,-1,90,92,94,96,98,100,-1,-1,-1,-1,102,-1,104,106,-1,-1,-1,-1,-1,-1,-1,-1,-1,-1,-1,-1,-1,-1,-1,-1,-1,-1,-1,-1,-1,-1,-1,-1,-1,-1,-1,-1,-1,-1,-1,-1,-1,-1,-1,-1,-1,-1,-1,-1,-1,-1,-1,-1],"split_conditions":[2.7E1,6E0,2.9E1,1.4E1,6E0,1.4333333E1,3.174E3,1E0,1.976E4,3.9E1,5.2E1,3.1E1,4.6E1,7.807326E5,1.7832E4,5E0,6.6E1,3E0,8.485281E0,1.2E1,9.78E2,3E0,1.1365822E3,1E1,7.61775E6,4.4E1,7.215E3,7.5181E4,1.7666666E1,5.77E3,6.21E2,2.9770702E6,2.3236E4,1.8416206E3,1.68E2,1.8E1,8.666667E0,-9.5026776E-2,5E0,9.486839E-2,-9.522368E-2,2.51E2,3.86E2,2E0,2.5E0,9.6E1,1.41E3,-9.1477774E-2,9.499239E-2,1.9232317E3,1.187302E6,2.6E1,9.473831E1,8.5E1,3.1875E4,-8.1097744E-2,9.502778E-2,1.3210177E-2,-9.265044E-2,6.21E2,-9.519314E-2,5.67E2,6.2222223E0,-9.474797E-2,-2.7550478E-2,3.6036566E-2,-9.372541E-2,-9.578806E-2,-7.434929E-2,-2.8481653E-2,-9.3159296E-2,4.4857673E-2,-9.473616E-2,9.322843E-2,-7.5466536E-2,8.969749E-2,-9.063929E-2,9.465912E-2,4.6442702E-2,-1.026011E-1,-5.464619E-2,-6.7233376E-2,-9.518407E-2,8.45841E-2,2.186249E-2,-8.4766574E-2,-9.481531E-2,8.936801E-2,-9.186509E-2,-9.521421E-2,8.432337E-2,9.453666E-2,-9.480297E-2,-9.419666E-2,2.0274911E-2,-9.5240556E-2,5.5304337E-2,-9.522771E-2,-9.409692E-2,-1.24619E-2,-8.483907E-2,-9.420975E-2,-2.450513E-2,-9.099665E-2,9.094932E-2,8.57278E-2,-9.495405E-2],"split_indices":[5,10,2,3,6,7,4,2,20,14,0,5,10,19,3,1,17,19,8,4,17,1,10,2,20,10,9,0,10,4,5,15,0,13,17,3,7,0,1,0,0,17,4,2,19,0,9,0,0,10,15,2,8,7,4,0,0,0,0,5,0,5,10,0,0,0,0,0,0,0,0,0,0,0,0,0,0,0,0,0,0,0,0,0,0,0,0,0,0,0,0,0,0,0,0,0,0,0,0,0,0,0,0,0,0,0,0],"split_type":[0,0,0,0,0,0,0,0,0,0,0,0,0,0,0,0,0,0,0,0,0,0,0,0,0,0,0,0,0,0,0,0,0,0,0,0,0,0,0,0,0,0,0,0,0,0,0,0,0,0,0,0,0,0,0,0,0,0,0,0,0,0,0,0,0,0,0,0,0,0,0,0,0,0,0,0,0,0,0,0,0,0,0,0,0,0,0,0,0,0,0,0,0,0,0,0,0,0,0,0,0,0,0,0,0,0,0],"sum_hessian":[4.1615097E5,2.6659697E5,1.49554E5,8.362377E4,1.8297319E5,1.4092539E5,8.628607E3,4.825763E4,3.536615E4,1.7146084E5,1.1512352E4,2.5492537E3,1.3837614E5,2.0458549E3,6.582753E3,2.298039E4,2.5277236E4,3.5169816E4,1.963325E2,2.8483666E4,1.4297717E5,3.1711228E3,8.341229E3,3.854984E2,2.1637551E3,1.6613744E4,1.217624E5,2.0094736E3,3.638124E1,6.1743564E3,4.0839615E2,2.2722822E4,2.5756998E2,1.2742041E4,1.2535194E4,2.75987E2,3.489383E4,1.741128E2,2.2219717E1,2.349165E4,4.9920146E3,1.4279786E5,1.7931151E2,3.1534546E3,1.7668343E1,8.311731E3,2.9496513E1,2.3196468E1,3.6230194E2,1.9147172E3,2.49038E2,1.5682042E4,9.317018E2,1.2175027E5,1.2124149E1,5.4897943E0,2.0039839E3,5.698338E0,3.0682903E1,1.2490934E2,6.0494473E3,8.53987E1,3.2299744E2,2.2706762E4,1.6059076E1,6.571436E1,1.918556E2,2.9844607E3,9.757581E3,8.194955E3,4.3402393E3,1.5699782E2,1.1898918E2,3.4838047E4,5.5780804E1,1.59848585E1,6.2348585E0,1.4228345E5,5.1440765E2,1.7400635E2,5.3051624E0,2.8830461E3,2.704083E2,1.2474448E1,5.193895E0,2.0910881E3,6.2206436E3,2.0511736E1,8.984777E0,1.894779E3,1.9938097E1,7.995812E1,1.6907986E2,1.5671634E4,1.0408578E1,3.9004868E2,5.4165314E2,1.0744348E5,1.4306799E4,5.133075E0,6.9910746E0,8.678795E1,3.8121395E1,2.0453323E1,6.494537E1,8.529361E0,3.1446808E2],"tree_param":{"num_deleted":"0","num_feature":"23","num_nodes":"107","size_leaf_vector":"1"}},{"base_weights":[1.2982315E-3,9.717401E-1,-1.755854E0,-1.3731203E0,1.3038301E0,-1.8068662E0,-8.738032E-1,-1.4992201E0,-3.8967028E-1,1.7933732E0,8.8159585E-1,-1.8223491E0,-1.7598978E0,1.512867E0,-1.7766743E0,-1.7946422E0,-1.3456942E0,-1.3073575E0,4.0504625E-1,1.8060881E0,-1.9767216E0,-1.710334E0,1.6957631E0,-1.8225361E0,-8.6411744E-2,1.6663806E0,-1.8132968E0,1.8092028E0,-1.1398833E0,-1.8159598E0,-1.1691061E0,-1.809746E0,-9.0196806E-1,-1.2044933E0,-1.8152438E0,-1.7006986E0,1.2901127E0,8.944108E-1,-1.7393563E0,1.8114096E0,-1.7925568E0,-9.1070846E-2,-1.06087826E-1,-1.8149527E0,-1.6329658E0,1.7268697E0,-1.8055537E0,-9.114701E-2,-1.5272915E0,1.8744553E-2,-2.381488E-2,-8.785831E-2,1.8394777E0,-1.8136371E0,-9.1624445E-1,-8.017569E-2,9.107777E-2,3.0150628E-1,-1.5481336E0,-1.4776206E0,-9.090838E-2,1.037683E0,-1.7761585E0,-9.052287E-2,-4.6980236E-2,-8.820556E-2,8.929172E-2,-6.3879065E-2,7.407772E-2,-9.110921E-2,-7.927456E-2,-9.031098E-2,-6.16521E-2,7.5456195E-2,-8.551014E-2,4.9410652E-2,-1.9670052E-2,-9.006743E-2,3.386692E-2,9.0882234E-2,3.0743001E-2,-2.3894657E-3,-9.711992E-2,-1.8438492E-2,-9.108093E-2,-7.197398E-2,-9.15375E-2,2.2392146E-2,8.9627564E-2,-9.119697E-2,4.7510162E-2,1.24372905E-2,-9.061464E-2,9.524462E-2,-8.517753E-2,-8.832853E-2,-9.095559E-2,-8.446001E-2,2.2161072E-2,-8.60348E-2,5.839009E-2,-8.829238E-2,-2.2867224E-3,2.324043E-2,-8.866471E-2,8.4785454E-2,-6.4201765E-2,-2.1403933E-2,-9.086713E-2],"categories":[],"categories_nodes":[],"categories_segments":[],"categories_sizes":[],"default_left":[0,0,0,0,0,0,0,0,0,0,0,0,0,0,0,0,0,0,0,0,0,0,0,0,0,0,0,0,0,0,0,0,0,0,0,0,0,0,0,0,0,0,0,0,0,0,0,0,0,0,0,0,0,0,0,0,0,0,0,0,0,0,0,0,0,0,0,0,0,0,0,0,0,0,0,0,0,0,0,0,0,0,0,0,0,0,0,0,0,0,0,0,0,0,0,0,0,0,0,0,0,0,0,0,0,0,0,0,0],"id":2,"left_children":[1,3,5,7,9,11,13,15,17,19,21,23,25,27,29,31,33,35,37,39,41,43,45,47,49,51,53,55,57,59,61,63,65,67,69,71,73,75,77,79,81,-1,-1,83,85,87,89,-1,91,-1,-1,-1,93,95,97,-1,-1,99,101,103,-1,105,107,-1,-1,-1,-1,-1,-1,-1,-1,-1,-1,-1,-1,-1,-1,-1,-1,-1,-1,-1,-1,-1,-1,-1,-1,-1,-1,-1,-1,-1,-1,-1,-1,-1,-1,-1,-1,-1,-1,-1,-1,-1,-1,-1,-1,-1,-1],"loss_changes":[7.0496506E5,2.0739338E5,6.6166875E3,4.0968047E3,4.8219906E4,9.79375E1,1.7335305E4,1.3257969E3,2.7400278E3,5.1822812E3,2.6432997E5,3.378125E1,6.315367E3,1.737956E3,1.3717969E2,1.3334961E2,1.2757109E3,1.7835425E3,2.114831E3,2.0651562E3,4.3253174E0,2.3939062E2,1.03845625E4,9.6875E0,2.3926358E0,3.1729932E2,8.71875E0,8.667139E1,1.313989E2,1.40625E0,4.8044855E2,4.390625E0,3.937636E2,2.9115547E3,4.2128906E0,7.251807E1,1.5362991E2,1.9853552E2,5.7328125E1,8.01E2,4.160309E1,0E0,0E0,1.2194531E2,6.564297E2,7.9361875E3,4.42854E1,0E0,7.589914E1,0E0,0E0,0E0,1.2027759E2,5.5390625E0,1.641137E1,0E0,0E0,8.950933E1,5.6688416E1,2.429361E1,0E0,1.2089409E2,1.4798584E1,0E0,0E0,0E0,0E0,0E0,0E0,0E0,0E0,0E0,0E0,0E0,0E0,0E0,0E0,0E0,0E0,0E0,0E0,0E0,0E0,0E0,0E0,0E0,0E0,0E0,0E0,0E0,0E0,0E0,0E0,0E0,0E0,0E0,0E0,0E0,0E0,0E0,0E0,0E0,0E0,0E0,0E0,0E0,0E0,0E0,0E0],"parents":[2147483647,0,0,1,1,2,2,3,3,4,4,5,5,6,6,7,7,8,8,9,9,10,10,11,11,12,12,13,13,14,14,15,15,16,16,17,17,18,18,19,19,20,20,21,21,22,22,23,23,24,24,25,25,26,26,27,27,28,28,29,29,30,30,31,31,32,32,33,33,34,34,35,35,36,36,37,37,38,38,39,39,40,40,43,43,44,44,45,45,46,46,48,48,52,52,53,53,54,54,57,57,58,58,59,59,61,61,62,62],"right_children":[2,4,6,8,10,12,14,16,18,20,22,24,26,28,30,32,34,36,38,40,42,44,46,48,50,52,54,56,58,60,62,64,66,68,70,72,74,76,78,80,82,-1,-1,84,86,88,90,-1,92,-1,-1,-1,94,96,98,-1,-1,100,102,104,-1,106,108,-1,-1,-1,-1,-1,-1,-1,-1,-1,-1,-1,-1,-1,-1,-1,-1,-1,-1,-1,-1,-1,-1,-1,-1,-1,-1,-1,-1,-1,-1,-1,-1,-1,-1,-1,-1,-1,-1,-1,-1,-1,-1,-1,-1,-1,-1],"split_conditions":[1.4333333E1,6.7862254E-1,2.9E1,2.8423765E6,4E0,5.727565E1,2.2490178E2,1E0,8.9E1,1E0,1.4E1,2.6E1,1.3E2,2.7E1,1.7832E4,5E0,4.93E2,5.4425275E6,2.007186E6,6.31E2,3.9E1,1E0,1E1,1.5E1,1E0,1.24E2,7.215E3,2.3453596E2,2.1920311E1,3.0072223E2,4.015222E6,1.4E1,4E0,4.13E2,1.9968135E6,7.4E1,7E0,1.68E2,1.53E7,1.4142135E0,9.78E2,-9.1070846E-2,-1.06087826E-1,6.4676476E-1,2E0,1.1262E4,1.11E7,-9.114701E-2,4.1E1,1.8744553E-2,-2.381488E-2,-8.785831E-2,6E0,5E0,4E0,-8.017569E-2,9.107777E-2,2.2033333E2,9.76E2,3E1,-9.090838E-2,3.797069E2,4.900586E6,-9.052287E-2,-4.6980236E-2,-8.820556E-2,8.929172E-2,-6.3879065E-2,7.407772E-2,-9.110921E-2,-7.927456E-2,-9.031098E-2,-6.16521E-2,7.5456195E-2,-8.551014E-2,4.9410652E-2,-1.9670052E-2,-9.006743E-2,3.386692E-2,9.0882234E-2,3.0743001E-2,-2.3894657E-3,-9.711992E-2,-1.8438492E-2,-9.108093E-2,-7.197398E-2,-9.15375E-2,2.2392146E-2,8.9627564E-2,-9.119697E-2,4.7510162E-2,1.24372905E-2,-9.061464E-2,9.524462E-2,-8.517753E-2,-8.832853E-2,-9.095559E-2,-8.446001E-2,2.2161072E-2,-8.60348E-2,5.839009E-2,-8.829238E-2,-2.2867224E-3,2.324043E-2,-8.866471E-2,8.4785454E-2,-6.4201765E-2,-2.1403933E-2,-9.086713E-2],"split_indices":[7,12,2,15,3,11,11,2,17,22,3,2,9,1,3,1,14,14,14,17,14,2,1,2,21,9,9,12,11,11,16,3,17,18,15,17,7,17,15,15,17,0,0,13,2,0,15,0,9,0,0,0,1,1,17,0,0,7,9,1,0,11,16,0,0,0,0,0,0,0,0,0,0,0,0,0,0,0,0,0,0,0,0,0,0,0,0,0,0,0,0,0,0,0,0,0,0,0,0,0,0,0,0,0,0,0,0,0,0],"split_type":[0,0,0,0,0,0,0,0,0,0,0,0,0,0,0,0,0,0,0,0,0,0,0,0,0,0,0,0,0,0,0,0,0,0,0,0,0,0,0,0,0,0,0,0,0,0,0,0,0,0,0,0,0,0,0,0,0,0,0,0,0,0,0,0,0,0,0,0,0,0,0,0,0,0,0,0,0,0,0,0,0,0,0,0,0,0,0,0,0,0,0,0,0,0,0,0,0,0,0,0,0,0,0,0,0,0,0,0,0],"sum_hessian":[4.134153E5,2.663279E5,1.470874E5,3.303902E4,2.3328889E5,1.3904489E5,8.042517E3,2.9283686E4,3.755333E3,1.08032086E5,1.252568E5,1.0454457E5,3.4500316E4,2.2072214E3,5.835296E3,1.0010429E4,1.9273256E4,1.7425286E3,2.0128044E3,1.07669484E5,3.62602E2,2.994016E4,9.531664E4,1.0453326E5,1.1310309E1,5.289765E2,3.397134E4,1.9857172E3,2.2150424E2,5.479031E3,3.5626517E2,9.842862E3,1.675661E2,1.4820164E4,4.4530923E3,1.5136572E3,2.2887143E2,1.6392919E3,3.7351254E2,1.07511E5,1.584864E2,1.8164893E2,1.8095306E2,1.2718914E4,1.7221244E4,9.447778E4,8.388573E2,1.043852E5,1.4805646E2,5.198289E0,6.1120205E0,2.5017803E1,5.0395868E2,3.3957434E4,1.3905384E1,6.6968956E0,1.9790203E3,4.894787E1,1.7255638E2,3.986426E1,5.4391665E3,7.670686E1,2.795583E2,9.833743E3,9.119629E0,1.27131035E2,4.043506E1,1.4428096E4,3.9206836E2,4.315791E3,1.3730101E2,1.23266E3,2.809971E2,2.137645E2,1.5106943E1,1.5282118E3,1.1108E2,3.6441922E2,9.093331E0,1.06953164E5,5.57837E2,1.2638744E1,1.4584766E2,5.8613255E1,1.2660301E4,8.709388E3,8.511857E3,4.6151035E3,8.986268E4,8.3363367E2,5.223655E0,2.0490898E1,1.2756556E2,4.9527676E2,8.681927E0,3.5720234E3,3.038541E4,8.710361E0,5.1950235E0,1.4384264E1,3.4563602E1,1.5056282E2,2.1993553E1,5.19086E0,3.4673405E1,5.9977543E1,1.6729324E1,8.625171E0,2.709331E2],"tree_param":{"num_deleted":"0","num_feature":"23","num_nodes":"109","size_leaf_vector":"1"}},{"base_weights":[9.87043E-4,9.413485E-1,-1.6785125E0,-1.3142312E0,1.2625244E0,-1.7262993E0,-8.9446265E-1,-1.4364305E0,-3.520845E-1,1.5035218E0,4.2249528E-1,-1.2111286E0,-1.7357948E0,1.6847901E0,-1.7059929E0,-1.724272E0,-1.287021E0,-1.2323335E0,3.8447443E-1,-6.745359E-1,1.632945E0,-1.6017036E0,1.6170642E0,1.4966545E0,-1.6640296E0,-1.6428216E0,-1.7484725E0,1.7347834E0,-1.4013591E0,-1.7432333E0,-1.1527212E0,-1.7389886E0,-1.5459723E0,-1.1517395E0,-1.7394377E0,-1.6271183E0,1.5690126E0,8.5335344E-1,-1.6614181E0,-1.5792626E0,1.7264678E0,1.1358087E0,1.7327656E0,-1.6345494E0,-4.2482543E-1,-1.652778E0,1.7339804E0,-8.901476E-2,8.736398E-2,-7.867313E-1,-9.2587516E-2,-1.7296785E0,-1.8318874E-1,-8.753907E-2,-1.7310544E0,-7.618188E-2,1.7460403E0,-1.1692292E-2,-8.592897E-2,-1.3889387E0,-8.75132E-2,8.868577E-1,-1.681332E0,-8.6987175E-2,-3.3852622E-2,-4.5602173E-2,-8.749291E-2,4.7754973E-2,-6.1969705E-2,-8.701905E-2,-4.316466E-2,-8.6807005E-2,-6.08433E-2,1.1966601E-3,8.506931E-2,4.7152665E-2,-1.8733857E-2,-8.705934E-2,5.107081E-2,-8.7550454E-2,-5.3634334E-2,1.9472245E-2,8.936963E-2,8.7135665E-2,-8.7538354E-2,8.685978E-2,-9.311104E-2,-8.206263E-2,8.1685334E-2,-8.9182466E-2,5.734985E-2,-8.460505E-2,4.969466E-2,8.755111E-2,-9.225526E-2,7.6136254E-2,-8.726768E-2,-8.756011E-2,-8.066434E-2,-8.754529E-2,4.9304906E-2,-8.142992E-2,-8.711902E-2,3.973947E-2,8.7451115E-2,-8.674347E-2,-2.5904706E-2,-8.3881855E-2,8.564549E-2,7.739568E-2,-8.752129E-2],"categories":[],"categories_nodes":[],"categories_segments":[],"categories_sizes":[],"default_left":[0,0,0,0,0,0,0,0,0,0,0,0,0,0,0,0,0,0,0,0,0,0,0,0,0,0,0,0,0,0,0,0,0,0,0,0,0,0,0,0,0,0,0,0,0,0,0,0,0,0,0,0,0,0,0,0,0,0,0,0,0,0,0,0,0,0,0,0,0,0,0,0,0,0,0,0,0,0,0,0,0,0,0,0,0,0,0,0,0,0,0,0,0,0,0,0,0,0,0,0,0,0,0,0,0,0,0,0,0,0,0],"id":3,"left_children":[1,3,5,7,9,11,13,15,17,19,21,23,25,27,29,31,33,35,37,39,41,43,45,47,49,51,53,55,57,59,61,63,65,67,69,71,73,75,77,79,81,83,85,87,89,91,93,-1,-1,95,-1,97,99,-1,101,-1,103,-1,-1,105,-1,107,109,-1,-1,-1,-1,-1,-1,-1,-1,-1,-1,-1,-1,-1,-1,-1,-1,-1,-1,-1,-1,-1,-1,-1,-1,-1,-1,-1,-1,-1,-1,-1,-1,-1,-1,-1,-1,-1,-1,-1,-1,-1,-1,-1,-1,-1,-1,-1,-1],"loss_changes":[6.4633475E5,1.9005934E5,5.502125E3,3.8442656E3,4.649125E4,6.7515625E2,1.767039E4,1.245625E3,2.390652E3,5.0305844E4,1.2380318E5,3.0794558E3,1.57375E2,3.1418945E2,1.3028906E2,2.3320312E1,1.1672793E3,1.8601643E3,1.9274918E3,2.1746861E4,8.3570625E3,7.338242E2,1.231207E4,2.9881488E2,3.526162E2,2.0699062E3,1.75E0,7.5612305E1,1.1732666E1,1.2548828E1,4.412574E2,6.154297E0,9.724451E1,2.7177441E3,2.1298828E0,6.3756348E1,4.249768E1,1.8036072E2,8.1966675E1,6.30709E2,2.2250195E2,4.9352797E4,2.2372188E3,4.0766016E2,1.1068539E3,1.1741699E2,1.8993516E3,0E0,0E0,8.4547565E2,0E0,3.5785156E1,1.6849634E3,0E0,1.3511719E1,0E0,4.2333984E0,0E0,0E0,3.5813522E1,0E0,1.821145E2,7.5063416E1,0E0,0E0,0E0,0E0,0E0,0E0,0E0,0E0,0E0,0E0,0E0,0E0,0E0,0E0,0E0,0E0,0E0,0E0,0E0,0E0,0E0,0E0,0E0,0E0,0E0,0E0,0E0,0E0,0E0,0E0,0E0,0E0,0E0,0E0,0E0,0E0,0E0,0E0,0E0,0E0,0E0,0E0,0E0,0E0,0E0,0E0,0E0,0E0],"parents":[2147483647,0,0,1,1,2,2,3,3,4,4,5,5,6,6,7,7,8,8,9,9,10,10,11,11,12,12,13,13,14,14,15,15,16,16,17,17,18,18,19,19,20,20,21,21,22,22,23,23,24,24,25,25,26,26,27,27,28,28,29,29,30,30,31,31,32,32,33,33,34,34,35,35,36,36,37,37,38,38,39,39,40,40,41,41,42,42,43,43,44,44,45,45,46,46,49,49,51,51,52,52,54,54,56,56,59,59,61,61,62,62],"right_children":[2,4,6,8,10,12,14,16,18,20,22,24,26,28,30,32,34,36,38,40,42,44,46,48,50,52,54,56,58,60,62,64,66,68,70,72,74,76,78,80,82,84,86,88,90,92,94,-1,-1,96,-1,98,100,-1,102,-1,104,-1,-1,106,-1,108,110,-1,-1,-1,-1,-1,-1,-1,-1,-1,-1,-1,-1,-1,-1,-1,-1,-1,-1,-1,-1,-1,-1,-1,-1,-1,-1,-1,-1,-1,-1,-1,-1,-1,-1,-1,-1,-1,-1,-1,-1,-1,-1,-1,-1,-1,-1,-1,-1],"split_conditions":[2.7E1,6.7862254E-1,2.9E1,2.8423765E6,6E0,1.4333333E1,3.174E3,1E0,8.9E1,6E0,3.272E4,3.1E1,4.6E1,1E0,1.7832E4,3.4294678E2,4.93E2,1.05E7,2.007186E6,8.485281E0,3.9E1,1.6467E4,2.4E1,1E1,1E0,4.4E1,8.5E1,1.454983E2,2.42E2,5.77E3,6.21E2,6.363961E0,5.5436665E3,1E0,5E0,7.2E1,1.25E7,1.68E2,1.53E7,4E0,2E0,1.2E1,9.78E2,1.2386875E3,2.4E1,5.235943E6,1E0,-8.901476E-2,8.736398E-2,1.29E2,-9.2587516E-2,8.9E1,5.1E1,-8.753907E-2,9.3E1,-7.618188E-2,7.213333E1,-1.1692292E-2,-8.592897E-2,6.21E2,-8.75132E-2,5.67E2,6.2222223E0,-8.6987175E-2,-3.3852622E-2,-4.5602173E-2,-8.749291E-2,4.7754973E-2,-6.1969705E-2,-8.701905E-2,-4.316466E-2,-8.6807005E-2,-6.08433E-2,1.1966601E-3,8.506931E-2,4.7152665E-2,-1.8733857E-2,-8.705934E-2,5.107081E-2,-8.7550454E-2,-5.3634334E-2,1.9472245E-2,8.936963E-2,8.7135665E-2,-8.7538354E-2,8.685978E-2,-9.311104E-2,-8.206263E-2,8.1685334E-2,-8.9182466E-2,5.734985E-2,-8.460505E-2,4.969466E-2,8.755111E-2,-9.225526E-2,7.6136254E-2,-8.726768E-2,-8.756011E-2,-8.066434E-2,-8.754529E-2,4.9304906E-2,-8.142992E-2,-8.711902E-2,3.973947E-2,8.7451115E-2,-8.674347E-2,-2.5904706E-2,-8.3881855E-2,8.564549E-2,7.739568E-2,-8.752129E-2],"split_indices":[5,12,2,15,6,7,4,2,17,10,18,5,10,22,3,15,14,19,14,8,14,18,3,2,22,10,7,12,4,4,5,8,19,22,2,17,19,17,15,7,17,4,17,10,3,15,2,0,0,3,0,4,7,0,10,0,7,0,0,5,0,5,10,0,0,0,0,0,0,0,0,0,0,0,0,0,0,0,0,0,0,0,0,0,0,0,0,0,0,0,0,0,0,0,0,0,0,0,0,0,0,0,0,0,0,0,0,0,0,0,0],"split_type":[0,0,0,0,0,0,0,0,0,0,0,0,0,0,0,0,0,0,0,0,0,0,0,0,0,0,0,0,0,0,0,0,0,0,0,0,0,0,0,0,0,0,0,0,0,0,0,0,0,0,0,0,0,0,0,0,0,0,0,0,0,0,0,0,0,0,0,0,0,0,0,0,0,0,0,0,0,0,0,0,0,0,0,0,0,0,0,0,0,0,0,0,0,0,0,0,0,0,0,0,0,0,0,0,0,0,0,0,0,0,0],"sum_hessian":[4.0924247E5,2.6235106E5,1.4689142E5,3.2699969E4,2.2965108E5,1.3845175E5,8.439669E3,2.9014443E4,3.6855256E3,1.7845345E5,5.119763E4,2.5080273E3,1.3594373E5,2.0196436E3,6.420025E3,9.910679E3,1.9103764E4,1.6786848E3,2.0068408E3,1.0008949E4,1.684445E5,1.9000652E4,3.2196975E4,3.5905023E2,2.148977E3,1.6328385E4,1.1961534E5,1.9878793E3,3.1764301E1,6.013133E3,4.068922E2,9.146952E3,7.637267E2,1.4709019E4,4.394745E3,1.4717018E3,2.0698306E2,1.6331396E3,3.7370114E2,7.2699053E3,2.7390444E3,2.8168654E4,1.4027584E5,1.8484379E4,5.162735E2,1.1110361E3,3.108594E4,2.5075964E1,3.3397427E2,3.7969446E2,1.7692826E3,1.5411145E4,9.1724066E2,1.0552768E5,1.4087666E4,6.381379E0,1.9814979E3,7.1577454E0,2.4606556E1,1.2086599E2,5.892267E3,8.361119E1,3.2328104E2,9.139817E3,7.134805E0,1.8718817E2,5.765385E2,5.871267E2,1.4121892E4,4.389033E3,5.711895E0,1.1601642E3,3.115376E2,1.6426931E1,1.9055612E2,1.5221857E3,1.10953995E2,3.632516E2,1.0449568E1,5.4273823E3,1.842523E3,1.19694084E2,2.6193503E3,2.3275385E4,4.8932695E3,1.4010372E5,1.7212889E2,1.8447041E4,3.7337536E1,2.7682578E2,2.3944772E2,1.095126E3,1.5910201E1,3.0939133E4,1.468061E2,1.1120278E2,2.6849167E2,1.2994172E4,2.4169727E3,3.9164572E2,5.25595E2,1.4167117E3,1.2670954E4,7.0279937E0,1.9744698E3,8.579354E1,3.5072453E1,2.0119352E1,6.3491837E1,6.3237576E0,3.1695728E2],"tree_param":{"num_deleted":"0","num_feature":"23","num_nodes":"111","size_leaf_vector":"1"}},{"base_weights":[-3.0411127E-5,9.064669E-1,-1.6183223E0,-1.2682847E0,1.2168089E0,-1.6634967E0,-8.759287E-1,-1.3860598E0,-3.4475115E-1,1.4487727E0,4.093534E-1,-1.1570634E0,-1.6729281E0,1.61856E0,-1.6480503E0,-1.6600052E0,-1.2438427E0,-4.4672424E-1,1.5621543E0,-6.317598E-1,1.5700277E0,-1.5753464E0,1.658904E0,1.466518E0,-1.6022136E0,-8.435782E-2,-1.6245592E0,1.6720966E0,-1.4680707E0,-1.68114E0,-1.1409651E0,-1.6763337E0,-7.3268664E-1,-1.131166E0,-1.6750741E0,-1.3734068E0,-1.9919795E-1,8.425938E-2,9.0174675E-1,-1.5143883E0,1.6663736E0,1.6782972E0,1.3872852E0,-1.5802437E0,9.543031E-1,1.6838993E0,-1.7723491E0,-8.5254416E-2,8.422991E-2,-7.600832E-1,-8.882361E-2,5.03018E-1,-1.6748149E0,-7.355306E-2,1.6827594E0,-2.6287017E-2,-8.275613E-2,-1.3621578E0,-8.436622E-2,7.80388E-1,-1.6075094E0,-8.385144E-2,-3.2391477E-2,-8.3889745E-2,3.9401833E-2,-5.9640434E-2,7.145881E-2,-8.428474E-2,-7.491936E-2,-4.7521915E-2,-8.08005E-2,-8.837409E-2,-8.652738E-3,-8.266827E-2,7.674896E-2,-8.432301E-2,-5.1105406E-2,1.7387372E-2,8.586838E-2,8.417043E-2,-9.602443E-2,-7.500077E-2,8.44559E-2,-7.3940285E-2,-8.364811E-2,8.718638E-2,-8.0175616E-2,8.4416114E-2,-8.863475E-2,-1.5031502E-2,-9.041267E-2,7.312497E-2,-8.415582E-2,-8.393013E-2,5.6794353E-2,-8.084179E-2,-8.41521E-2,3.9159488E-2,8.424502E-2,-2.569524E-2,-8.474446E-2,-8.081244E-2,8.04769E-2,7.273573E-2,-8.3179116E-2],"categories":[],"categories_nodes":[],"categories_segments":[],"categories_sizes":[],"default_left":[0,0,0,0,0,0,0,0,0,0,0,0,0,0,0,0,0,0,0,0,0,0,0,0,0,0,0,0,0,0,0,0,0,0,0,0,0,0,0,0,0,0,0,0,0,0,0,0,0,0,0,0,0,0,0,0,0,0,0,0,0,0,0,0,0,0,0,0,0,0,0,0,0,0,0,0,0,0,0,0,0,0,0,0,0,0,0,0,0,0,0,0,0,0,0,0,0,0,0,0,0,0,0,0,0],"id":4,"left_children":[1,3,5,7,9,11,13,15,17,19,21,23,25,27,29,31,33,35,37,39,41,43,45,47,49,-1,51,53,55,57,59,61,63,65,67,69,71,-1,73,75,77,79,81,83,85,87,89,-1,-1,91,-1,93,95,-1,97,-1,-1,99,-1,101,103,-1,-1,-1,-1,-1,-1,-1,-1,-1,-1,-1,-1,-1,-1,-1,-1,-1,-1,-1,-1,-1,-1,-1,-1,-1,-1,-1,-1,-1,-1,-1,-1,-1,-1,-1,-1,-1,-1,-1,-1,-1,-1,-1,-1],"loss_changes":[5.924195E5,1.7469956E5,4.8612188E3,3.5155156E3,4.2426656E4,6.50875E2,1.6025167E4,1.1148672E3,7.118932E2,4.4393188E4,1.25373195E5,2.9244568E3,8.959375E1,3.2746582E2,1.0468164E2,1.4707227E2,9.1526953E2,7.962512E2,1.3583252E1,1.9660645E4,3.2875312E3,2.4347656E2,2.6636328E3,2.5427032E2,3.1262842E2,0E0,3.2646406E3,6.728467E1,5.1342316E0,9.462891E0,3.5289468E2,5.7929688E0,2.4745035E2,2.364121E3,4.8085938E0,7.356189E1,1.1210314E2,0E0,5.3247894E1,5.91459E2,1.8026709E2,1.923875E3,5.3919594E4,1.80875E2,8.025944E1,4.7385156E2,1.1337097E1,0E0,0E0,7.5859985E2,0E0,9.7550433E2,1.14921875E1,0E0,2.3935547E0,0E0,0E0,3.2595703E1,0E0,1.5624307E2,5.667383E1,0E0,0E0,0E0,0E0,0E0,0E0,0E0,0E0,0E0,0E0,0E0,0E0,0E0,0E0,0E0,0E0,0E0,0E0,0E0,0E0,0E0,0E0,0E0,0E0,0E0,0E0,0E0,0E0,0E0,0E0,0E0,0E0,0E0,0E0,0E0,0E0,0E0,0E0,0E0,0E0,0E0,0E0,0E0,0E0],"parents":[2147483647,0,0,1,1,2,2,3,3,4,4,5,5,6,6,7,7,8,8,9,9,10,10,11,11,12,12,13,13,14,14,15,15,16,16,17,17,18,18,19,19,20,20,21,21,22,22,23,23,24,24,26,26,27,27,28,28,29,29,30,30,31,31,32,32,33,33,34,34,35,35,36,36,38,38,39,39,40,40,41,41,42,42,43,43,44,44,45,45,46,46,49,49,51,51,52,52,54,54,57,57,59,59,60,60],"right_children":[2,4,6,8,10,12,14,16,18,20,22,24,26,28,30,32,34,36,38,40,42,44,46,48,50,-1,52,54,56,58,60,62,64,66,68,70,72,-1,74,76,78,80,82,84,86,88,90,-1,-1,92,-1,94,96,-1,98,-1,-1,100,-1,102,104,-1,-1,-1,-1,-1,-1,-1,-1,-1,-1,-1,-1,-1,-1,-1,-1,-1,-1,-1,-1,-1,-1,-1,-1,-1,-1,-1,-1,-1,-1,-1,-1,-1,-1,-1,-1,-1,-1,-1,-1,-1,-1,-1,-1],"split_conditions":[2.7E1,6.7862254E-1,2.9E1,2.8423765E6,6E0,1.4333333E1,3.174E3,1E0,1.25E7,6E0,4E0,3.1E1,8.420949E1,1E0,1.7832E4,5E0,1.361E3,6.7206246E-1,3E0,1.4E1,2E0,1.338E3,1E0,1E1,1E0,-8.435782E-2,1.99E2,1.454983E2,2.42E2,5.77E3,6.21E2,6.363961E0,2.2849309E2,5.22E2,2.590136E6,6.002846E6,2.4174822E6,8.425938E-2,1.4E1,4E0,2E0,9.34E2,1.4E1,9.5E1,1.41E3,3.7E1,2.5E0,-8.5254416E-2,8.422991E-2,1E1,-8.882361E-2,1.94E2,5E0,-7.355306E-2,1.20155136E2,-2.6287017E-2,-8.275613E-2,3E1,-8.436622E-2,5.67E2,2E1,-8.385144E-2,-3.2391477E-2,-8.3889745E-2,3.9401833E-2,-5.9640434E-2,7.145881E-2,-8.428474E-2,-7.491936E-2,-4.7521915E-2,-8.08005E-2,-8.837409E-2,-8.652738E-3,-8.266827E-2,7.674896E-2,-8.432301E-2,-5.1105406E-2,1.7387372E-2,8.586838E-2,8.417043E-2,-9.602443E-2,-7.500077E-2,8.44559E-2,-7.3940285E-2,-8.364811E-2,8.718638E-2,-8.0175616E-2,8.4416114E-2,-8.863475E-2,-1.5031502E-2,-9.041267E-2,7.312497E-2,-8.415582E-2,-8.393013E-2,5.6794353E-2,-8.084179E-2,-8.41521E-2,3.9159488E-2,8.424502E-2,-2.569524E-2,-8.474446E-2,-8.081244E-2,8.04769E-2,7.273573E-2,-8.3179116E-2],"split_indices":[5,12,2,15,6,7,4,2,19,9,1,5,8,22,3,1,16,13,1,5,2,9,2,2,22,0,5,12,4,4,5,8,13,18,18,16,19,0,3,7,16,16,5,16,9,3,19,0,0,1,0,5,1,0,8,0,0,1,0,5,9,0,0,0,0,0,0,0,0,0,0,0,0,0,0,0,0,0,0,0,0,0,0,0,0,0,0,0,0,0,0,0,0,0,0,0,0,0,0,0,0,0,0,0,0],"split_type":[0,0,0,0,0,0,0,0,0,0,0,0,0,0,0,0,0,0,0,0,0,0,0,0,0,0,0,0,0,0,0,0,0,0,0,0,0,0,0,0,0,0,0,0,0,0,0,0,0,0,0,0,0,0,0,0,0,0,0,0,0,0,0,0,0,0,0,0,0,0,0,0,0,0,0,0,0,0,0,0,0,0,0,0,0,0,0,0,0,0,0,0,0,0,0,0,0,0,0,0,0,0,0,0,0],"sum_hessian":[4.038349E5,2.5884278E5,1.4499212E5,3.2324271E4,2.265185E5,1.3667428E5,8.317844E3,2.8667855E4,3.6564155E3,1.759665E5,5.0552004E4,2.5010435E3,1.3417323E5,1.9658118E3,6.352032E3,9.793145E3,1.887471E4,3.4715383E3,1.8487714E2,9.690451E3,1.6627605E5,1.9530635E4,3.1021371E4,3.6246857E2,2.1385747E3,1.0364955E5,3.052369E4,1.9327472E3,3.30646E1,5.96075E3,3.9128217E2,9.622895E3,1.7024962E2,1.4967473E4,3.907239E3,7.308505E2,2.7406877E3,1.5453558E2,3.0341562E1,7.0016978E3,2.6887534E3,1.0440881E5,6.1867234E4,1.9493271E4,3.7363342E1,3.0797531E4,2.238389E2,2.2881212E1,3.3958737E2,3.675752E2,1.7709996E3,7.04158E2,2.9819531E4,6.071388E0,1.9266758E3,6.1073976E0,2.6957203E1,1.1757519E2,5.843175E3,7.6316765E1,3.1496542E2,9.615766E3,7.129053E0,1.0493235E2,6.531727E1,1.461611E4,3.5136206E2,3.6776367E3,2.2960237E2,2.6819016E2,4.6266037E2,4.3845818E1,2.696842E3,5.7061357E0,2.4635426E1,5.1864106E3,1.8152874E3,1.0039932E2,2.588354E3,1.0426126E5,1.4755292E2,5.854995E3,5.601224E4,9.317002E3,1.017627E4,2.8794655E1,8.5686865E0,3.0758686E4,3.884665E1,5.5539737E0,2.1828493E2,1.0768785E2,2.5988733E2,1.5796613E2,5.461919E2,3.730054E3,2.6089479E4,5.4457517E0,1.92123E3,3.384261E1,8.373258E1,1.937231E1,5.6944454E1,5.2151575E0,3.0975024E2],"tree_param":{"num_deleted":"0","num_feature":"23","num_nodes":"105","size_leaf_vector":"1"}},{"base_weights":[-3.7432447E-4,8.6642617E-1,-1.5731131E0,-1.2168802E0,1.1646835E0,-1.6182315E0,-7.9077995E-1,-1.329483E0,-3.5321733E-1,1.6055359E0,7.8687435E-1,-1.5384853E0,-1.629991E0,1.5612088E0,-1.5941597E0,-1.6067473E0,-1.187275E0,-1.156785E0,4.0894863E-1,1.6174637E0,-1.8246825E0,-1.5266063E0,1.5166128E0,-1.6145716E0,-1.5621182E-1,-1.6300547E0,-9.732716E-1,1.6186794E0,-1.2363086E0,-1.6256058E0,-1.135458E0,-1.6200057E0,-8.1351316E-1,-1.0579336E0,-1.6269171E0,-1.466672E0,1.3620696E0,8.632615E-1,-1.538637E0,1.6272546E0,2.1906083E-2,-8.349857E-2,-1.0146723E-1,-1.5608752E0,-1.1178737E0,1.59197E0,-1.6554755E0,-1.6333671E0,-1.499888E0,-8.159136E-2,9.303749E-1,-8.161479E-2,-1.6131715E0,-7.5016476E-2,-2.4097827E-3,1.6294693E0,-7.9359345E-2,5.173246E-2,-8.0552235E-2,-1.3095254E0,-8.161699E-2,6.3178366E-1,-1.6201053E0,-8.1370525E-2,-7.7998914E-2,-8.0906846E-2,8.3007514E-2,-6.627821E-2,-2.3600053E-2,-8.198469E-2,-5.895361E-2,-8.112986E-2,-4.6556536E-2,7.867893E-2,-7.5730704E-2,4.7686514E-2,-1.697324E-2,-8.072408E-2,3.8994122E-2,8.139819E-2,1.655642E-2,-8.590235E-2,2.839678E-2,-7.140213E-2,-8.146345E-2,-8.505801E-2,1.1617471E-1,8.012742E-2,-8.0091976E-2,-8.4264226E-2,7.1661994E-2,-8.1683666E-2,-4.664224E-2,8.860382E-2,-7.7354975E-2,8.6253844E-2,-9.784579E-2,-7.543125E-2,-8.124237E-2,5.009463E-2,8.154325E-2,-8.0163084E-2,-2.3519529E-2,7.457413E-2,-5.9699304E-2,-4.0093407E-2,-8.158921E-2],"categories":[],"categories_nodes":[],"categories_segments":[],"categories_sizes":[],"default_left":[0,0,0,0,0,0,0,0,0,0,0,0,0,0,0,0,0,0,0,0,0,0,0,0,0,0,0,0,0,0,0,0,0,0,0,0,0,0,0,0,0,0,0,0,0,0,0,0,0,0,0,0,0,0,0,0,0,0,0,0,0,0,0,0,0,0,0,0,0,0,0,0,0,0,0,0,0,0,0,0,0,0,0,0,0,0,0,0,0,0,0,0,0,0,0,0,0,0,0,0,0,0,0,0,0,0,0],"id":5,"left_children":[1,3,5,7,9,11,13,15,17,19,21,23,25,27,29,31,33,35,37,39,41,43,45,47,49,51,53,55,57,59,61,63,65,67,69,71,73,75,77,79,81,-1,-1,83,85,87,89,91,93,-1,95,-1,97,-1,-1,99,-1,-1,-1,101,-1,103,105,-1,-1,-1,-1,-1,-1,-1,-1,-1,-1,-1,-1,-1,-1,-1,-1,-1,-1,-1,-1,-1,-1,-1,-1,-1,-1,-1,-1,-1,-1,-1,-1,-1,-1,-1,-1,-1,-1,-1,-1,-1,-1,-1,-1],"loss_changes":[5.408137E5,1.5891644E5,4.974125E3,3.1144727E3,3.726178E4,1.2246875E2,1.4529032E4,1.1153281E3,2.263916E3,4.2272812E3,2.0339797E5,1.8028438E3,3.3125E0,3.1678027E2,8.082129E1,9.968164E1,1.0635098E3,1.4064229E3,1.6802208E3,1.6073125E3,7.9542236E0,4.0291406E2,2.1896016E4,3.2578125E1,1.4374521E3,1.71875E0,6.6326246E0,6.8964355E1,3.5689453E1,9.271484E0,3.1877643E2,1.65625E0,3.209109E2,2.2696318E3,2.2420898E1,1.3231592E2,1.2262756E2,1.6780225E2,6.443359E1,9.346875E1,5.9812134E2,0E0,0E0,2.398125E2,4.49701E3,3.0251562E3,1.9814307E2,1.46875E0,3.5809473E2,0E0,1.1882914E3,0E0,1.4265625E1,0E0,0E0,4.1503906E-2,0E0,0E0,0E0,2.8056854E1,0E0,1.2823541E2,1.4765015E0,0E0,0E0,0E0,0E0,0E0,0E0,0E0,0E0,0E0,0E0,0E0,0E0,0E0,0E0,0E0,0E0,0E0,0E0,0E0,0E0,0E0,0E0,0E0,0E0,0E0,0E0,0E0,0E0,0E0,0E0,0E0,0E0,0E0,0E0,0E0,0E0,0E0,0E0,0E0,0E0,0E0,0E0,0E0,0E0],"parents":[2147483647,0,0,1,1,2,2,3,3,4,4,5,5,6,6,7,7,8,8,9,9,10,10,11,11,12,12,13,13,14,14,15,15,16,16,17,17,18,18,19,19,20,20,21,21,22,22,23,23,24,24,25,25,26,26,27,27,28,28,29,29,30,30,31,31,32,32,33,33,34,34,35,35,36,36,37,37,38,38,39,39,40,40,43,43,44,44,45,45,46,46,47,47,48,48,50,50,52,52,55,55,59,59,61,61,62,62],"right_children":[2,4,6,8,10,12,14,16,18,20,22,24,26,28,30,32,34,36,38,40,42,44,46,48,50,52,54,56,58,60,62,64,66,68,70,72,74,76,78,80,82,-1,-1,84,86,88,90,92,94,-1,96,-1,98,-1,-1,100,-1,-1,-1,102,-1,104,106,-1,-1,-1,-1,-1,-1,-1,-1,-1,-1,-1,-1,-1,-1,-1,-1,-1,-1,-1,-1,-1,-1,-1,-1,-1,-1,-1,-1,-1,-1,-1,-1,-1,-1,-1,-1,-1,-1,-1,-1,-1,-1,-1,-1],"split_conditions":[1.4333333E1,6.7862254E-1,2.9E1,2.8423765E6,4E0,4.6E1,3.174E3,1E0,9.3E1,1E0,1.4E1,4.4E1,7.215E3,7.27728E5,1.7832E4,5E0,1.24E2,1.25E7,2.007186E6,2.9803333E3,6.008605E1,2.828427E0,1.4433757E1,1.18E2,5.1E1,8.5E1,3.6444E4,4.1E1,6.03E2,5.77E3,4.9138806E5,3.1876E4,4E0,6.6E1,3E0,7.4E1,7E0,1.68E2,1.53E7,2E0,2.5658803E5,-8.349857E-2,-1.0146723E-1,2E0,2E0,1E1,2.177345E3,2.78E7,4E0,-8.159136E-2,1.36E2,-8.161479E-2,9.3E1,-7.5016476E-2,-2.4097827E-3,3.2E2,-7.9359345E-2,5.173246E-2,-8.0552235E-2,3.6E1,-8.161699E-2,3.977929E3,5.914495E5,-8.1370525E-2,-7.7998914E-2,-8.0906846E-2,8.3007514E-2,-6.627821E-2,-2.3600053E-2,-8.198469E-2,-5.895361E-2,-8.112986E-2,-4.6556536E-2,7.867893E-2,-7.5730704E-2,4.7686514E-2,-1.697324E-2,-8.072408E-2,3.8994122E-2,8.139819E-2,1.655642E-2,-8.590235E-2,2.839678E-2,-7.140213E-2,-8.146345E-2,-8.505801E-2,1.1617471E-1,8.012742E-2,-8.0091976E-2,-8.4264226E-2,7.1661994E-2,-8.1683666E-2,-4.664224E-2,8.860382E-2,-7.7354975E-2,8.6253844E-2,-9.784579E-2,-7.543125E-2,-8.124237E-2,5.009463E-2,8.154325E-2,-8.0163084E-2,-2.3519529E-2,7.457413E-2,-5.9699304E-2,-4.0093407E-2,-8.158921E-2],"split_indices":[7,12,2,15,3,10,4,2,17,22,3,10,9,19,3,1,17,19,14,14,15,8,8,4,7,7,19,1,4,4,15,17,17,17,1,17,7,17,15,2,15,0,0,1,6,1,11,15,2,0,4,0,10,0,0,4,0,0,0,2,0,12,15,0,0,0,0,0,0,0,0,0,0,0,0,0,0,0,0,0,0,0,0,0,0,0,0,0,0,0,0,0,0,0,0,0,0,0,0,0,0,0,0,0,0,0,0],"split_type":[0,0,0,0,0,0,0,0,0,0,0,0,0,0,0,0,0,0,0,0,0,0,0,0,0,0,0,0,0,0,0,0,0,0,0,0,0,0,0,0,0,0,0,0,0,0,0,0,0,0,0,0,0,0,0,0,0,0,0,0,0,0,0,0,0,0,0,0,0,0,0,0,0,0,0,0,0,0,0,0,0,0,0,0,0,0,0,0,0,0,0,0,0,0,0,0,0,0,0,0,0,0,0,0,0,0,0],"sum_hessian":[3.967069E5,2.5575198E5,1.409549E5,3.2028947E4,2.2372305E5,1.3326803E5,7.6868716E3,2.833424E4,3.6947068E3,1.0324581E5,1.20477234E5,1.7143252E4,1.1612479E5,1.9568932E3,5.7299785E3,9.602283E3,1.8731957E4,1.798253E3,1.8964539E3,1.0288857E5,3.5724304E2,2.8889168E4,9.158806E4,1.6248687E4,8.945645E2,1.1611203E5,1.2751772E1,1.9179142E3,3.8979065E1,5.3599834E3,3.699948E2,9.4434E3,1.5888222E2,1.4476435E4,4.2555225E3,1.6016274E3,1.9662563E2,1.5381959E3,3.582579E2,1.0226104E5,6.275309E2,2.0866531E2,1.4857773E2,2.6651814E4,2.2373542E3,8.946324E4,2.124818E3,1.3949287E4,2.2994E3,3.7915692E2,5.154076E2,1.024206E5,1.369143E4,7.7273207E0,5.0244517E0,1.9119708E3,5.9433727E0,5.271566E0,3.3707497E1,1.1588776E2,5.2440957E3,7.956423E1,2.9043057E2,8.383178E3,1.0602233E3,1.2014709E2,3.873513E1,9.936551E3,4.5398833E3,4.1348955E3,1.2062737E2,1.2388896E3,3.6273773E2,1.8358078E2,1.3044832E1,1.4307802E3,1.0741587E2,3.4720364E2,1.1054244E1,1.0220486E5,5.617459E1,1.4937924E2,4.781516E2,9.06598E3,1.7585834E4,1.9135304E3,3.238237E2,8.916841E4,2.9484167E2,2.1049578E3,1.9860458E1,1.3941861E4,7.425721E0,3.2186718E1,2.2672131E3,4.0448038E2,1.10927216E2,1.3885447E3,1.2302885E4,5.8378434E0,1.9061329E3,8.516531E1,3.0722435E1,5.421782E1,2.534641E1,5.0673103E0,2.8536325E2],"tree_param":{"num_deleted":"0","num_feature":"23","num_nodes":"107","size_leaf_vector":"1"}},{"base_weights":[2.0141543E-4,8.4644186E-1,-1.5161648E0,-1.1671444E0,1.1391753E0,-1.5591881E0,-8.135882E-1,-1.2786299E0,-3.1120762E-1,1.3582357E0,3.7462676E-1,-1.0796247E0,-1.5681528E0,1.5174608E0,-1.540119E0,-1.5558085E0,-1.1378536E0,-1.1481389E0,3.7667614E-1,-5.9491694E-1,1.4752E0,-1.4811879E0,1.554264E0,1.3599148E0,-1.4980835E0,-1.4808558E0,-1.5801002E0,-1.347776E0,1.569378E0,-1.5744069E0,-1.0306852E0,-1.5722806E0,-6.276236E-1,-1.0108085E0,-1.5774862E0,-1.4964651E0,1.3347372E0,7.9015213E-1,-1.5130761E0,-1.4122711E0,1.5478864E0,1.0187964E0,1.5657647E0,-1.4862512E0,1.3443073E0,1.5787585E0,-1.710696E0,-8.118319E-2,7.901253E-2,-8.277836E-2,-5.306862E-1,-1.5617863E0,-1.377182E-1,-1.5801643E0,-8.396485E-1,-7.720795E-2,-8.135402E-3,7.901835E-2,-7.678585E-2,-1.1971569E0,-7.9095624E-2,7.540125E-1,-1.4941354E0,-7.864963E-2,-2.9497346E-2,-7.681566E-2,8.626245E-2,-5.36766E-2,7.452346E-2,-7.9219155E-2,-6.732606E-2,-8.080091E-2,-5.8580883E-2,2.0260584E-2,7.746412E-2,4.2104665E-2,-5.5878162E-2,-7.832535E-2,3.852853E-2,-7.9125665E-2,-4.6154063E-2,1.3430053E-2,8.03845E-2,7.871331E-2,-7.941816E-2,7.848354E-2,-8.206616E-2,-6.942126E-2,-7.864903E-2,-7.844119E-3,8.710433E-2,7.9174235E-2,-8.2724415E-2,-1.761851E-2,-8.7203644E-2,7.365702E-2,-7.8905754E-2,-7.8208715E-2,-2.3689223E-2,-7.927509E-2,4.4706788E-2,-7.913208E-2,-7.80774E-2,-7.078211E-2,-1.596514E-3,-7.894949E-2,-1.6253116E-2,-7.7482164E-2,7.5944185E-2,7.822668E-2,-7.9204984E-2],"categories":[],"categories_nodes":[],"categories_segments":[],"categories_sizes":[],"default_left":[0,0,0,0,0,0,0,0,0,0,0,0,0,0,0,0,0,0,0,0,0,0,0,0,0,0,0,0,0,0,0,0,0,0,0,0,0,0,0,0,0,0,0,0,0,0,0,0,0,0,0,0,0,0,0,0,0,0,0,0,0,0,0,0,0,0,0,0,0,0,0,0,0,0,0,0,0,0,0,0,0,0,0,0,0,0,0,0,0,0,0,0,0,0,0,0,0,0,0,0,0,0,0,0,0,0,0,0,0,0,0],"id":6,"left_children":[1,3,5,7,9,11,13,15,17,19,21,23,25,27,29,31,33,35,37,39,41,43,45,47,49,51,53,55,57,59,61,63,65,67,69,71,73,75,77,79,81,83,85,87,89,91,93,-1,-1,-1,95,97,99,101,103,-1,-1,-1,-1,105,-1,107,109,-1,-1,-1,-1,-1,-1,-1,-1,-1,-1,-1,-1,-1,-1,-1,-1,-1,-1,-1,-1,-1,-1,-1,-1,-1,-1,-1,-1,-1,-1,-1,-1,-1,-1,-1,-1,-1,-1,-1,-1,-1,-1,-1,-1,-1,-1,-1,-1],"loss_changes":[4.9982553E5,1.4735998E5,4.215875E3,3.027586E3,3.6555094E4,5.635E2,1.3639991E4,1.0936992E3,2.1064248E3,3.8758406E4,1.0642197E5,2.4679949E3,1.3221875E2,2.8682178E2,1.0562109E2,1.4354883E2,1.0385156E3,1.4294316E3,1.5706278E3,1.6792154E4,6.6147188E3,2.7226953E2,2.3795547E3,2.3541858E2,3.1332568E2,1.6902422E3,4.0625E0,7.801239E0,6.6586914E1,1.4388672E1,3.2376065E2,5.5703125E0,3.5864148E2,2.2686475E3,4.513672E0,5.4338135E1,3.997342E1,1.6430408E2,4.524597E1,5.765049E2,2.0211523E2,3.8389156E4,1.6757188E3,1.5782031E2,2.0766357E1,4.5340625E2,9.440674E0,0E0,0E0,0E0,6.114306E2,3.736328E1,1.3233619E3,2.78125E0,5.5218897E0,0E0,0E0,0E0,0E0,3.8210175E1,0E0,1.4521065E2,8.777954E1,0E0,0E0,0E0,0E0,0E0,0E0,0E0,0E0,0E0,0E0,0E0,0E0,0E0,0E0,0E0,0E0,0E0,0E0,0E0,0E0,0E0,0E0,0E0,0E0,0E0,0E0,0E0,0E0,0E0,0E0,0E0,0E0,0E0,0E0,0E0,0E0,0E0,0E0,0E0,0E0,0E0,0E0,0E0,0E0,0E0,0E0,0E0,0E0],"parents":[2147483647,0,0,1,1,2,2,3,3,4,4,5,5,6,6,7,7,8,8,9,9,10,10,11,11,12,12,13,13,14,14,15,15,16,16,17,17,18,18,19,19,20,20,21,21,22,22,23,23,24,24,25,25,26,26,27,27,28,28,29,29,30,30,31,31,32,32,33,33,34,34,35,35,36,36,37,37,38,38,39,39,40,40,41,41,42,42,43,43,44,44,45,45,46,46,50,50,51,51,52,52,53,53,54,54,59,59,61,61,62,62],"right_children":[2,4,6,8,10,12,14,16,18,20,22,24,26,28,30,32,34,36,38,40,42,44,46,48,50,52,54,56,58,60,62,64,66,68,70,72,74,76,78,80,82,84,86,88,90,92,94,-1,-1,-1,96,98,100,102,104,-1,-1,-1,-1,106,-1,108,110,-1,-1,-1,-1,-1,-1,-1,-1,-1,-1,-1,-1,-1,-1,-1,-1,-1,-1,-1,-1,-1,-1,-1,-1,-1,-1,-1,-1,-1,-1,-1,-1,-1,-1,-1,-1,-1,-1,-1,-1,-1,-1,-1,-1,-1,-1,-1,-1],"split_conditions":[2.7E1,6.7862254E-1,2.9E1,2.8423765E6,6E0,1.4333333E1,3.174E3,1E0,8.9E1,6E0,4E0,3.1E1,4.6E1,2.4530938E0,1.7832E4,5E0,4.93E2,6.020082E6,2.007186E6,8.485281E0,3.9E1,1.2386875E3,1E0,1E1,1.454975E1,4.4E1,7.215E3,3.025E2,4.1E1,5.77E3,6.21E2,6.363961E0,4.8E1,5.22E2,1.9968135E6,6.8E1,5E0,1.92E2,2.21E7,4E0,2E0,1.2E1,9.78E2,2E0,6.6225166E3,3.7E1,1.3E1,-8.118319E-2,7.901253E-2,-8.277836E-2,1E1,2E1,9.473831E1,8.5E1,5.36E2,-7.720795E-2,-8.135402E-3,7.901835E-2,-7.678585E-2,6.21E2,-7.9095624E-2,2E0,6.2222223E0,-7.864963E-2,-2.9497346E-2,-7.681566E-2,8.626245E-2,-5.36766E-2,7.452346E-2,-7.9219155E-2,-6.732606E-2,-8.080091E-2,-5.8580883E-2,2.0260584E-2,7.746412E-2,4.2104665E-2,-5.5878162E-2,-7.832535E-2,3.852853E-2,-7.9125665E-2,-4.6154063E-2,1.3430053E-2,8.03845E-2,7.871331E-2,-7.941816E-2,7.848354E-2,-8.206616E-2,-6.942126E-2,-7.864903E-2,-7.844119E-3,8.710433E-2,7.9174235E-2,-8.2724415E-2,-1.761851E-2,-8.7203644E-2,7.365702E-2,-7.8905754E-2,-7.8208715E-2,-2.3689223E-2,-7.927509E-2,4.4706788E-2,-7.913208E-2,-7.80774E-2,-7.078211E-2,-1.596514E-3,-7.894949E-2,-1.6253116E-2,-7.7482164E-2,7.5944185E-2,7.822668E-2,-7.9204984E-2],"split_indices":[5,12,2,15,6,7,4,2,17,10,1,5,10,13,3,1,14,14,14,8,14,10,2,2,11,10,9,7,1,4,5,8,17,18,15,17,17,17,15,7,17,4,17,1,13,3,18,0,0,0,1,2,8,7,5,0,0,0,0,5,0,17,10,0,0,0,0,0,0,0,0,0,0,0,0,0,0,0,0,0,0,0,0,0,0,0,0,0,0,0,0,0,0,0,0,0,0,0,0,0,0,0,0,0,0,0,0,0,0,0,0],"split_type":[0,0,0,0,0,0,0,0,0,0,0,0,0,0,0,0,0,0,0,0,0,0,0,0,0,0,0,0,0,0,0,0,0,0,0,0,0,0,0,0,0,0,0,0,0,0,0,0,0,0,0,0,0,0,0,0,0,0,0,0,0,0,0,0,0,0,0,0,0,0,0,0,0,0,0,0,0,0,0,0,0,0,0,0,0,0,0,0,0,0,0,0,0,0,0,0,0,0,0,0,0,0,0,0,0,0,0,0,0,0,0],"sum_hessian":[3.8950972E5,2.4999508E5,1.3951464E5,3.1730652E4,2.1826444E5,1.3146308E5,8.0515645E3,2.8073582E4,3.6570696E3,1.6965395E5,4.8610477E4,2.4145996E3,1.2904848E5,1.9129243E3,6.13864E3,9.452406E3,1.8621178E4,1.6494976E3,2.007572E3,9.585438E3,1.6006852E5,1.8890902E4,2.9719576E4,3.5320847E2,2.061391E3,1.5550459E4,1.13498016E5,3.360051E1,1.8793239E3,5.7495703E3,3.8906995E2,9.286901E3,1.6550415E2,1.4449E4,4.172177E3,1.4469062E3,2.0259125E2,1.6476497E3,3.599223E2,6.9389683E3,2.64647E3,2.650549E4,1.3356303E5,1.8857584E4,3.331857E1,2.9498785E4,2.2079028E2,2.3852427E1,3.2935605E2,1.7721841E3,2.892071E2,1.4666564E4,8.8389417E2,1.13487055E5,1.0966051E1,2.8564024E1,5.0364876E0,1.8731857E3,6.1381817E0,1.15288574E2,5.6342817E3,8.007657E1,3.0899338E2,9.279573E3,7.328061E0,1.1964413E2,4.586003E1,1.4096089E4,3.5291122E2,4.0455103E3,1.2666664E2,1.0547526E3,3.9215372E2,3.8533222E1,1.6405803E2,1.6045221E3,4.3127537E1,3.5200052E2,7.9218082E0,5.145912E3,1.7930564E3,1.184363E2,2.5280337E3,2.1850514E4,4.6549766E3,1.3340106E5,1.619632E2,8.869865E3,9.987719E3,7.1061354E0,2.6212435E1,2.9456238E4,4.2547554E1,5.5723305E0,2.1521796E2,9.9138916E1,1.9006818E2,1.4634008E4,3.255722E1,3.6759244E2,5.163017E2,1.0008478E5,1.34022705E4,5.9619026E0,5.0041485E0,7.961836E1,3.567021E1,1.9704403E1,6.037217E1,8.360386E0,3.00633E2],"tree_param":{"num_deleted":"0","num_feature":"23","num_nodes":"111","size_leaf_vector":"1"}},{"base_weights":[-5.7481223E-4,8.208029E-1,-1.472412E0,-1.1323056E0,1.1055237E0,-1.514259E0,-7.889933E-1,-1.2400361E0,-3.0984935E-1,1.5119563E0,7.54187E-1,-1.0220779E0,-1.5235623E0,1.4693633E0,-1.5036393E0,-1.5131238E0,-1.1013923E0,-1.0675296E0,3.7455E-1,1.5233546E0,-1.7547042E0,-1.431794E0,1.4567151E0,1.3386179E0,-1.4347259E0,-1.4350606E0,-1.5356764E0,-1.236246E0,1.5240594E0,7.560413E-2,-1.5080571E0,-1.525808E0,-7.949361E-1,-9.7901994E-1,-1.5308526E0,-1.3491429E0,1.4774692E0,7.9982734E-1,-1.4301893E0,3.504222E-2,1.5328466E0,-7.904091E-2,-1.9880178E0,-1.5333315E0,-1.3581682E0,1.5107094E0,-7.747357E-2,-7.789184E-2,7.679934E-2,-6.550887E-1,-8.038651E-2,-1.5154902E0,-1.3379055E-1,-1.5357424E0,-2.6415521E-2,6.0661077E-3,-7.5507894E-2,-7.56422E-2,1.5360432E0,-1.5322181E0,-1.1309823E0,-7.693266E-2,-7.492382E-2,-7.462066E-2,7.67571E-2,-2.732916E-2,-6.59862E-2,-7.723272E-2,-5.17112E-2,-7.62683E-2,-4.7946587E-2,4.8301127E-2,7.714666E-2,4.2988922E-2,-7.548254E-2,-7.3156856E-2,3.2557793E-2,-8.09018E-2,2.5735592E-2,7.6678716E-2,1.650146E-2,-7.071987E-2,-1.0168654E-1,-7.677241E-2,1.06791794E-1,-5.8304936E-2,-7.790174E-2,7.5764865E-2,-8.367941E-2,6.7771606E-2,-7.670924E-2,-7.695904E-2,-6.939159E-2,-7.7022575E-2,4.2772155E-2,-7.691635E-2,-7.581448E-2,4.6568815E-2,7.6870695E-2,-6.286593E-2,-7.687869E-2,3.396338E-2,-7.6958515E-2],"categories":[],"categories_nodes":[],"categories_segments":[],"categories_sizes":[],"default_left":[0,0,0,0,0,0,0,0,0,0,0,0,0,0,0,0,0,0,0,0,0,0,0,0,0,0,0,0,0,0,0,0,0,0,0,0,0,0,0,0,0,0,0,0,0,0,0,0,0,0,0,0,0,0,0,0,0,0,0,0,0,0,0,0,0,0,0,0,0,0,0,0,0,0,0,0,0,0,0,0,0,0,0,0,0,0,0,0,0,0,0,0,0,0,0,0,0,0,0,0,0,0,0],"id":7,"left_children":[1,3,5,7,9,11,13,15,17,19,21,23,25,27,29,31,33,35,37,39,41,43,45,47,49,51,53,55,57,-1,59,61,63,65,67,69,71,73,75,77,79,-1,81,83,85,87,-1,-1,-1,89,-1,91,93,95,-1,-1,-1,-1,97,99,101,-1,-1,-1,-1,-1,-1,-1,-1,-1,-1,-1,-1,-1,-1,-1,-1,-1,-1,-1,-1,-1,-1,-1,-1,-1,-1,-1,-1,-1,-1,-1,-1,-1,-1,-1,-1,-1,-1,-1,-1,-1,-1],"loss_changes":[4.6079528E5,1.3604103E5,3.90325E3,2.7574688E3,3.0487125E4,5.8746875E2,1.2718756E4,1.0403125E3,1.8704104E3,3.688625E3,1.7587134E5,2.3297012E3,1.3315625E2,2.822456E2,8.202734E1,8.318164E1,9.579883E2,1.2287986E3,1.4559382E3,1.3935469E3,1.084082E1,2.0614062E2,1.4069906E4,2.0594464E2,2.7336377E2,1.5923438E3,6.59375E0,1.4347996E1,6.9921875E1,0E0,5.2726562E1,8.925781E-1,2.6698532E2,2.0930664E3,2.6141602E1,1.0455176E2,4.235321E0,2.1377563E2,2.5765808E1,4.9735248E2,8.53125E1,0E0,8.812866E-1,9.413867E1,6.183301E2,1.2463594E3,0E0,0E0,0E0,6.580942E2,0E0,4.1203125E1,1.2353787E3,3.234375E0,0E0,0E0,0E0,0E0,1.015625E-1,6.3320312E0,2.6983752E2,0E0,0E0,0E0,0E0,0E0,0E0,0E0,0E0,0E0,0E0,0E0,0E0,0E0,0E0,0E0,0E0,0E0,0E0,0E0,0E0,0E0,0E0,0E0,0E0,0E0,0E0,0E0,0E0,0E0,0E0,0E0,0E0,0E0,0E0,0E0,0E0,0E0,0E0,0E0,0E0,0E0,0E0],"parents":[2147483647,0,0,1,1,2,2,3,3,4,4,5,5,6,6,7,7,8,8,9,9,10,10,11,11,12,12,13,13,14,14,15,15,16,16,17,17,18,18,19,19,20,20,21,21,22,22,23,23,24,24,25,25,26,26,27,27,28,28,30,30,31,31,32,32,33,33,34,34,35,35,36,36,37,37,38,38,39,39,40,40,42,42,43,43,44,44,45,45,49,49,51,51,52,52,53,53,58,58,59,59,60,60],"right_children":[2,4,6,8,10,12,14,16,18,20,22,24,26,28,30,32,34,36,38,40,42,44,46,48,50,52,54,56,58,-1,60,62,64,66,68,70,72,74,76,78,80,-1,82,84,86,88,-1,-1,-1,90,-1,92,94,96,-1,-1,-1,-1,98,100,102,-1,-1,-1,-1,-1,-1,-1,-1,-1,-1,-1,-1,-1,-1,-1,-1,-1,-1,-1,-1,-1,-1,-1,-1,-1,-1,-1,-1,-1,-1,-1,-1,-1,-1,-1,-1,-1,-1,-1,-1,-1,-1],"split_conditions":[2.7E1,6.7862254E-1,2.9E1,2.8423765E6,4E0,1.4333333E1,3.174E3,1E0,9.3E1,1E0,1.4E1,3.1E1,4.6E1,2.4530938E0,6.2222223E0,5E0,1.24E2,1.25E7,1.92E2,4.014452E2,6.008605E1,1E0,1.4333333E1,1E1,1E0,4.4E1,7.3E3,1.7666666E1,4.613E4,7.560413E-2,1.7832E4,2.51E2,4E0,3.0303031E4,3E0,6.8E1,6E0,5.995397E6,2.21E7,2.5658803E5,1.2E1,-7.904091E-2,6E0,3.7400425E5,2E0,2.162E4,-7.747357E-2,-7.789184E-2,7.679934E-2,1E1,-8.038651E-2,8.9E1,5.1E1,8.5E1,-2.6415521E-2,6.0661077E-3,-7.5507894E-2,-7.56422E-2,3.04E2,5.77E3,6.21E2,-7.693266E-2,-7.492382E-2,-7.462066E-2,7.67571E-2,-2.732916E-2,-6.59862E-2,-7.723272E-2,-5.17112E-2,-7.62683E-2,-4.7946587E-2,4.8301127E-2,7.714666E-2,4.2988922E-2,-7.548254E-2,-7.3156856E-2,3.2557793E-2,-8.09018E-2,2.5735592E-2,7.6678716E-2,1.650146E-2,-7.071987E-2,-1.0168654E-1,-7.677241E-2,1.06791794E-1,-5.8304936E-2,-7.790174E-2,7.5764865E-2,-8.367941E-2,6.7771606E-2,-7.670924E-2,-7.695904E-2,-6.939159E-2,-7.7022575E-2,4.2772155E-2,-7.691635E-2,-7.581448E-2,4.6568815E-2,7.6870695E-2,-6.286593E-2,-7.687869E-2,3.396338E-2,-7.6958515E-2],"split_indices":[5,12,2,15,3,7,4,2,17,22,3,5,10,13,10,1,17,19,17,13,15,2,7,2,22,10,9,10,16,0,3,17,17,13,1,17,4,18,15,15,4,0,10,15,2,17,0,0,0,1,0,4,7,7,0,0,0,0,4,4,5,0,0,0,0,0,0,0,0,0,0,0,0,0,0,0,0,0,0,0,0,0,0,0,0,0,0,0,0,0,0,0,0,0,0,0,0,0,0,0,0,0,0],"split_type":[0,0,0,0,0,0,0,0,0,0,0,0,0,0,0,0,0,0,0,0,0,0,0,0,0,0,0,0,0,0,0,0,0,0,0,0,0,0,0,0,0,0,0,0,0,0,0,0,0,0,0,0,0,0,0,0,0,0,0,0,0,0,0,0,0,0,0,0,0,0,0,0,0,0,0,0,0,0,0,0,0,0,0,0,0,0,0,0,0,0,0,0,0,0,0,0,0,0,0,0,0,0,0],"sum_hessian":[3.8115628E5,2.4463498E5,1.3652128E5,3.1124723E4,2.1351027E5,1.2864301E5,7.8782646E3,2.7519533E4,3.6051892E3,9.899166E4,1.1451862E5,2.3885845E3,1.2625442E5,1.8935118E3,5.9847524E3,9.263412E3,1.8256121E4,1.7107283E3,1.894461E3,9.864798E4,3.436783E2,2.7852365E4,8.666625E4,3.5506537E2,2.033519E3,1.5215287E4,1.1103914E5,3.7092304E1,1.8564196E3,8.255178E0,5.9764976E3,9.101541E3,1.6187115E2,1.4210264E4,4.0458574E3,1.5407126E3,1.7001556E2,1.5336267E3,3.608343E2,6.251823E2,9.80228E4,2.013728E2,1.4230553E2,1.1698763E4,1.6153603E4,8.5137586E4,1.5286653E3,2.2211468E1,3.3285388E2,3.7016638E2,1.6633527E3,1.432944E4,8.8584625E2,1.1103133E5,7.809577E0,6.321017E0,3.0771288E1,6.8044577E0,1.8496151E3,5.613735E3,3.6276224E2,6.1539976E3,2.947543E3,1.2485655E2,3.7014595E1,6.26326E3,7.9470044E3,3.9344062E3,1.1145117E2,1.0593783E3,4.813344E2,2.1080168E1,1.489354E2,1.4954349E3,3.8191837E1,3.5550366E2,5.330616E0,1.4007404E2,4.851083E2,9.796324E4,5.9550846E1,1.2861105E1,1.2944441E2,1.16926E4,6.1631274E0,8.240963E3,7.9126396E3,8.501562E4,1.2196436E2,1.1244933E2,2.5771704E2,1.2077149E4,2.2522913E3,3.6552432E2,5.2032196E2,9.794063E4,1.3090695E4,5.7222056E0,1.843893E3,1.1178156E2,5.5019536E3,6.6625305E1,2.9613693E2],"tree_param":{"num_deleted":"0","num_feature":"23","num_nodes":"103","size_leaf_vector":"1"}},{"base_weights":[-3.6342052E-4,7.9122275E-1,-1.442579E0,-1.0904039E0,1.066699E0,-1.4842647E0,-7.2199035E-1,-1.192955E0,-3.1695563E-1,1.125891E0,-7.193198E-1,-1.4066322E0,-1.4957424E0,1.4360788E0,-1.4565351E0,-1.469231E0,-1.055205E0,-2.023986E-1,-7.518979E-2,1.2881271E0,7.3882276E-1,-1.1156598E0,7.662599E-1,-1.4789652E0,-1.3458318E-1,-1.4958416E0,-6.059104E-1,1.4857918E0,-1.178485E0,7.0198566E-2,-1.4600289E0,-1.4837139E0,-1.2953721E0,-9.286227E-1,-1.4970005E0,-2.8068134E-1,1.4711962E0,-1.2556041E0,1.3732355E0,-9.045803E-1,1.4434012E0,-7.568722E-2,1.2372457E0,1.2875718E0,-9.4489413E-1,-1.4802216E0,3.0351195E-2,-7.5153E-2,8.1610566E-1,-7.492297E-2,-1.4761115E0,-7.042383E-2,3.196266E-2,-7.279923E-2,7.486125E-2,6.694765E-3,-7.370405E-2,-1.4890444E0,-1.1628377E0,-7.422621E-2,-2.1158468E-2,-3.303144E-2,-7.503961E-2,4.7135018E-2,-5.0432008E-2,-7.5270005E-2,-6.850818E-2,-9.071146E-3,-5.712388E-2,7.445431E-2,4.292574E-2,-7.550947E-2,-4.552899E-2,6.9369815E-2,-7.493114E-2,-5.8100272E-2,6.87989E-2,7.321157E-2,-8.21958E-2,-7.259597E-3,7.444945E-2,7.3576465E-2,-7.4468546E-2,-4.1687876E-2,-7.448296E-2,-7.4979834E-2,-6.8314694E-2,8.0456264E-2,-9.64294E-2,-6.7532174E-2,-7.451625E-2,-5.1923174E-2,-7.4940935E-2,4.2803828E-2,-7.513175E-2],"categories":[],"categories_nodes":[],"categories_segments":[],"categories_sizes":[],"default_left":[0,0,0,0,0,0,0,0,0,0,0,0,0,0,0,0,0,0,0,0,0,0,0,0,0,0,0,0,0,0,0,0,0,0,0,0,0,0,0,0,0,0,0,0,0,0,0,0,0,0,0,0,0,0,0,0,0,0,0,0,0,0,0,0,0,0,0,0,0,0,0,0,0,0,0,0,0,0,0,0,0,0,0,0,0,0,0,0,0,0,0,0,0,0,0],"id":8,"left_children":[1,3,5,7,9,11,13,15,17,19,21,23,25,27,29,31,33,35,-1,37,39,41,43,45,47,49,51,53,55,-1,57,59,61,63,65,67,69,71,73,75,77,-1,79,81,83,85,-1,-1,87,-1,89,-1,-1,-1,-1,-1,-1,91,93,-1,-1,-1,-1,-1,-1,-1,-1,-1,-1,-1,-1,-1,-1,-1,-1,-1,-1,-1,-1,-1,-1,-1,-1,-1,-1,-1,-1,-1,-1,-1,-1,-1,-1,-1,-1],"loss_changes":[4.2519294E5,1.2464211E5,3.9634062E3,2.4353828E3,2.2175406E4,1.0909375E2,1.1446347E4,1.0303047E3,4.88661E2,1.2748266E4,3.9629695E3,1.4799551E3,8.65625E0,2.4010352E2,5.5882812E1,2.078711E1,1.0106074E3,4.3026193E2,0E0,3.0973219E4,6.943537E4,4.977766E3,1.265948E3,4.0789062E1,1.1287048E3,3.421875E0,1.4671494E1,6.2721436E1,1.3687645E1,0E0,4.4666016E1,6.5195312E0,9.045776E1,2.1075664E3,2.2294922E0,2.6797775E2,3.3032227E-1,4.0549854E2,5.631672E3,1.0565898E4,2.7015547E3,0E0,2.6794287E2,5.575448E2,1.8837189E1,3.153125E1,0E0,0E0,1.1175669E3,0E0,2.080664E1,0E0,0E0,0E0,0E0,0E0,0E0,2.0017578E1,3.3274243E2,0E0,0E0,0E0,0E0,0E0,0E0,0E0,0E0,0E0,0E0,0E0,0E0,0E0,0E0,0E0,0E0,0E0,0E0,0E0,0E0,0E0,0E0,0E0,0E0,0E0,0E0,0E0,0E0,0E0,0E0,0E0,0E0,0E0,0E0,0E0,0E0],"parents":[2147483647,0,0,1,1,2,2,3,3,4,4,5,5,6,6,7,7,8,8,9,9,10,10,11,11,12,12,13,13,14,14,15,15,16,16,17,17,19,19,20,20,21,21,22,22,23,23,24,24,25,25,26,26,27,27,28,28,30,30,31,31,32,32,33,33,34,34,35,35,36,36,37,37,38,38,39,39,40,40,42,42,43,43,44,44,45,45,48,48,50,50,57,57,58,58],"right_children":[2,4,6,8,10,12,14,16,18,20,22,24,26,28,30,32,34,36,-1,38,40,42,44,46,48,50,52,54,56,-1,58,60,62,64,66,68,70,72,74,76,78,-1,80,82,84,86,-1,-1,88,-1,90,-1,-1,-1,-1,-1,-1,92,94,-1,-1,-1,-1,-1,-1,-1,-1,-1,-1,-1,-1,-1,-1,-1,-1,-1,-1,-1,-1,-1,-1,-1,-1,-1,-1,-1,-1,-1,-1,-1,-1,-1,-1,-1,-1],"split_conditions":[1.4333333E1,6.7862254E-1,2.9E1,2.8423765E6,5E5,4.6E1,3.174E3,1E0,3E0,1E0,5E0,4.4E1,7.215E3,7.807326E5,6.2222223E0,3.4294678E2,4.93E2,1.2E1,-7.518979E-2,5E0,2.65246E5,1E0,1E0,2.6E1,9.473831E1,8.5E1,7.8111115E1,4.613E4,1.7666666E1,7.0198566E-2,1.995E2,6.363961E0,5.212E3,1E0,1.560243E6,5.995397E6,1.1151992E8,7.0710677E-1,1.6E1,1E0,2.013991E6,-7.568722E-2,2E0,2E0,2E0,8.9E1,3.0351195E-2,-7.5153E-2,1.36E2,-7.492297E-2,9.3E1,-7.042383E-2,3.196266E-2,-7.279923E-2,7.486125E-2,6.694765E-3,-7.370405E-2,5.77E3,2.5403412E2,-7.422621E-2,-2.1158468E-2,-3.303144E-2,-7.503961E-2,4.7135018E-2,-5.0432008E-2,-7.5270005E-2,-6.850818E-2,-9.071146E-3,-5.712388E-2,7.445431E-2,4.292574E-2,-7.550947E-2,-4.552899E-2,6.9369815E-2,-7.493114E-2,-5.8100272E-2,6.87989E-2,7.321157E-2,-8.21958E-2,-7.259597E-3,7.444945E-2,7.3576465E-2,-7.4468546E-2,-4.1687876E-2,-7.448296E-2,-7.4979834E-2,-6.8314694E-2,8.0456264E-2,-9.64294E-2,-6.7532174E-2,-7.451625E-2,-5.1923174E-2,-7.4940935E-2,4.2803828E-2,-7.513175E-2],"split_indices":[7,12,2,15,13,10,4,2,2,22,10,10,9,19,10,15,14,4,0,10,18,21,22,2,8,7,7,16,10,0,7,8,14,22,18,18,0,8,2,21,20,0,16,2,2,4,0,0,4,0,10,0,0,0,0,0,0,4,8,0,0,0,0,0,0,0,0,0,0,0,0,0,0,0,0,0,0,0,0,0,0,0,0,0,0,0,0,0,0,0,0,0,0,0,0],"split_type":[0,0,0,0,0,0,0,0,0,0,0,0,0,0,0,0,0,0,0,0,0,0,0,0,0,0,0,0,0,0,0,0,0,0,0,0,0,0,0,0,0,0,0,0,0,0,0,0,0,0,0,0,0,0,0,0,0,0,0,0,0,0,0,0,0,0,0,0,0,0,0,0,0,0,0,0,0,0,0,0,0,0,0,0,0,0,0,0,0,0,0,0,0,0,0],"sum_hessian":[3.7243916E5,2.404592E5,1.3197994E5,3.0707848E4,2.0975136E5,1.2476149E5,7.218446E3,2.7112479E4,3.595369E3,2.0302317E5,6.7281953E3,1.6085699E4,1.0867579E5,1.8327957E3,5.3856504E3,9.017338E3,1.809514E4,3.2799497E3,3.1541907E2,1.4305898E5,5.9964176E4,5.3114062E3,1.416789E3,1.5220072E4,8.6562714E2,1.08663016E5,1.2780407E1,1.799021E3,3.3774635E1,6.0808816E0,5.3795693E3,8.31698E3,7.003572E2,1.4067619E4,4.027522E3,3.1341802E3,1.4576964E2,4.6310786E3,1.384279E5,1.7993867E4,4.197031E4,4.5431196E3,7.682869E2,1.0861388E3,3.306502E2,1.52112E4,8.871777E0,3.5460583E2,5.110213E2,9.586757E4,1.2795441E4,7.6916327E0,5.088774E0,6.47564E0,1.7925454E3,6.3093867E0,2.7465248E1,4.8974126E3,4.821568E2,8.310231E3,6.7487326E0,1.7226828E2,5.280889E2,5.7642065E2,1.3491198E4,3.767177E3,2.6034497E2,2.8115652E3,3.226149E2,1.4024413E2,5.5255203E0,2.6628486E3,1.9682297E3,1.377492E5,6.787106E2,1.6169208E4,1.8246593E3,4.1689555E4,2.807542E2,1.1841871E2,6.498682E2,1.01909906E3,6.703971E1,2.7672626E2,5.3923965E1,1.2989925E4,2.2212751E3,3.9679092E2,1.14230385E2,1.3117798E3,1.1483661E4,1.06258705E2,4.791154E3,6.924089E1,4.129159E2],"tree_param":{"num_deleted":"0","num_feature":"23","num_nodes":"95","size_leaf_vector":"1"}},{"base_weights":[-1.8730923E-3,4.1075477E-1,-7.314251E-2,5.7631636E-1,-1.2485375E0,-1.0539607E0,7.905221E-1,-4.035691E-1,-1.4483255E0,-1.1549861E0,-2.0115107E-1,1.2259054E0,4.378722E-1,-1.4605019E0,1.3771981E0,-1.4556189E0,-1.1959069E0,-1.436527E0,-1.0189179E0,-2.7768514E-1,1.334332E0,1.4525086E0,-1.264217E0,-1.1497245E0,8.555064E-1,-1.464504E0,3.1216675E-2,1.4472078E0,-1.0656772E0,-1.4564902E0,-8.9104104E-1,1.135387E0,-7.313838E-2,-7.258332E-2,1.4255583E-2,-4.49786E-2,-7.104288E-2,-5.6310263E-3,-6.3621156E-2,-7.031522E-2,7.233475E-2,7.293665E-2,-7.301047E-2,-4.895014E-2,-7.0622735E-2,-7.012837E-2,-2.068006E-2,1.4191113E-2,7.337105E-2,-7.34614E-2,-2.510943E-2,7.301488E-2,1.6883012E-3,6.2307585E-2,-7.370793E-2,-7.041618E-2,-7.313871E-2,4.9787052E-2,-6.661198E-2,7.278682E-2,-6.373831E-2],"categories":[],"categories_nodes":[],"categories_segments":[],"categories_sizes":[],"default_left":[0,0,0,0,0,0,0,0,0,0,0,0,0,0,0,0,0,0,0,0,0,0,0,0,0,0,0,0,0,0,0,0,0,0,0,0,0,0,0,0,0,0,0,0,0,0,0,0,0,0,0,0,0,0,0,0,0,0,0,0,0],"id":9,"left_children":[1,3,-1,5,7,9,11,13,15,17,19,21,23,25,27,29,31,33,35,37,39,41,43,45,47,49,-1,51,53,55,57,59,-1,-1,-1,-1,-1,-1,-1,-1,-1,-1,-1,-1,-1,-1,-1,-1,-1,-1,-1,-1,-1,-1,-1,-1,-1,-1,-1,-1,-1],"loss_changes":[2.194076E5,7.796533E4,0E0,9.011717E4,4.3461367E3,2.5817695E3,3.501933E4,9.272083E3,3.6597656E1,1.0250117E3,3.7353156E2,5.759653E4,8.355509E4,2.6706055E1,3.1536963E2,8.65625E0,3.6896637E2,2.2790039E2,8.654258E2,4.966245E2,4.8513E1,1.6982656E3,3.585918E2,4.884496E3,3.49021E4,1.3289551E1,0E0,3.2963135E1,5.06584E1,4.0546875E0,2.9427738E1,4.9110703E1,0E0,0E0,0E0,0E0,0E0,0E0,0E0,0E0,0E0,0E0,0E0,0E0,0E0,0E0,0E0,0E0,0E0,0E0,0E0,0E0,0E0,0E0,0E0,0E0,0E0,0E0,0E0,0E0,0E0],"parents":[2147483647,0,0,1,1,3,3,4,4,5,5,6,6,7,7,8,8,9,9,10,10,11,11,12,12,13,13,14,14,15,15,16,16,17,17,18,18,19,19,20,20,21,21,22,22,23,23,24,24,25,25,27,27,28,28,29,29,30,30,31,31],"right_children":[2,4,-1,6,8,10,12,14,16,18,20,22,24,26,28,30,32,34,36,38,40,42,44,46,48,50,-1,52,54,56,58,60,-1,-1,-1,-1,-1,-1,-1,-1,-1,-1,-1,-1,-1,-1,-1,-1,-1,-1,-1,-1,-1,-1,-1,-1,-1,-1,-1,-1,-1],"split_conditions":[2.3E1,1E1,-7.314251E-2,6.7862254E-1,8.9E1,2.9170828E6,2E0,2.9E1,1.38E2,1E0,6E0,1E0,2.3531948E3,8.14E7,1.0989844E6,7.215E3,1.53E2,5E0,4.93E2,2.007186E6,1.12E7,4.36E2,5.2E1,1E0,1.6460286E3,2.6E1,3.1216675E-2,4.1E1,1.7666666E1,1.032E3,1.3336316E3,4.9138806E5,-7.313838E-2,-7.258332E-2,1.4255583E-2,-4.49786E-2,-7.104288E-2,-5.6310263E-3,-6.3621156E-2,-7.031522E-2,7.233475E-2,7.293665E-2,-7.301047E-2,-4.895014E-2,-7.0622735E-2,-7.012837E-2,-2.068006E-2,1.4191113E-2,7.337105E-2,-7.34614E-2,-2.510943E-2,7.301488E-2,1.6883012E-3,6.2307585E-2,-7.370793E-2,-7.041618E-2,-7.313871E-2,4.9787052E-2,-6.661198E-2,7.278682E-2,-6.373831E-2],"split_indices":[6,1,0,12,10,15,1,2,1,2,10,22,15,16,15,9,2,1,14,14,19,16,0,21,10,2,0,1,10,9,10,15,0,0,0,0,0,0,0,0,0,0,0,0,0,0,0,0,0,0,0,0,0,0,0,0,0,0,0,0,0],"split_type":[0,0,0,0,0,0,0,0,0,0,0,0,0,0,0,0,0,0,0,0,0,0,0,0,0,0,0,0,0,0,0,0,0,0,0,0,0,0,0,0,0,0,0,0,0,0,0,0,0,0,0,0,0,0,0,0,0,0,0,0,0],"sum_hessian":[3.639547E5,2.8380075E5,8.015392E4,2.5805325E5,2.5747498E4,2.99681E4,2.2808516E5,4.9242524E3,2.0823246E4,2.6793713E4,3.1743862E3,1.0206845E5,1.260167E5,3.090273E3,1.8339796E3,2.0233848E4,5.893991E2,8.726993E3,1.8066719E4,3.0244556E3,1.499307E2,9.3555266E4,8.513188E3,2.6245434E4,9.9771266E4,3.0846492E3,5.623649E0,1.7832806E3,5.0698994E1,2.020109E4,3.2757374E1,6.0203888E1,5.2919525E2,8.651077E3,7.591649E1,1.3932924E4,4.133796E3,2.594966E3,4.2948962E2,5.4513574E0,1.4447934E2,9.3356266E4,1.9900117E2,2.914053E3,5.5991357E3,1.9534754E4,6.7106816E3,5.1582E4,4.818927E4,3.0690564E3,1.5592771E1,1.7668844E3,1.639623E1,7.3050213E0,4.339397E1,2.3573184E3,1.7843771E4,5.9699655E0,2.6787409E1,5.3490154E1,6.7137322E0],"tree_param":{"num_deleted":"0","num_feature":"23","num_nodes":"61","size_leaf_vector":"1"}},{"base_weights":[1.2438414E-3,7.631111E-1,-1.3745055E0,-1.0135409E0,1.027287E0,-1.41201E0,-9.942825E-1,-1.118318E0,-2.3849578E-1,1.2208418E0,3.659116E-1,-1.03578E0,-1.420622E0,8.9818275E-1,-1.4025724E0,-1.1304898E0,1.4901416E0,-1.0242534E0,4.488617E-1,-5.133449E-1,1.3269223E0,-1.3279518E0,1.4321387E0,1.2543684E0,-1.3582563E0,-1.3264571E0,-1.4312992E0,1.2932847E0,-1.3927585E0,-1.4284047E0,-1.1208174E0,-1.0232836E0,-1.4014654E0,1.0558262E-1,-1.5879542E-2,-1.3088399E0,1.2732229E0,8.286862E-1,-1.2908432E0,-1.2636389E0,1.4089664E0,8.8037574E-1,1.3635684E0,-1.334597E0,1.5043254E0,1.452876E0,-7.911509E-2,-7.604324E-2,7.278096E-2,-1.3826377E0,6.36853E-2,-1.4236948E0,-5.5050287E-2,-1.4318159E0,-1.3428448E0,-7.218461E-2,7.147827E-2,-8.65314E-1,-7.161018E-2,-1.4297744E0,5.8273464E-3,4.6495724E-1,-1.2947068E0,-6.23383E-2,-2.273464E-2,-7.087698E-2,7.94185E-2,-7.378967E-2,-3.9964702E-2,5.1780064E-3,6.912101E-2,4.4036027E-2,-6.398162E-2,-6.73495E-2,5.670485E-2,-7.1708925E-2,-4.0140014E-2,-4.658915E-3,7.427468E-2,-5.885924E-2,7.167826E-2,6.836311E-2,-7.282498E-2,-6.1140455E-2,-7.188076E-2,9.501091E-3,9.025328E-2,-8.08114E-2,7.293712E-2,-7.4841596E-2,-4.710762E-2,-7.230572E-2,-6.4870976E-2,-7.155905E-2,4.5088068E-2,-7.143777E-2,-7.2179146E-2,-2.873565E-2,-7.175041E-2,-6.8349734E-2,4.025792E-2,-6.3972846E-2,-7.172846E-2,-7.164128E-2,7.027829E-2,-6.9762446E-2,-2.7180662E-2],"categories":[],"categories_nodes":[],"categories_segments":[],"categories_sizes":[],"default_left":[0,0,0,0,0,0,0,0,0,0,0,0,0,0,0,0,0,0,0,0,0,0,0,0,0,0,0,0,0,0,0,0,0,0,0,0,0,0,0,0,0,0,0,0,0,0,0,0,0,0,0,0,0,0,0,0,0,0,0,0,0,0,0,0,0,0,0,0,0,0,0,0,0,0,0,0,0,0,0,0,0,0,0,0,0,0,0,0,0,0,0,0,0,0,0,0,0,0,0,0,0,0,0,0,0,0,0],"id":10,"left_children":[1,3,5,7,9,11,13,15,17,19,21,23,25,27,29,31,33,35,37,39,41,43,45,47,49,51,53,55,57,59,61,63,65,-1,-1,67,69,71,73,75,77,79,81,83,85,87,-1,-1,-1,89,-1,91,93,95,97,-1,-1,99,-1,101,-1,103,105,-1,-1,-1,-1,-1,-1,-1,-1,-1,-1,-1,-1,-1,-1,-1,-1,-1,-1,-1,-1,-1,-1,-1,-1,-1,-1,-1,-1,-1,-1,-1,-1,-1,-1,-1,-1,-1,-1,-1,-1,-1,-1,-1,-1],"loss_changes":[3.73285E5,1.07579875E5,1.8086562E3,2.4091895E3,2.5543062E4,3.7285938E2,8.80945E3,8.3152344E2,1.9095413E3,2.8397906E4,8.159316E4,1.9138115E3,1.11671875E2,1.8334513E3,6.664844E1,7.5433594E2,1.3754666E2,1.0802278E3,1.2473732E3,1.28366E4,2.3792344E3,3.3048242E2,1.735457E3,1.80992E2,1.4743115E2,1.4236309E3,2.703125E0,6.4602026E2,4.96344E0,1.8333984E1,2.1904083E2,2.368625E3,3.565547E2,0E0,0E0,1.2372778E2,2.3143585E1,1.7102881E2,4.759961E1,5.019248E2,2.8737598E2,1.2562151E4,1.4023125E3,1.9875977E2,1.5990074E1,4.9814453E2,0E0,0E0,0E0,1.1174951E2,0E0,2.8410156E1,1.0799492E3,1.59375E0,4.201538E1,0E0,0E0,2.0603077E1,0E0,4.3476562E0,0E0,1.4306516E2,5.3171387E1,0E0,0E0,0E0,0E0,0E0,0E0,0E0,0E0,0E0,0E0,0E0,0E0,0E0,0E0,0E0,0E0,0E0,0E0,0E0,0E0,0E0,0E0,0E0,0E0,0E0,0E0,0E0,0E0,0E0,0E0,0E0,0E0,0E0,0E0,0E0,0E0,0E0,0E0,0E0,0E0,0E0,0E0,0E0,0E0],"parents":[2147483647,0,0,1,1,2,2,3,3,4,4,5,5,6,6,7,7,8,8,9,9,10,10,11,11,12,12,13,13,14,14,15,15,16,16,17,17,18,18,19,19,20,20,21,21,22,22,23,23,24,24,25,25,26,26,27,27,28,28,29,29,30,30,31,31,32,32,35,35,36,36,37,37,38,38,39,39,40,40,41,41,42,42,43,43,44,44,45,45,49,49,51,51,52,52,53,53,54,54,57,57,59,59,61,61,62,62],"right_children":[2,4,6,8,10,12,14,16,18,20,22,24,26,28,30,32,34,36,38,40,42,44,46,48,50,52,54,56,58,60,62,64,66,-1,-1,68,70,72,74,76,78,80,82,84,86,88,-1,-1,-1,90,-1,92,94,96,98,-1,-1,100,-1,102,-1,104,106,-1,-1,-1,-1,-1,-1,-1,-1,-1,-1,-1,-1,-1,-1,-1,-1,-1,-1,-1,-1,-1,-1,-1,-1,-1,-1,-1,-1,-1,-1,-1,-1,-1,-1,-1,-1,-1,-1,-1,-1,-1,-1,-1,-1],"split_conditions":[2.7E1,6.7862254E-1,2.008E3,2.8423765E6,6E0,1.4333333E1,2.119E3,6E0,9.3E1,6E0,4E0,3.1E1,4.6E1,8.9E1,1.7832E4,1.35E2,1E0,1.05E7,1.92E2,1.4E1,2E0,1.2386875E3,1E0,7E0,2.177345E3,4.4E1,1.836E3,2.479E3,3.1267526E2,1.9428773E3,6.21E2,6.6E1,5E0,1.0558262E-1,-1.5879542E-2,7.4E1,1.36E7,5.995397E6,1.42E7,4E0,2E0,1.4E1,6.31E2,9.5E1,6.6225166E3,1E0,-7.911509E-2,-7.604324E-2,7.278096E-2,7.61775E6,6.36853E-2,5.727565E1,5.1E1,3.6506293E2,8.9E1,-7.218461E-2,7.147827E-2,8.59E2,-7.161018E-2,2E1,5.8273464E-3,5.67E2,5.84E3,-6.23383E-2,-2.273464E-2,-7.087698E-2,7.94185E-2,-7.378967E-2,-3.9964702E-2,5.1780064E-3,6.912101E-2,4.4036027E-2,-6.398162E-2,-6.73495E-2,5.670485E-2,-7.1708925E-2,-4.0140014E-2,-4.658915E-3,7.427468E-2,-5.885924E-2,7.167826E-2,6.836311E-2,-7.282498E-2,-6.1140455E-2,-7.188076E-2,9.501091E-3,9.025328E-2,-8.08114E-2,7.293712E-2,-7.4841596E-2,-4.710762E-2,-7.230572E-2,-6.4870976E-2,-7.155905E-2,4.5088068E-2,-7.143777E-2,-7.2179146E-2,-2.873565E-2,-7.175041E-2,-6.8349734E-2,4.025792E-2,-6.3972846E-2,-7.172846E-2,-7.164128E-2,7.027829E-2,-6.9762446E-2,-2.7180662E-2],"split_indices":[5,12,3,15,6,7,3,9,17,10,1,5,10,10,3,17,22,19,17,5,17,10,20,1,11,10,3,4,11,11,5,17,1,0,0,17,19,18,15,7,17,5,17,16,13,22,0,0,0,20,0,11,7,11,10,0,0,9,0,9,0,5,5,0,0,0,0,0,0,0,0,0,0,0,0,0,0,0,0,0,0,0,0,0,0,0,0,0,0,0,0,0,0,0,0,0,0,0,0,0,0,0,0,0,0,0,0],"split_type":[0,0,0,0,0,0,0,0,0,0,0,0,0,0,0,0,0,0,0,0,0,0,0,0,0,0,0,0,0,0,0,0,0,0,0,0,0,0,0,0,0,0,0,0,0,0,0,0,0,0,0,0,0,0,0,0,0,0,0,0,0,0,0,0,0,0,0,0,0,0,0,0,0,0,0,0,0,0,0,0,0,0,0,0,0,0,0,0,0,0,0,0,0,0,0,0,0,0,0,0,0,0,0,0,0,0,0],"sum_hessian":[3.5613894E5,2.2920784E5,1.2693107E5,2.9669543E4,1.9953831E5,1.1553246E5,1.1398616E4,2.6135838E4,3.5337056E3,1.543625E5,4.517581E4,2.5881125E3,1.1294434E5,2.0225751E3,9.376041E3,2.601501E4,1.20827286E2,1.648603E3,1.8851024E3,8.897864E3,1.4546464E5,1.7451387E4,2.7724422E4,3.1909415E2,2.2690186E3,1.1515007E4,1.01429336E5,1.725437E3,2.9713806E2,8.584877E3,7.9116406E2,1.8643744E4,7.3712666E3,8.978907E1,3.1038218E1,1.4672822E3,1.8132076E2,1.5477177E3,3.3738483E2,6.4001685E3,2.497696E3,1.1034174E4,1.3443047E5,1.7411064E4,4.0321964E1,2.7535514E4,1.8890822E2,2.1131742E1,2.979624E2,2.2486624E3,2.0355993E1,1.0696791E4,8.18215E2,1.00825195E5,6.041417E2,8.138375E1,1.6440532E3,2.2271378E1,2.748667E2,8.577348E3,7.52945E0,7.801716E1,7.131469E2,1.3382579E4,5.261164E3,7.332372E3,3.8894794E1,1.1037432E3,3.6353912E2,1.5648697E1,1.6567206E2,1.5110076E3,3.6710125E1,3.301843E2,7.200524E0,4.6698975E3,1.7302709E3,1.21067154E2,2.376629E3,2.337782E3,8.696392E3,1.3425512E5,1.7533243E2,8.356284E3,9.054781E3,7.812292E0,3.250967E1,5.2008568E1,2.7483504E4,1.7838163E3,4.648461E2,9.0751045E3,1.6216866E3,3.353719E2,4.828431E2,8.01107E4,2.0714492E4,6.549678E1,5.3864496E2,1.7267292E1,5.0040855E0,2.7341647E2,8.303932E3,2.568053E1,5.233663E1,6.281981E2,8.494878E1],"tree_param":{"num_deleted":"0","num_feature":"23","num_nodes":"107","size_leaf_vector":"1"}},{"base_weights":[-1.1125691E-3,7.4261016E-1,-1.344828E0,-8.210447E-2,1.1332656E0,-1.3835907E0,-7.1073717E-1,-9.7439045E-1,1.3278478E0,1.296136E0,-1.2117659E0,-9.453853E-1,-1.3920176E0,1.3142178E0,-1.3644017E0,-1.1106768E0,1.3910537E0,-1.2147297E0,1.4097137E0,1.3934615E0,1.1332272E0,-8.770487E-1,-1.354475E0,1.2290497E0,-1.3162043E0,-1.3226229E0,-1.4016601E0,1.3864578E0,-1.0976372E0,-1.3933431E0,-1.0465981E0,-1.3963544E0,-8.656332E-1,2.0583595E-1,1.4495327E0,-1.280044E0,4.103865E-1,1.4234893E0,-7.87521E-2,1.3985944E0,-1.697165E0,-1.5307319E0,1.3888675E0,-8.9068264E-1,1.4173417E0,-1.3624225E0,5.433223E-1,-7.405819E-2,7.117068E-2,-1.4733124E0,-3.730918E-1,-1.3963541E0,-1.3432229E-1,-1.4017982E0,-1.1406128E0,-6.755908E-2,1.3966783E0,2.58131E-2,-7.0675835E-2,-1.0673107E0,-7.005408E-2,1.0957798E0,-7.030511E-2,-7.006185E-2,6.324815E-2,-5.6914657E-2,-3.019214E-2,-1.9864155E-2,1.2472119E-2,-7.30653E-2,7.344674E-2,-3.0193245E-2,-6.8868116E-2,7.110103E-2,-1.1105378E-1,7.137961E-2,-7.3060915E-2,6.994925E-2,-9.46333E-2,-1.0414352E-1,-7.5615846E-2,-9.866295E-2,-7.540814E-2,1.2929554E-2,7.033845E-2,-4.1926727E-2,-7.1864985E-2,8.969792E-2,2.2156825E-2,-6.1088305E-2,-7.102614E-2,7.902273E-2,-7.63607E-2,-7.7102706E-2,-7.235318E-2,6.868715E-2,-6.986395E-2,-6.9903746E-2,3.8296137E-2,-6.693043E-2,4.2235494E-2,-6.993553E-2,-7.066527E-2,-6.645102E-2,1.9994866E-2,7.0095636E-2,3.902972E-2,8.548326E-2,-7.03078E-2,-6.455415E-2,7.185816E-2],"categories":[],"categories_nodes":[],"categories_segments":[],"categories_sizes":[],"default_left":[0,0,0,0,0,0,0,0,0,0,0,0,0,0,0,0,0,0,0,0,0,0,0,0,0,0,0,0,0,0,0,0,0,0,0,0,0,0,0,0,0,0,0,0,0,0,0,0,0,0,0,0,0,0,0,0,0,0,0,0,0,0,0,0,0,0,0,0,0,0,0,0,0,0,0,0,0,0,0,0,0,0,0,0,0,0,0,0,0,0,0,0,0,0,0,0,0,0,0,0,0,0,0,0,0,0,0,0,0,0,0],"id":11,"left_children":[1,3,5,7,9,11,13,15,17,19,21,23,25,27,29,31,33,35,37,39,41,43,45,47,49,51,53,55,57,59,61,63,65,67,69,71,73,75,-1,77,79,81,83,85,87,89,91,-1,-1,93,95,97,99,101,103,-1,105,-1,-1,107,-1,109,-1,-1,-1,-1,-1,-1,-1,-1,-1,-1,-1,-1,-1,-1,-1,-1,-1,-1,-1,-1,-1,-1,-1,-1,-1,-1,-1,-1,-1,-1,-1,-1,-1,-1,-1,-1,-1,-1,-1,-1,-1,-1,-1,-1,-1,-1,-1,-1,-1],"loss_changes":[3.4613925E5,7.183304E4,3.0321875E3,9.016373E4,5.7786234E4,4.28125E2,9.414607E3,1.4151078E4,5.78341E3,2.2414375E3,4.681709E2,1.7733706E3,7.45E1,3.0396875E2,4.7992188E1,2.9039883E3,1.6545703E2,9.2550415E1,1.1087188E3,1.4072031E3,3.6037062E4,9.322876E1,1.0461719E2,1.7101453E2,2.7766748E2,1.2209434E3,2E0,4.9057373E1,2.6749481E1,1.0928711E1,3.502591E2,2.5072656E2,1.5940547E3,3.087144E0,1.3084863E2,5.4031616E1,9.434959E1,3.19125E2,0E0,1.16296875E2,7.350647E0,4.3301758E1,9.7653906E2,8.2120605E1,5.718563E0,5.43125E1,6.562496E1,0E0,0E0,6.723633E-1,4.840177E2,4.990039E1,9.624833E2,1.578125E0,1.7468307E1,0E0,4.3234863E0,0E0,0E0,1.1378946E2,0E0,5.5326363E1,0E0,0E0,0E0,0E0,0E0,0E0,0E0,0E0,0E0,0E0,0E0,0E0,0E0,0E0,0E0,0E0,0E0,0E0,0E0,0E0,0E0,0E0,0E0,0E0,0E0,0E0,0E0,0E0,0E0,0E0,0E0,0E0,0E0,0E0,0E0,0E0,0E0,0E0,0E0,0E0,0E0,0E0,0E0,0E0,0E0,0E0,0E0,0E0,0E0],"parents":[2147483647,0,0,1,1,2,2,3,3,4,4,5,5,6,6,7,7,8,8,9,9,10,10,11,11,12,12,13,13,14,14,15,15,16,16,17,17,18,18,19,19,20,20,21,21,22,22,23,23,24,24,25,25,26,26,27,27,28,28,29,29,30,30,31,31,32,32,33,33,34,34,35,35,36,36,37,37,39,39,40,40,41,41,42,42,43,43,44,44,45,45,46,46,49,49,50,50,51,51,52,52,53,53,54,54,56,56,59,59,61,61],"right_children":[2,4,6,8,10,12,14,16,18,20,22,24,26,28,30,32,34,36,38,40,42,44,46,48,50,52,54,56,58,60,62,64,66,68,70,72,74,76,-1,78,80,82,84,86,88,90,92,-1,-1,94,96,98,100,102,104,-1,106,-1,-1,108,-1,110,-1,-1,-1,-1,-1,-1,-1,-1,-1,-1,-1,-1,-1,-1,-1,-1,-1,-1,-1,-1,-1,-1,-1,-1,-1,-1,-1,-1,-1,-1,-1,-1,-1,-1,-1,-1,-1,-1,-1,-1,-1,-1,-1,-1,-1,-1,-1,-1,-1],"split_conditions":[2.7E1,6E0,2.9E1,4E0,6E0,1.4333333E1,8.9E1,6.363961E0,2E0,2E0,5.5E1,3.1E1,4.6E1,8.6966E5,1.995E2,1E0,2E0,8.485281E0,1E0,8.07E2,5.72E2,3E0,1.2386875E3,7E0,1.454975E1,4.4E1,1.9428773E3,7.5181E4,1.7666666E1,1.53E2,6.21E2,2.3069755E6,6.5E1,1E0,1E0,5.5436665E3,5E0,7E0,-7.87521E-2,1E0,9.78E2,3.508772E4,1.4E1,2E0,2.5E0,1.22E2,1.41E3,-7.405819E-2,7.117068E-2,2.5995126E2,1E1,2.6E1,9E0,3.797069E2,1.1644444E2,-6.755908E-2,3.6E1,2.58131E-2,-7.0675835E-2,3E1,-7.005408E-2,4.9744446E2,-7.030511E-2,-7.006185E-2,6.324815E-2,-5.6914657E-2,-3.019214E-2,-1.9864155E-2,1.2472119E-2,-7.30653E-2,7.344674E-2,-3.0193245E-2,-6.8868116E-2,7.110103E-2,-1.1105378E-1,7.137961E-2,-7.3060915E-2,6.994925E-2,-9.46333E-2,-1.0414352E-1,-7.5615846E-2,-9.866295E-2,-7.540814E-2,1.2929554E-2,7.033845E-2,-4.1926727E-2,-7.1864985E-2,8.969792E-2,2.2156825E-2,-6.1088305E-2,-7.102614E-2,7.902273E-2,-7.63607E-2,-7.7102706E-2,-7.235318E-2,6.868715E-2,-6.986395E-2,-6.9903746E-2,3.8296137E-2,-6.693043E-2,4.2235494E-2,-6.993553E-2,-7.066527E-2,-6.645102E-2,1.9994866E-2,7.0095636E-2,3.902972E-2,8.548326E-2,-7.03078E-2,-6.455415E-2,7.185816E-2],"split_indices":[5,10,2,1,6,7,10,8,6,2,0,5,10,15,7,2,16,8,2,0,20,1,10,1,11,10,11,0,10,10,5,15,17,17,21,19,1,1,0,22,17,13,5,2,19,0,10,0,0,13,1,2,17,11,7,0,1,0,0,1,0,10,0,0,0,0,0,0,0,0,0,0,0,0,0,0,0,0,0,0,0,0,0,0,0,0,0,0,0,0,0,0,0,0,0,0,0,0,0,0,0,0,0,0,0,0,0,0,0,0,0],"split_type":[0,0,0,0,0,0,0,0,0,0,0,0,0,0,0,0,0,0,0,0,0,0,0,0,0,0,0,0,0,0,0,0,0,0,0,0,0,0,0,0,0,0,0,0,0,0,0,0,0,0,0,0,0,0,0,0,0,0,0,0,0,0,0,0,0,0,0,0,0,0,0,0,0,0,0,0,0,0,0,0,0,0,0,0,0,0,0,0,0,0,0,0,0,0,0,0,0,0,0,0,0,0,0,0,0,0,0,0,0,0,0],"sum_hessian":[3.463618E5,2.229586E5,1.234032E5,7.1665664E4,1.5129294E5,1.162929E5,7.1103037E3,4.389016E4,2.7775506E4,1.4146795E5,9.824983E3,2.1963271E3,1.1409657E5,1.7348834E3,5.3754204E3,4.1499664E4,2.390495E3,8.659876E2,2.6909518E4,8.855541E4,5.2912543E4,2.938954E3,6.88603E3,3.1964655E2,1.8766807E3,1.3936516E4,1.00160055E5,1.6848441E3,5.0039352E1,4.9236533E3,4.5176703E2,1.9158973E4,2.234069E4,1.1261443E2,2.2778809E3,8.3273193E2,3.3255646E1,2.6786412E4,1.231048E2,8.8409125E4,1.462805E2,4.63259E3,4.8279953E4,2.9222014E3,1.675278E1,6.8575938E3,2.8435913E1,2.0946575E1,2.9869998E2,1.6082145E3,2.6846622E2,1.3122144E4,8.143724E2,1.001027E5,5.7353844E1,5.778711E0,1.6790654E3,8.086947E0,4.1952404E1,1.1737358E2,4.80628E3,6.46217E1,3.8714532E2,1.9124361E4,3.461178E1,1.0941524E4,1.1399166E4,7.0463243E0,1.05568115E2,1.4590427E1,2.2632903E3,1.0567737E2,7.2705457E2,2.4353024E1,8.90262E0,2.6748875E4,3.753868E1,8.839921E4,9.914269E0,4.4065365E1,1.0221514E2,2.206061E2,4.4119834E3,7.529825E2,4.7526973E4,2.6700122E3,2.5218922E2,1.1475157E1,5.2776237E0,2.0110375E3,4.846556E3,1.9103605E1,9.332308E0,4.2844388E2,1.1797706E3,9.910067E1,1.6936555E2,1.3112062E4,1.008136E1,3.650119E2,4.4936047E2,7.902205E4,2.1080656E4,5.1226074E1,6.127768E0,1.663655E3,1.5410372E1,1.2324411E1,1.0504917E2,7.737964E0,5.688373E1],"tree_param":{"num_deleted":"0","num_feature":"23","num_nodes":"111","size_leaf_vector":"1"}},{"base_weights":[-3.3617523E-4,7.2733694E-1,-1.3192405E0,-9.5465374E-1,9.822922E-1,-1.3561925E0,-7.089879E-1,-1.0554932E0,-2.1600068E-1,1.3485048E0,6.6955185E-1,-9.373498E-1,-1.3642327E0,1.1312475E0,-1.3382249E0,-1.3504925E0,-9.148578E-1,-9.9758756E-1,3.914307E-1,1.3673579E0,-4.2177492E-1,-1.276808E0,1.3085897E0,-1.4412168E0,5.5131793E-1,-1.3752601E0,-1.327438E0,1.3622612E0,-7.9364294E-1,-1.3675026E0,-8.704291E-1,-1.3640573E0,-5.8550686E-1,-7.868581E-1,-1.3828763E0,-1.2851534E0,1.2480844E0,7.1455467E-1,-1.3078071E0,1.3704913E0,-7.329548E-2,-1.6132065E0,3.0594948E-1,-1.3152643E0,-8.496646E-1,1.3565046E0,-6.9079734E-2,-7.518404E-2,-7.074852E-2,1.3799636E0,-6.84694E-2,-1.3733921E0,-6.983561E-2,5.4112834E-1,-1.3747114E0,-6.185996E-2,6.866267E-2,3.507564E-1,-1.1416594E0,-9.8782337E-1,-6.8529405E-2,7.403637E-1,-6.870026E-2,-6.824751E-2,-4.243406E-2,-6.667128E-2,7.8563295E-2,-1.8557796E-2,-5.629185E-2,-6.9473945E-2,-5.840958E-2,-7.021879E-2,-4.4050585E-2,7.816031E-3,6.764501E-2,1.4746954E-2,4.593738E-2,-6.828402E-2,2.944986E-2,6.8543166E-2,-7.67458E-2,-6.8824716E-2,-9.5440134E-2,2.6942093E-2,-7.790264E-2,-5.7678413E-2,-6.996239E-2,1.2708527E-1,-7.519177E-2,6.803828E-2,-7.492297E-2,4.332351E-2,7.0535816E-2,-6.860313E-2,-6.9730565E-2,5.2766602E-2,-7.058423E-2,-6.911888E-2,-6.572517E-2,-6.6536345E-2,5.0352097E-2,-6.675277E-2,5.6244656E-3,4.9352866E-2,-6.705137E-2,-6.842531E-2,6.966697E-2],"categories":[],"categories_nodes":[],"categories_segments":[],"categories_sizes":[],"default_left":[0,0,0,0,0,0,0,0,0,0,0,0,0,0,0,0,0,0,0,0,0,0,0,0,0,0,0,0,0,0,0,0,0,0,0,0,0,0,0,0,0,0,0,0,0,0,0,0,0,0,0,0,0,0,0,0,0,0,0,0,0,0,0,0,0,0,0,0,0,0,0,0,0,0,0,0,0,0,0,0,0,0,0,0,0,0,0,0,0,0,0,0,0,0,0,0,0,0,0,0,0,0,0,0,0,0,0],"id":12,"left_children":[1,3,5,7,9,11,13,15,17,19,21,23,25,27,29,31,33,35,37,39,41,43,45,47,49,51,53,55,57,59,61,63,65,67,69,71,73,75,77,79,-1,81,83,85,87,89,-1,-1,-1,91,-1,93,-1,95,97,-1,-1,99,101,103,-1,105,-1,-1,-1,-1,-1,-1,-1,-1,-1,-1,-1,-1,-1,-1,-1,-1,-1,-1,-1,-1,-1,-1,-1,-1,-1,-1,-1,-1,-1,-1,-1,-1,-1,-1,-1,-1,-1,-1,-1,-1,-1,-1,-1,-1,-1],"loss_changes":[3.2317994E5,9.306185E4,2.6989688E3,2.1274473E3,2.1581734E4,3.7889062E2,7.9196196E3,1.0414863E3,1.629991E3,2.8975625E3,1.2642842E5,1.5981117E3,4.3125E1,7.761179E2,6.860547E1,8.337598E1,1.0186826E3,9.7113367E2,1.061801E3,7.645156E2,7.942065E2,4.1158203E2,9.865586E3,4.8120117E-1,8.6011273E2,1.5E0,2.2594453E3,4.617578E1,7.5033485E1,4.2626953E0,2.4672792E2,2.5078125E0,2.3290306E2,1.8835107E3,3.5566406E0,6.291333E1,1.9349304E1,1.3888385E2,3.4731323E1,9.4859375E1,0E0,2.1672363E1,2.4791512E2,3.113672E2,4.6139097E3,9.16625E2,0E0,0E0,0E0,4.734192E0,0E0,3.125E-1,0E0,6.3576917E2,9.691406E0,0E0,0E0,5.0406708E1,3.5060043E1,3.0779484E1,0E0,1.0214763E2,0E0,0E0,0E0,0E0,0E0,0E0,0E0,0E0,0E0,0E0,0E0,0E0,0E0,0E0,0E0,0E0,0E0,0E0,0E0,0E0,0E0,0E0,0E0,0E0,0E0,0E0,0E0,0E0,0E0,0E0,0E0,0E0,0E0,0E0,0E0,0E0,0E0,0E0,0E0,0E0,0E0,0E0,0E0,0E0,0E0],"parents":[2147483647,0,0,1,1,2,2,3,3,4,4,5,5,6,6,7,7,8,8,9,9,10,10,11,11,12,12,13,13,14,14,15,15,16,16,17,17,18,18,19,19,20,20,21,21,22,22,23,23,24,24,25,25,26,26,27,27,28,28,29,29,30,30,31,31,32,32,33,33,34,34,35,35,36,36,37,37,38,38,39,39,41,41,42,42,43,43,44,44,45,45,49,49,51,51,53,53,54,54,57,57,58,58,59,59,61,61],"right_children":[2,4,6,8,10,12,14,16,18,20,22,24,26,28,30,32,34,36,38,40,42,44,46,48,50,52,54,56,58,60,62,64,66,68,70,72,74,76,78,80,-1,82,84,86,88,90,-1,-1,-1,92,-1,94,-1,96,98,-1,-1,100,102,104,-1,106,-1,-1,-1,-1,-1,-1,-1,-1,-1,-1,-1,-1,-1,-1,-1,-1,-1,-1,-1,-1,-1,-1,-1,-1,-1,-1,-1,-1,-1,-1,-1,-1,-1,-1,-1,-1,-1,-1,-1,-1,-1,-1,-1,-1,-1],"split_conditions":[2.7E1,6.7862254E-1,2.9E1,2.8423765E6,4E0,1.4333333E1,2.2490178E2,1E0,8.9E1,1.4142135E0,1.4E1,1.454975E1,8.420949E1,2.7E1,1.7832E4,5E0,4.93E2,1.05E7,2.007186E6,8.07E2,9.7E1,2.828427E0,1.4333333E1,3.4788315E3,1E1,1E0,1.99E2,2.3453596E2,2.1920311E1,3.0072223E2,6.21E2,7.0710677E-1,4.8E1,3.0303031E4,1.9968135E6,7.2E1,1.36E7,1.14E2,1.53E7,1E0,-7.329548E-2,2.9803333E3,9.78E2,2E0,3.4641016E0,2.162E4,-6.9079734E-2,-7.518404E-2,-7.074852E-2,1E1,-6.84694E-2,6.193316E2,-6.983561E-2,5.3E1,5.5E1,-6.185996E-2,6.866267E-2,2.0378368E2,8.59E2,3E1,-6.8529405E-2,2.162406E2,-6.870026E-2,-6.824751E-2,-4.243406E-2,-6.667128E-2,7.8563295E-2,-1.8557796E-2,-5.629185E-2,-6.9473945E-2,-5.840958E-2,-7.021879E-2,-4.4050585E-2,7.816031E-3,6.764501E-2,1.4746954E-2,4.593738E-2,-6.828402E-2,2.944986E-2,6.8543166E-2,-7.67458E-2,-6.8824716E-2,-9.5440134E-2,2.6942093E-2,-7.790264E-2,-5.7678413E-2,-6.996239E-2,1.2708527E-1,-7.519177E-2,6.803828E-2,-7.492297E-2,4.332351E-2,7.0535816E-2,-6.860313E-2,-6.9730565E-2,5.2766602E-2,-7.058423E-2,-6.911888E-2,-6.572517E-2,-6.6536345E-2,5.0352097E-2,-6.675277E-2,5.6244656E-3,4.9352866E-2,-6.705137E-2,-6.842531E-2,6.966697E-2],"split_indices":[5,12,2,15,3,7,11,2,17,15,3,11,8,1,3,1,14,19,14,0,17,8,7,12,1,21,5,12,11,11,5,8,17,13,15,17,19,17,15,22,0,14,17,1,8,17,0,0,0,2,0,11,0,7,17,0,0,8,9,1,0,8,0,0,0,0,0,0,0,0,0,0,0,0,0,0,0,0,0,0,0,0,0,0,0,0,0,0,0,0,0,0,0,0,0,0,0,0,0,0,0,0,0,0,0,0,0],"split_type":[0,0,0,0,0,0,0,0,0,0,0,0,0,0,0,0,0,0,0,0,0,0,0,0,0,0,0,0,0,0,0,0,0,0,0,0,0,0,0,0,0,0,0,0,0,0,0,0,0,0,0,0,0,0,0,0,0,0,0,0,0,0,0,0,0,0,0,0,0,0,0,0,0,0,0,0,0,0,0,0,0,0,0,0,0,0,0,0,0,0,0,0,0,0,0,0,0,0,0,0,0,0,0,0,0,0,0],"sum_hessian":[3.3673806E5,2.1700906E5,1.1972899E5,2.856398E4,1.8844508E5,1.1289192E5,6.8370713E3,2.513251E4,3.4314695E3,8.680032E4,1.0164476E5,2.128499E3,1.1076342E5,1.7419253E3,5.095146E3,8.110722E3,1.7021787E4,1.5003346E3,1.9311349E3,8.588588E4,9.144347E2,2.5123488E4,7.652127E4,1.5902736E3,5.3822546E2,8.519425E4,2.5569172E4,1.5555321E3,1.8639323E2,4.7932324E3,3.0191388E2,7.9686377E3,1.4208424E2,1.3368327E4,3.6534604E3,1.3304001E3,1.6993451E2,1.6230737E3,3.0806122E2,8.579152E4,9.436645E1,3.4628293E2,5.681518E2,2.3046502E4,2.0769868E3,7.518269E4,1.338583E3,4.5385464E2,1.136419E3,3.7620273E2,1.6202275E2,7.842984E4,6.7644106E3,6.3066187E2,2.493851E4,6.0804524E0,1.5494517E3,4.34632E1,1.4293004E2,4.122838E1,4.752004E3,7.1794395E1,2.3011949E2,7.9532104E3,1.5427521E1,1.0578292E2,3.630132E1,6.0055713E3,7.3627563E3,3.5391428E3,1.1431754E2,1.025424E3,3.0497614E2,1.5103854E1,1.5483064E2,5.3208527E2,1.0909884E3,2.99212E2,8.849225E0,8.578106E4,1.0456091E1,1.9543553E2,1.5084738E2,5.0568173E2,6.247002E1,7.8832905E3,1.5163212E4,3.353857E2,1.7416011E3,7.507117E4,1.1151806E2,2.2905943E1,3.5329678E2,7.386697E4,4.562873E3,4.995759E2,1.3108595E2,2.2102285E4,2.8362253E3,1.1912995E1,3.1550205E1,1.2377829E2,1.9151741E1,5.9826765E0,3.5245705E1,1.6715076E1,5.507932E1],"tree_param":{"num_deleted":"0","num_feature":"23","num_nodes":"107","size_leaf_vector":"1"}},{"base_weights":[2.6879064E-4,7.11829E-1,-1.2940193E0,-9.248712E-1,9.6207947E-1,-1.3308824E0,-6.873142E-1,-1.0258038E0,-1.9742629E-1,1.1448021E0,3.404846E-1,-1.2187783E0,-1.3489007E0,1.264955E0,-1.3167326E0,-1.326328E0,-8.8467133E-1,-9.680775E-1,3.9502984E-1,-4.760752E-1,1.2457606E0,-1.2375253E0,1.3444039E0,-1.2830144E0,-6.3757166E-2,-1.3493173E0,-3.4661397E-1,1.3325514E0,-1.0172591E0,-1.3406513E0,-9.355997E-1,-1.3406847E0,-5.592806E-1,-7.5921375E-1,-1.3664672E0,-1.2641724E0,1.1939725E0,7.073396E-1,-1.236796E0,-1.1759171E0,1.3254638E0,1.3406296E0,1.0871243E0,-1.115589E0,-1.349598E0,1.3674039E0,-7.597364E-2,-1.3524181E0,-1.9879289E-2,-6.806766E-2,7.3408735E-1,-1.3519756E0,-1.3377318E0,6.909255E-2,-6.586748E-2,6.743031E-2,-1.4442967E-1,3.0549E-2,-6.792479E-2,-1.0962093E0,-1.3473474E0,7.052427E-1,-6.748872E-2,-6.7079626E-2,-4.2559728E-2,-6.51257E-2,7.08644E-2,-5.0376065E-2,-1.052048E-2,-6.8563186E-2,-1.9185178E-2,-6.942596E-2,-4.7401983E-2,2.5323827E-2,6.8552874E-2,3.7956323E-2,-6.692179E-2,-6.459783E-2,4.3143127E-2,-6.7393064E-2,-4.0755212E-2,8.42267E-3,6.941428E-2,6.72834E-2,-6.974446E-2,-7.292109E-2,6.680526E-2,-6.8501644E-2,-4.58568E-2,-6.788452E-2,-6.898871E-3,6.856369E-2,-6.9911934E-2,-6.857125E-2,-5.9875544E-2,6.7011595E-2,-6.765544E-2,7.306837E-2,-8.8135175E-2,-6.850274E-2,-6.7427985E-2,6.2282532E-2,-6.6934206E-2,-4.9278356E-2,5.8530457E-2,2.8364062E-2,-6.7873634E-2,-6.741098E-2,-4.8731383E-2,-6.646491E-2,6.80465E-2],"categories":[],"categories_nodes":[],"categories_segments":[],"categories_sizes":[],"default_left":[0,0,0,0,0,0,0,0,0,0,0,0,0,0,0,0,0,0,0,0,0,0,0,0,0,0,0,0,0,0,0,0,0,0,0,0,0,0,0,0,0,0,0,0,0,0,0,0,0,0,0,0,0,0,0,0,0,0,0,0,0,0,0,0,0,0,0,0,0,0,0,0,0,0,0,0,0,0,0,0,0,0,0,0,0,0,0,0,0,0,0,0,0,0,0,0,0,0,0,0,0,0,0,0,0,0,0,0,0,0,0],"id":13,"left_children":[1,3,5,7,9,11,13,15,17,19,21,23,25,27,29,31,33,35,37,39,41,43,45,47,49,51,53,55,57,59,61,63,65,67,69,71,73,75,77,79,81,83,85,87,89,91,-1,93,95,-1,97,99,101,-1,-1,-1,103,-1,-1,105,107,109,-1,-1,-1,-1,-1,-1,-1,-1,-1,-1,-1,-1,-1,-1,-1,-1,-1,-1,-1,-1,-1,-1,-1,-1,-1,-1,-1,-1,-1,-1,-1,-1,-1,-1,-1,-1,-1,-1,-1,-1,-1,-1,-1,-1,-1,-1,-1,-1,-1],"loss_changes":[3.010703E5,8.6398586E4,2.5927031E3,2.0538496E3,2.0780672E4,2.1920312E2,8.1665566E3,1.040793E3,1.557262E3,2.3139328E4,6.58517E4,1.1238633E3,3.884375E1,2.5134595E2,4.4554688E1,8.567871E1,1.0095674E3,9.504713E2,9.837269E2,1.0455471E4,2.0017656E3,2.193711E2,1.6754922E3,1.2580293E3,8.283506E2,1.109375E0,6.9748665E1,3.752588E1,2.7045605E1,6.2597656E0,2.0486359E2,2.2802734E0,2.1619946E2,1.8077734E3,1.575E1,4.995508E1,2.1106613E1,1.7257916E2,3.7037964E1,3.6941797E2,1.6841846E2,1.1498438E3,3.1576453E4,3.8990527E2,8.23418E1,2.7165625E2,0E0,3.8410156E1,1.3589994E3,0E0,9.023842E2,2.875E0,4.5115234E1,0E0,0E0,0E0,2.087816E1,0E0,0E0,5.786821E1,1.796875E-1,8.335732E1,0E0,0E0,0E0,0E0,0E0,0E0,0E0,0E0,0E0,0E0,0E0,0E0,0E0,0E0,0E0,0E0,0E0,0E0,0E0,0E0,0E0,0E0,0E0,0E0,0E0,0E0,0E0,0E0,0E0,0E0,0E0,0E0,0E0,0E0,0E0,0E0,0E0,0E0,0E0,0E0,0E0,0E0,0E0,0E0,0E0,0E0,0E0,0E0,0E0],"parents":[2147483647,0,0,1,1,2,2,3,3,4,4,5,5,6,6,7,7,8,8,9,9,10,10,11,11,12,12,13,13,14,14,15,15,16,16,17,17,18,18,19,19,20,20,21,21,22,22,23,23,24,24,25,25,26,26,27,27,28,28,29,29,30,30,31,31,32,32,33,33,34,34,35,35,36,36,37,37,38,38,39,39,40,40,41,41,42,42,43,43,44,44,45,45,47,47,48,48,50,50,51,51,52,52,56,56,59,59,60,60,61,61],"right_children":[2,4,6,8,10,12,14,16,18,20,22,24,26,28,30,32,34,36,38,40,42,44,46,48,50,52,54,56,58,60,62,64,66,68,70,72,74,76,78,80,82,84,86,88,90,92,-1,94,96,-1,98,100,102,-1,-1,-1,104,-1,-1,106,108,110,-1,-1,-1,-1,-1,-1,-1,-1,-1,-1,-1,-1,-1,-1,-1,-1,-1,-1,-1,-1,-1,-1,-1,-1,-1,-1,-1,-1,-1,-1,-1,-1,-1,-1,-1,-1,-1,-1,-1,-1,-1,-1,-1,-1,-1,-1,-1,-1,-1],"split_conditions":[2.7E1,6.7862254E-1,2.9E1,2.8423765E6,6E0,4.6E1,8.9E1,1E0,8.9E1,6E0,4E0,4.4E1,1.9232317E3,8.6966E5,1.7832E4,5E0,1.35E2,1.05E7,1.92E2,8.485281E0,2E0,9.6E1,1E0,1.5E1,9.473831E1,1.486821E6,3.252E3,3.6E1,1.7666666E1,1.53E2,6.21E2,7.0710677E-1,4E0,6.8E1,3.245153E6,6.8E1,3E0,5.995397E6,1.42E7,1.2701706E2,2E0,3.98E2,5.72E2,6E0,6.067344E6,3.7E1,-7.597364E-2,1.27E2,1.3E1,-6.806766E-2,1.29E2,2.3E1,1.3933E4,6.909255E-2,-6.586748E-2,6.743031E-2,1.1650197E8,3.0549E-2,-6.792479E-2,3E1,6.3E1,2.162406E2,-6.748872E-2,-6.7079626E-2,-4.2559728E-2,-6.51257E-2,7.08644E-2,-5.0376065E-2,-1.052048E-2,-6.8563186E-2,-1.9185178E-2,-6.942596E-2,-4.7401983E-2,2.5323827E-2,6.8552874E-2,3.7956323E-2,-6.692179E-2,-6.459783E-2,4.3143127E-2,-6.7393064E-2,-4.0755212E-2,8.42267E-3,6.941428E-2,6.72834E-2,-6.974446E-2,-7.292109E-2,6.680526E-2,-6.8501644E-2,-4.58568E-2,-6.788452E-2,-6.898871E-3,6.856369E-2,-6.9911934E-2,-6.857125E-2,-5.9875544E-2,6.7011595E-2,-6.765544E-2,7.306837E-2,-8.8135175E-2,-6.850274E-2,-6.7427985E-2,6.2282532E-2,-6.6934206E-2,-4.9278356E-2,5.8530457E-2,2.8364062E-2,-6.7873634E-2,-6.741098E-2,-4.8731383E-2,-6.646491E-2,6.80465E-2],"split_indices":[5,12,2,15,6,10,10,2,17,10,1,10,10,15,3,1,17,19,17,8,2,0,2,2,8,20,0,1,10,10,5,8,17,17,16,17,10,18,15,15,17,0,20,9,18,3,0,9,10,0,9,6,18,0,0,0,0,0,0,1,17,8,0,0,0,0,0,0,0,0,0,0,0,0,0,0,0,0,0,0,0,0,0,0,0,0,0,0,0,0,0,0,0,0,0,0,0,0,0,0,0,0,0,0,0,0,0,0,0,0,0],"split_type":[0,0,0,0,0,0,0,0,0,0,0,0,0,0,0,0,0,0,0,0,0,0,0,0,0,0,0,0,0,0,0,0,0,0,0,0,0,0,0,0,0,0,0,0,0,0,0,0,0,0,0,0,0,0,0,0,0,0,0,0,0,0,0,0,0,0,0,0,0,0,0,0,0,0,0,0,0,0,0,0,0,0,0,0,0,0,0,0,0,0,0,0,0,0,0,0,0,0,0,0,0,0,0,0,0,0,0,0,0,0,0],"sum_hessian":[3.2690578E5,2.1093861E5,1.1596718E5,2.7974662E4,1.8296395E5,1.0932355E5,6.6436357E3,2.4565768E4,3.4088948E3,1.4139806E5,4.1565887E4,1.5147696E4,9.417585E4,1.6194801E3,5.024156E3,7.847364E3,1.6718404E4,1.4813544E3,1.9275404E3,8.290542E3,1.3310752E5,1.6161776E4,2.5404111E4,1.4349539E4,7.981571E2,9.413637E4,3.9484528E1,1.5732971E3,4.618301E1,4.7251074E3,2.9904855E2,7.7024507E3,1.449128E2,1.3266451E4,3.4519521E3,1.3032836E3,1.7807076E2,1.618372E3,3.0916837E2,5.9712456E3,2.3192961E3,8.329012E4,4.98174E4,7.7455166E3,8.416259E3,2.5202232E4,2.018785E2,1.3602095E4,7.4744525E2,3.0363153E2,4.945256E2,7.647435E4,1.7662012E4,1.4047834E1,2.5436693E1,1.5564651E3,1.6831968E1,7.864832E0,3.8318176E1,1.3037814E2,4.594729E3,6.0129578E1,2.3891898E2,7.686456E3,1.5994861E1,1.0556068E2,3.935211E1,9.133256E3,4.133196E3,3.4347932E3,1.7159145E1,9.3293384E2,3.7034982E2,3.7263412E1,1.4080734E2,1.5790293E3,3.9342693E1,3.0162888E2,7.5394692E0,4.0422083E3,1.9290374E3,1.1963429E2,2.1996616E3,8.31375E4,1.5261732E2,4.4380903E3,4.537931E4,3.391389E3,4.354128E3,8.360301E3,5.5957985E1,2.5167521E4,3.4711826E1,1.2108548E4,1.4935465E3,3.6998996E2,3.7745526E2,3.8329257E2,1.1123303E2,1.2089094E4,6.438526E4,6.026149E0,1.7655986E4,1.0418519E1,6.4134493E0,1.7538355E1,1.1283978E2,4.581391E3,1.3337854E1,1.4404945E1,4.5724632E1],"tree_param":{"num_deleted":"0","num_feature":"23","num_nodes":"111","size_leaf_vector":"1"}},{"base_weights":[-4.1702756E-4,6.9813406E-1,-1.2710105E0,-8.929107E-1,9.4342244E-1,-1.3064507E0,-9.603633E-1,-9.916381E-1,-1.9207494E-1,1.1235287E0,3.327711E-1,-1.1905396E0,-1.3255239E0,4.419663E-1,-1.3040097E0,-8.749647E-1,-1.2982466E0,-9.012196E-1,4.0095085E-1,-4.6704462E-1,1.2232716E0,-1.2068772E0,1.3203285E0,-1.3453112E0,-5.096205E-1,-1.3260746E0,4.9431497E-1,-1.2120285E0,1.2916456E0,-1.3177539E0,-1.0654149E0,-4.9230415E-1,-1.1534464E0,-1.3155292E0,1.4630774E0,-1.1568516E0,1.1905545E0,7.349727E-1,-1.2072794E0,-1.1514376E0,1.3019292E0,8.006487E-1,1.3090004E0,-1.2132546E0,1.4925E0,1.339077E0,-7.245364E-2,-6.728427E-2,-9.1164994E-1,8.981998E-1,-1.3457605E0,-1.3288846E0,-1.3099422E0,6.8461895E-2,-6.1556276E-2,-1.3124092E0,1.2304579E0,1.3237588E0,-1.146655E0,-1.1964251E0,-1.3245684E0,-1.311064E0,8.260817E-1,-1.8283547E-3,-3.9888933E-2,-6.677812E-2,-4.7487617E-2,-6.7339145E-2,-6.336052E-2,7.841657E-2,3.1101337E-2,-6.736293E-2,-3.874056E-2,6.5553538E-3,6.472605E-2,3.91138E-2,-5.907158E-2,-6.3455015E-2,4.913309E-2,-6.6244714E-2,-3.9412487E-2,2.8448903E-3,6.817183E-2,6.593449E-2,-7.0429996E-2,6.5716855E-2,-4.0264964E-2,-5.4613214E-2,-6.625173E-2,8.971857E-2,1.3630979E-2,-7.543043E-2,6.723937E-2,-5.8330726E-2,-2.186956E-2,6.1810203E-2,-6.769135E-2,2.2354102E-2,-6.869535E-2,-6.729972E-2,-6.6288106E-2,6.178509E-2,-6.5560974E-2,-6.68812E-2,-3.822297E-2,6.925558E-2,2.344205E-2,1.7000295E-2,6.6390045E-2,-6.504956E-2,-2.9235119E-2,-4.3009333E-2,-6.6549286E-2,-6.6295475E-2,-4.2405326E-2,-1.7708702E-3,-6.629082E-2,6.038192E-2,-6.0161807E-2],"categories":[],"categories_nodes":[],"categories_segments":[],"categories_sizes":[],"default_left":[0,0,0,0,0,0,0,0,0,0,0,0,0,0,0,0,0,0,0,0,0,0,0,0,0,0,0,0,0,0,0,0,0,0,0,0,0,0,0,0,0,0,0,0,0,0,0,0,0,0,0,0,0,0,0,0,0,0,0,0,0,0,0,0,0,0,0,0,0,0,0,0,0,0,0,0,0,0,0,0,0,0,0,0,0,0,0,0,0,0,0,0,0,0,0,0,0,0,0,0,0,0,0,0,0,0,0,0,0,0,0,0,0,0,0,0,0,0,0],"id":14,"left_children":[1,3,5,7,9,11,13,15,17,19,21,23,25,27,29,31,33,35,37,39,41,43,45,47,49,51,53,55,57,59,61,63,65,67,69,71,73,75,77,79,81,83,85,87,89,91,-1,-1,93,95,97,99,101,-1,-1,103,105,107,109,111,113,115,117,-1,-1,-1,-1,-1,-1,-1,-1,-1,-1,-1,-1,-1,-1,-1,-1,-1,-1,-1,-1,-1,-1,-1,-1,-1,-1,-1,-1,-1,-1,-1,-1,-1,-1,-1,-1,-1,-1,-1,-1,-1,-1,-1,-1,-1,-1,-1,-1,-1,-1,-1,-1,-1,-1,-1,-1],"loss_changes":[2.8127997E5,7.980443E4,1.2364531E3,1.8897637E3,1.9485375E4,2.215E2,5.5502725E3,8.5533203E2,1.4192551E3,2.1706578E4,6.1360805E4,1.5029648E3,8.7484375E1,3.188059E3,2.892871E1,1.8478389E3,3.1676367E2,8.231742E2,9.88292E2,9.776664E3,4.6635E3,2.732871E2,1.2784961E3,6.621094E-1,3.1136191E3,2.1875E0,4.2355583E1,1.9040283E2,1.1884326E2,5.6435547E0,2.3760236E2,1.01734766E3,3.7112402E2,8.1953125E0,2.6988678E0,9.861426E1,1.8319153E1,1.3895319E2,4.409482E1,3.657456E2,1.724414E2,2.4853371E4,1.20875E3,2.1133594E2,1.3363319E1,3.9914453E2,0E0,0E0,1.0765839E0,7.520764E2,8.434326E1,2.15625E0,4.3628906E1,0E0,0E0,9.202881E0,2.991661E0,5.430908E0,9.750614E-1,2.0355713E1,4.158203E0,8.43866E0,4.723204E1,0E0,0E0,0E0,0E0,0E0,0E0,0E0,0E0,0E0,0E0,0E0,0E0,0E0,0E0,0E0,0E0,0E0,0E0,0E0,0E0,0E0,0E0,0E0,0E0,0E0,0E0,0E0,0E0,0E0,0E0,0E0,0E0,0E0,0E0,0E0,0E0,0E0,0E0,0E0,0E0,0E0,0E0,0E0,0E0,0E0,0E0,0E0,0E0,0E0,0E0,0E0,0E0,0E0,0E0,0E0,0E0],"parents":[2147483647,0,0,1,1,2,2,3,3,4,4,5,5,6,6,7,7,8,8,9,9,10,10,11,11,12,12,13,13,14,14,15,15,16,16,17,17,18,18,19,19,20,20,21,21,22,22,23,23,24,24,25,25,26,26,27,27,28,28,29,29,30,30,31,31,32,32,33,33,34,34,35,35,36,36,37,37,38,38,39,39,40,40,41,41,42,42,43,43,44,44,45,45,48,48,49,49,50,50,51,51,52,52,55,55,56,56,57,57,58,58,59,59,60,60,61,61,62,62],"right_children":[2,4,6,8,10,12,14,16,18,20,22,24,26,28,30,32,34,36,38,40,42,44,46,48,50,52,54,56,58,60,62,64,66,68,70,72,74,76,78,80,82,84,86,88,90,92,-1,-1,94,96,98,100,102,-1,-1,104,106,108,110,112,114,116,118,-1,-1,-1,-1,-1,-1,-1,-1,-1,-1,-1,-1,-1,-1,-1,-1,-1,-1,-1,-1,-1,-1,-1,-1,-1,-1,-1,-1,-1,-1,-1,-1,-1,-1,-1,-1,-1,-1,-1,-1,-1,-1,-1,-1,-1,-1,-1,-1,-1,-1,-1,-1,-1,-1,-1,-1],"split_conditions":[2.7E1,6.7862254E-1,1.9E1,2.8423765E6,6E0,4.6E1,8.9E1,1.35E2,9.3E1,6E0,4E0,1.26E2,1.9232317E3,2.745E3,1.38E2,3.125E4,5E0,1.05E7,1.92E2,8.485281E0,3.9E1,1.2386875E3,1E0,3.98E7,1.99E2,1.486821E6,3.252E3,5.84E3,8.6966E5,1.55E2,3E0,8.5E1,3.3E1,2.45E2,6E0,6.8E1,1.36E7,5.995397E6,1.42E7,1.3221321E2,2E0,1.2E1,5.17E2,9.6E1,2.2E2,1E0,-7.245364E-2,-6.728427E-2,3.1E1,1E0,1.36E2,2.3E1,1.3933E4,6.8461895E-2,-6.1556276E-2,7.148263E6,1.61801E5,4.9138806E5,4.957362E2,4.015222E6,7.215E3,1.41E3,4.9138806E5,-1.8283547E-3,-3.9888933E-2,-6.677812E-2,-4.7487617E-2,-6.7339145E-2,-6.336052E-2,7.841657E-2,3.1101337E-2,-6.736293E-2,-3.874056E-2,6.5553538E-3,6.472605E-2,3.91138E-2,-5.907158E-2,-6.3455015E-2,4.913309E-2,-6.6244714E-2,-3.9412487E-2,2.8448903E-3,6.817183E-2,6.593449E-2,-7.0429996E-2,6.5716855E-2,-4.0264964E-2,-5.4613214E-2,-6.625173E-2,8.971857E-2,1.3630979E-2,-7.543043E-2,6.723937E-2,-5.8330726E-2,-2.186956E-2,6.1810203E-2,-6.769135E-2,2.2354102E-2,-6.869535E-2,-6.729972E-2,-6.6288106E-2,6.178509E-2,-6.5560974E-2,-6.68812E-2,-3.822297E-2,6.925558E-2,2.344205E-2,1.7000295E-2,6.6390045E-2,-6.504956E-2,-2.9235119E-2,-4.3009333E-2,-6.6549286E-2,-6.6295475E-2,-4.2405326E-2,-1.7708702E-3,-6.629082E-2,6.038192E-2,-6.0161807E-2],"split_indices":[5,12,1,15,6,10,10,17,17,10,1,4,10,4,1,13,1,19,17,8,14,10,20,15,5,20,0,5,15,10,17,0,17,19,1,17,19,18,15,15,17,4,17,0,0,22,0,0,17,22,4,6,18,0,0,15,0,15,12,16,9,9,15,0,0,0,0,0,0,0,0,0,0,0,0,0,0,0,0,0,0,0,0,0,0,0,0,0,0,0,0,0,0,0,0,0,0,0,0,0,0,0,0,0,0,0,0,0,0,0,0,0,0,0,0,0,0,0,0],"split_type":[0,0,0,0,0,0,0,0,0,0,0,0,0,0,0,0,0,0,0,0,0,0,0,0,0,0,0,0,0,0,0,0,0,0,0,0,0,0,0,0,0,0,0,0,0,0,0,0,0,0,0,0,0,0,0,0,0,0,0,0,0,0,0,0,0,0,0,0,0,0,0,0,0,0,0,0,0,0,0,0,0,0,0,0,0,0,0,0,0,0,0,0,0,0,0,0,0,0,0,0,0,0,0,0,0,0,0,0,0,0,0,0,0,0,0,0,0,0,0],"sum_hessian":[3.169066E5,2.0448475E5,1.1242184E5,2.7313719E4,1.7717103E5,1.00906695E5,1.1515149E4,2.3940746E4,3.372972E3,1.3681717E5,4.035386E4,1.4266918E4,8.663977E4,2.2663774E3,9.248771E3,1.734451E4,6.5962373E3,1.5358597E3,