{
  "model_info": {
    "model_type": "<class 'sklearn.ensemble._forest.RandomForestClassifier'>",
    "n_estimators": 100,
    "n_features": 10,
    "n_classes": 2,
    "feature_names": [
      "io_intensity",
      "entropy",
      "resource_usage",
      "network_activity",
      "file_operations",
      "process_anomaly",
      "temporal_pattern",
      "access_frequency",
      "data_volume",
      "behavior_consistency"
    ],
    "class_names": [
      0,
      1
    ]
  },
  "feature_importance": {
    "io_intensity": 0.24332223536978168,
    "entropy": 0.3607331988902626,
    "resource_usage": 0.2488492994137785,
    "network_activity": 0.07647242870150996,
    "file_operations": 0.02445413399689633,
    "process_anomaly": 0.003334738526197998,
    "temporal_pattern": 0.004904982176918815,
    "access_frequency": 0.016204420192686805,
    "data_volume": 0.006181073155627865,
    "behavior_consistency": 0.015543489576339487
  },
  "trees_sample": {
    "tree_0": {
      "n_nodes": 29,
      "n_features": 10,
      "n_outputs": 1,
      "max_depth": 6,
      "children_left": [
        1,
        2,
        3,
        4,
        5,
        6,
        -1,
        -1,
        -1,
        -1,
        -1,
        12,
        13,
        -1,
        -1,
        16,
        -1,
        -1,
        19,
        -1,
        21,
        -1,
        23,
        -1,
        25,
        26,
        -1,
        -1,
        -1
      ],
      "children_right": [
        18,
        11,
        10,
        9,
        8,
        7,
        -1,
        -1,
        -1,
        -1,
        -1,
        15,
        14,
        -1,
        -1,
        17,
        -1,
        -1,
        20,
        -1,
        22,
        -1,
        24,
        -1,
        28,
        27,
        -1,
        -1,
        -1
      ],
      "feature": [
        1,
        1,
        5,
        2,
        0,
        4,
        -2,
        -2,
        -2,
        -2,
        -2,
        0,
        7,
        -2,
        -2,
        4,
        -2,
        -2,
        2,
        -2,
        0,
        -2,
        5,
        -2,
        5,
        8,
        -2,
        -2,
        -2
      ],
      "threshold": [
        0.9150086343288422,
        0.785280704498291,
        1.0274965167045593,
        1.0533650517463684,
        1.0026876032352448,
        0.9729054570198059,
        -2.0,
        -2.0,
        -2.0,
        -2.0,
        -2.0,
        0.6544506847858429,
        0.6455800235271454,
        -2.0,
        -2.0,
        0.4054068773984909,
        -2.0,
        -2.0,
        0.20320850610733032,
        -2.0,
        0.37708182632923126,
        -2.0,
        0.14071612805128098,
        -2.0,
        0.35201793909072876,
        0.3502742648124695,
        -2.0,
        -2.0,
        -2.0
      ],
      "value": [
        [
          [
            0.4910395282251802,
            0.5089604717748029
          ]
        ],
        [
          [
            0.9650136401375866,
            0.034986359862412476
          ]
        ],
        [
          [
            0.9886811112614585,
            0.011318888738541276
          ]
        ],
        [
          [
            0.9900728768219206,
            0.009927123178079455
          ]
        ],
        [
          [
            0.9943031209180788,
            0.005696879081921184
          ]
        ],
        [
          [
            0.9971315444149185,
            0.0028684555850815
          ]
        ],
        [
          [
            1.0,
            0.0
          ]
        ],
        [
          [
            0.4461125350909313,
            0.5538874649090687
          ]
        ],
        [
          [
            0.5917963479355942,
            0.4082036520644059
          ]
        ],
        [
          [
            0.0,
            1.0
          ]
        ],
        [
          [
            0.3918520503886358,
            0.6081479496113643
          ]
        ],
        [
          [
            0.5049994546049522,
            0.49500054539504795
          ]
        ],
        [
          [
            0.9456435809596818,
            0.05435641904031813
          ]
        ],
        [
          [
            1.0,
            0.0
          ]
        ],
        [
          [
            0.5630656653186983,
            0.4369343346813017
          ]
        ],
        [
          [
            0.05379482902418682,
            0.9462051709758131
          ]
        ],
        [
          [
            1.0,
            0.0
          ]
        ],
        [
          [
            0.0,
            1.0
          ]
        ],
        [
          [
            0.010117111294843464,
            0.9898828887051567
          ]
        ],
        [
          [
            1.0,
            0.0
          ]
        ],
        [
          [
            0.004864294589568731,
            0.9951357054104312
          ]
        ],
        [
          [
            1.0,
            0.0
          ]
        ],
        [
          [
            0.0026591310473860156,
            0.997340868952614
          ]
        ],
        [
          [
            0.24366666666666664,
            0.7563333333333333
          ]
        ],
        [
          [
            0.0013368600917696893,
            0.9986631399082303
          ]
        ],
        [
          [
            0.011242809830922088,
            0.9887571901690779
          ]
        ],
        [
          [
            0.08076753093694754,
            0.9192324690630523
          ]
        ],
        [
          [
            0.0,
            1.0
          ]
        ],
        [
          [
            0.0,
            1.0
          ]
        ]
      ]
    },
    "tree_1": {
      "n_nodes": 45,
      "n_features": 10,
      "n_outputs": 1,
      "max_depth": 7,
      "children_left": [
        1,
        2,
        3,
        4,
        5,
        6,
        7,
        -1,
        -1,
        10,
        -1,
        -1,
        -1,
        14,
        -1,
        16,
        -1,
        18,
        -1,
        -1,
        21,
        22,
        -1,
        -1,
        -1,
        26,
        27,
        -1,
        -1,
        30,
        -1,
        -1,
        33,
        34,
        35,
        -1,
        -1,
        -1,
        39,
        -1,
        41,
        -1,
        43,
        -1,
        -1
      ],
      "children_right": [
        32,
        25,
        20,
        13,
        12,
        9,
        8,
        -1,
        -1,
        11,
        -1,
        -1,
        -1,
        15,
        -1,
        17,
        -1,
        19,
        -1,
        -1,
        24,
        23,
        -1,
        -1,
        -1,
        29,
        28,
        -1,
        -1,
        31,
        -1,
        -1,
        38,
        37,
        36,
        -1,
        -1,
        -1,
        40,
        -1,
        42,
        -1,
        44,
        -1,
        -1
      ],
      "feature": [
        3,
        4,
        9,
        2,
        7,
        5,
        1,
        -2,
        -2,
        5,
        -2,
        -2,
        -2,
        5,
        -2,
        1,
        -2,
        6,
        -2,
        -2,
        8,
        1,
        -2,
        -2,
        -2,
        2,
        0,
        -2,
        -2,
        1,
        -2,
        -2,
        0,
        5,
        0,
        -2,
        -2,
        -2,
        9,
        -2,
        1,
        -2,
        1,
        -2,
        -2
      ],
      "threshold": [
        0.5725159049034119,
        0.5740468204021454,
        0.8069460988044739,
        0.8599261939525604,
        0.9068217575550079,
        0.7592684626579285,
        1.4522387981414795,
        -2.0,
        -2.0,
        0.760936051607132,
        -2.0,
        -2.0,
        -2.0,
        0.16094240546226501,
        -2.0,
        0.4730905778706074,
        -2.0,
        0.25042182207107544,
        -2.0,
        -2.0,
        0.6908878087997437,
        1.297610342502594,
        -2.0,
        -2.0,
        -2.0,
        0.6966098546981812,
        0.9942886233329773,
        -2.0,
        -2.0,
        0.5611017942428589,
        -2.0,
        -2.0,
        0.392232283949852,
        0.6840314269065857,
        0.022196840029209852,
        -2.0,
        -2.0,
        -2.0,
        0.08553501963615417,
        -2.0,
        0.426070973277092,
        -2.0,
        0.7736253440380096,
        -2.0,
        -2.0
      ],
      "value": [
        [
          [
            0.48970963881726143,
            0.5102903611827189
          ]
        ],
        [
          [
            0.8497561047388521,
            0.1502438952611484
          ]
        ],
        [
          [
            0.9420644281802171,
            0.05793557181978167
          ]
        ],
        [
          [
            0.9581133468709608,
            0.0418866531290384
          ]
        ],
        [
          [
            0.9913128107900326,
            0.00868718920996738
          ]
        ],
        [
          [
            0.9947369926710663,
            0.005263007328932953
          ]
        ],
        [
          [
            0.9981923242694609,
            0.0018076757305392145
          ]
        ],
        [
          [
            1.0,
            0.0
          ]
        ],
        [
          [
            0.0,
            1.0
          ]
        ],
        [
          [
            0.8810921287076827,
            0.11890787129231738
          ]
        ],
        [
          [
            0.0,
            1.0
          ]
        ],
        [
          [
            1.0,
            0.0
          ]
        ],
        [
          [
            0.6392400031799029,
            0.3607599968200969
          ]
        ],
        [
          [
            0.06053328916859887,
            0.9394667108314009
          ]
        ],
        [
          [
            1.0,
            0.0
          ]
        ],
        [
          [
            0.031211306092822674,
            0.9687886939071773
          ]
        ],
        [
          [
            1.0,
            0.0
          ]
        ],
        [
          [
            0.0,
            1.0
          ]
        ],
        [
          [
            0.0,
            1.0
          ]
        ],
        [
          [
            0.0,
            1.0
          ]
        ],
        [
          [
            0.5515890839187221,
            0.4484109160812777
          ]
        ],
        [
          [
            0.9163440622350034,
            0.0836559377649965
          ]
        ],
        [
          [
            1.0,
            0.0
          ]
        ],
        [
          [
            0.0,
            1.0
          ]
        ],
        [
          [
            0.20491975611465416,
            0.7950802438853459
          ]
        ],
        [
          [
            0.48523678284542726,
            0.5147632171545726
          ]
        ],
        [
          [
            0.9736066117240618,
            0.026393388275938283
          ]
        ],
        [
          [
            1.0,
            0.0
          ]
        ],
        [
          [
            0.13873600303662936,
            0.8612639969633707
          ]
        ],
        [
          [
            0.03159390380282983,
            0.9684060961971702
          ]
        ],
        [
          [
            1.0,
            0.0
          ]
        ],
        [
          [
            0.0,
            1.0
          ]
        ],
        [
          [
            0.08851078857669037,
            0.9114892114233116
          ]
        ],
        [
          [
            0.9788995006184145,
            0.02110049938158517
          ]
        ],
        [
          [
            1.0,
            0.0
          ]
        ],
        [
          [
            1.0,
            0.0
          ]
        ],
        [
          [
            1.0,
            0.0
          ]
        ],
        [
          [
            0.8072545022086308,
            0.19274549779136937
          ]
        ],
        [
          [
            0.023737427038260827,
            0.9762625729617399
          ]
        ],
        [
          [
            1.0,
            0.0
          ]
        ],
        [
          [
            0.022286902455929316,
            0.9777130975440711
          ]
        ],
        [
          [
            1.0,
            0.0
          ]
        ],
        [
          [
            0.002526371377283677,
            0.9974736286227164
          ]
        ],
        [
          [
            0.15181093204851306,
            0.8481890679514871
          ]
        ],
        [
          [
            0.0,
            1.0
          ]
        ]
      ]
    },
    "tree_2": {
      "n_nodes": 31,
      "n_features": 10,
      "n_outputs": 1,
      "max_depth": 7,
      "children_left": [
        1,
        2,
        3,
        4,
        -1,
        -1,
        -1,
        8,
        -1,
        10,
        -1,
        12,
        -1,
        -1,
        15,
        -1,
        17,
        18,
        -1,
        20,
        -1,
        -1,
        23,
        -1,
        25,
        -1,
        27,
        28,
        -1,
        -1,
        -1
      ],
      "children_right": [
        14,
        7,
        6,
        5,
        -1,
        -1,
        -1,
        9,
        -1,
        11,
        -1,
        13,
        -1,
        -1,
        16,
        -1,
        22,
        19,
        -1,
        21,
        -1,
        -1,
        24,
        -1,
        26,
        -1,
        30,
        29,
        -1,
        -1,
        -1
      ],
      "feature": [
        2,
        1,
        0,
        1,
        -2,
        -2,
        -2,
        7,
        -2,
        1,
        -2,
        6,
        -2,
        -2,
        0,
        -2,
        3,
        8,
        -2,
        1,
        -2,
        -2,
        4,
        -2,
        1,
        -2,
        0,
        3,
        -2,
        -2,
        -2
      ],
      "threshold": [
        0.6233477592468262,
        0.9889368116855621,
        0.9217677414417267,
        0.0008304230577778071,
        -2.0,
        -2.0,
        -2.0,
        0.19412953406572342,
        -2.0,
        1.1290742754936218,
        -2.0,
        0.23861555010080338,
        -2.0,
        -2.0,
        0.3450430780649185,
        -2.0,
        0.23446499556303024,
        0.30713801085948944,
        -2.0,
        0.6465325355529785,
        -2.0,
        -2.0,
        0.08815866708755493,
        -2.0,
        0.377279132604599,
        -2.0,
        0.4760640114545822,
        0.6195786893367767,
        -2.0,
        -2.0,
        -2.0
      ],
      "value": [
        [
          [
            0.47574861811215846,
            0.5242513818878229
          ]
        ],
        [
          [
            0.9211787550026164,
            0.07882124499738272
          ]
        ],
        [
          [
            0.9985219935694667,
            0.001478006430533046
          ]
        ],
        [
          [
            1.0,
            0.0
          ]
        ],
        [
          [
            1.0,
            0.0
          ]
        ],
        [
          [
            1.0,
            0.0
          ]
        ],
        [
          [
            0.659053343350864,
            0.340946656649136
          ]
        ],
        [
          [
            0.03805875790256602,
            0.9619412420974338
          ]
        ],
        [
          [
            1.0,
            0.0
          ]
        ],
        [
          [
            0.016673509420190687,
            0.9833264905798094
          ]
        ],
        [
          [
            0.17680493409118395,
            0.8231950659088162
          ]
        ],
        [
          [
            0.005930697648003765,
            0.9940693023519962
          ]
        ],
        [
          [
            0.043999036956783436,
            0.9560009630432166
          ]
        ],
        [
          [
            0.0,
            1.0
          ]
        ],
        [
          [
            0.046419611116691774,
            0.9535803888833089
          ]
        ],
        [
          [
            1.0,
            0.0
          ]
        ],
        [
          [
            0.01782075546303585,
            0.9821792445369644
          ]
        ],
        [
          [
            0.51422192317103,
            0.48577807682896973
          ]
        ],
        [
          [
            1.0,
            0.0
          ]
        ],
        [
          [
            0.2691086466338411,
            0.7308913533661588
          ]
        ],
        [
          [
            1.0,
            0.0
          ]
        ],
        [
          [
            0.0,
            1.0
          ]
        ],
        [
          [
            0.007978863712300076,
            0.9920211362877001
          ]
        ],
        [
          [
            1.0,
            0.0
          ]
        ],
        [
          [
            0.005333427371572457,
            0.9946665726284276
          ]
        ],
        [
          [
            1.0,
            0.0
          ]
        ],
        [
          [
            0.0008928729561484592,
            0.9991071270438514
          ]
        ],
        [
          [
            0.04722374753706515,
            0.952776252462935
          ]
        ],
        [
          [
            1.0,
            0.0
          ]
        ],
        [
          [
            0.0,
            1.0
          ]
        ],
        [
          [
            0.0,
            1.0
          ]
        ]
      ]
    }
  },
  "leaf_samples": [
    {
      "node_id": 6,
      "value": 0.0,
      "samples": 1390
    },
    {
      "node_id": 7,
      "value": 0.5538874649090687,
      "samples": 4
    },
    {
      "node_id": 8,
      "value": 0.4082036520644059,
      "samples": 7
    },
    {
      "node_id": 9,
      "value": 1.0,
      "samples": 2
    }
  ],
  "model_parameters": {
    "bootstrap": true,
    "ccp_alpha": 0.0,
    "class_weight": "balanced",
    "criterion": "gini",
    "max_depth": 10,
    "max_features": "sqrt",
    "max_leaf_nodes": null,
    "max_samples": null,
    "min_impurity_decrease": 0.0,
    "min_samples_leaf": 1,
    "min_samples_split": 10,
    "min_weight_fraction_leaf": 0.0,
    "monotonic_cst": null,
    "n_estimators": 100,
    "n_jobs": null,
    "oob_score": false,
    "random_state": 42,
    "verbose": 0,
    "warm_start": false
  }
}