{"learner":{"attributes":{"best_iteration":"4","best_score":"0.999930160780877"},"feature_names":[],"feature_types":[],"gradient_booster":{"model":{"cats":{"enc":[],"feature_segments":[],"sorted_idx":[]},"gbtree_model_param":{"num_parallel_tree":"1","num_trees":"25"},"iteration_indptr":[0,1,2,3,4,5,6,7,8,9,10,11,12,13,14,15,16,17,18,19,20,21,22,23,24,25],"tree_info":[0,0,0,0,0,0,0,0,0,0,0,0,0,0,0,0,0,0,0,0,0,0,0,0,0],"trees":[{"base_weights":[-1.4087615E-2,-1.2509307E0,3.9136586E0,-1.3022555E0,1.0922676E-1,1.6514085E-1,4.0388456E-1,-1.3172281E-1,-4.8359208E-2],"categories":[],"categories_nodes":[],"categories_segments":[],"categories_sizes":[],"default_left":[0,0,0,0,0,0,0,0,0],"id":0,"left_children":[1,3,5,7,-1,-1,-1,-1,-1],"loss_changes":[1.7291234E3,3.3975952E1,1.747107E1,2.615387E0,0E0,0E0,0E0,0E0,0E0],"parents":[2147483647,0,0,1,1,2,2,3,3],"right_children":[2,4,6,8,-1,-1,-1,-1,-1],"split_conditions":[3.964931E-1,4.072578E-1,2.3115693E-1,3.480994E-1,1.0922676E-1,1.6514085E-1,4.0388456E-1,-1.3172281E-1,-4.8359208E-2],"split_indices":[1,3,2,2,0,0,0,0,0],"split_type":[0,0,0,0,0,0,0,0,0],"sum_hessian":[3.5392502E2,2.696835E2,8.424153E1,2.6433774E2,5.345742E0,5.1614065E0,7.9080124E1,2.58992E2,5.345742E0],"tree_param":{"num_deleted":"0","num_feature":"10","num_nodes":"9","size_leaf_vector":"1"}},{"base_weights":[-5.689498E-3,-1.2156929E0,2.9203196E0,-1.2625148E0,7.8198545E-2,9.895376E-2,3.0277658E-1,-1.277316E-1,-4.8636943E-2],"categories":[],"categories_nodes":[],"categories_segments":[],"categories_sizes":[],"default_left":[0,0,0,0,0,0,0,0,0],"id":1,"left_children":[1,3,5,7,-1,-1,-1,-1,-1],"loss_changes":[1.2485238E3,2.4321686E1,1.8406494E1,2.1834717E0,0E0,0E0,0E0,0E0,0E0],"parents":[2147483647,0,0,1,1,2,2,3,3],"right_children":[2,4,6,8,-1,-1,-1,-1,-1],"split_conditions":[3.871484E-1,3.6939454E-1,2.3276986E-1,4.021706E-1,7.8198545E-2,9.895376E-2,3.0277658E-1,-1.277316E-1,-4.8636943E-2],"split_indices":[1,2,2,3,0,0,0,0,0],"split_type":[0,0,0,0,0,0,0,0,0],"sum_hessian":[3.5063968E2,2.4847246E2,1.0216722E2,2.4314168E2,5.3307824E0,5.9240065E0,9.624322E1,2.3795807E2,5.1836042E0],"tree_param":{"num_deleted":"0","num_feature":"10","num_nodes":"9","size_leaf_vector":"1"}},{"base_weights":[-4.8336405E-2,-1.1702316E0,2.4106593E0,-1.23173796E-1,9.543651E-2,8.3321206E-2,2.4997354E-1],"categories":[],"categories_nodes":[],"categories_segments":[],"categories_sizes":[],"default_left":[0,0,0,0,0,0,0],"id":2,"left_children":[1,3,5,-1,-1,-1,-1],"loss_changes":[9.3370734E2,3.154303E1,1.281781E1,0E0,0E0,0E0,0E0],"parents":[2147483647,0,0,1,1,2,2],"right_children":[2,4,6,-1,-1,-1,-1],"split_conditions":[3.871484E-1,3.6440033E-1,2.5454783E-1,-1.23173796E-1,9.543651E-2,8.3321206E-2,2.4997354E-1],"split_indices":[1,2,2,0,0,0,0],"split_type":[0,0,0,0,0,0,0],"sum_hessian":[3.3643225E2,2.3138773E2,1.0504452E2,2.2528603E2,6.101705E0,6.1680737E0,9.887644E1],"tree_param":{"num_deleted":"0","num_feature":"10","num_nodes":"7","size_leaf_vector":"1"}},{"base_weights":[-1.8613752E-2,-1.1770287E0,2.0658898E0,-1.2060111E-1,-1.1571347E-3,-3.0183E-3,2.1615968E0,1.1707711E-1,2.2010636E-1],"categories":[],"categories_nodes":[],"categories_segments":[],"categories_sizes":[],"default_left":[0,0,0,0,0,0,0,0,0],"id":3,"left_children":[1,3,5,-1,-1,-1,7,-1,-1],"loss_changes":[8.1181E2,7.2850647E0,2.4157532E1,0E0,0E0,0E0,1.9147949E0,0E0,0E0],"parents":[2147483647,0,0,1,1,2,2,6,6],"right_children":[2,4,6,-1,-1,-1,8,-1,-1],"split_conditions":[3.3683217E-1,3.480994E-1,1.9526915E-1,-1.2060111E-1,-1.1571347E-3,-3.0183E-3,1.7614792E-1,1.1707711E-1,2.2010636E-1],"split_indices":[1,2,2,0,0,0,3,0,0],"split_type":[0,0,0,0,0,0,0,0,0],"sum_hessian":[3.341852E2,2.1508951E2,1.1909571E2,2.0983653E2,5.252977E0,5.2303715E0,1.1386533E2,5.536427E0,1.0832891E2],"tree_param":{"num_deleted":"0","num_feature":"10","num_nodes":"9","size_leaf_vector":"1"}},{"base_weights":[-1.859224E-2,-1.0229763E0,1.8278188E0,-1.1338482E0,1.9524246E-1,-3.8245015E-2,1.9513871E-1,-1.1751902E0,3.895888E-2,-1.1869719E-1,-7.321548E-2],"categories":[],"categories_nodes":[],"categories_segments":[],"categories_sizes":[],"default_left":[0,0,0,0,0,0,0,0,0,0,0],"id":4,"left_children":[1,3,5,7,-1,-1,-1,9,-1,-1,-1],"loss_changes":[5.916915E2,7.038034E1,3.1448334E1,1.3044464E1,0E0,0E0,0E0,1.4782715E-1,0E0,0E0,0E0],"parents":[2147483647,0,0,1,1,2,2,3,3,7,7],"right_children":[2,4,6,8,-1,-1,-1,10,-1,-1,-1],"split_conditions":[3.187798E-1,4.5739552E-1,2.6654017E-1,4.5189202E-1,1.9524246E-1,-3.8245015E-2,1.9513871E-1,2.791623E-1,3.895888E-2,-1.1869719E-1,-7.321548E-2],"split_indices":[2,3,0,0,0,0,0,2,0,0,0],"split_type":[0,0,0,0,0,0,0,0,0,0,0],"sum_hessian":[3.1704794E2,2.0563535E2,1.1141258E2,1.9884476E2,6.7905965E0,5.787968E0,1.0562461E2,1.9381375E2,5.030997E0,1.8715749E2,6.656271E0],"tree_param":{"num_deleted":"0","num_feature":"10","num_nodes":"11","size_leaf_vector":"1"}},{"base_weights":[-4.5339532E-2,-1.1154059E0,1.7042693E0,-1.1645645E-1,1.9189984E-2,3.5060626E-2,1.7657356E-1],"categories":[],"categories_nodes":[],"categories_segments":[],"categories_sizes":[],"default_left":[0,0,0,0,0,0,0],"id":5,"left_children":[1,3,5,-1,-1,-1,-1],"loss_changes":[5.737008E2,1.2441315E1,9.057739E0,0E0,0E0,0E0,0E0],"parents":[2147483647,0,0,1,1,2,2],"right_children":[2,4,6,-1,-1,-1,-1],"split_conditions":[3.871484E-1,3.480994E-1,2.2559343E-1,-1.1645645E-1,1.9189984E-2,3.5060626E-2,1.7657356E-1],"split_indices":[1,2,2,0,0,0,0],"split_type":[0,0,0,0,0,0,0],"sum_hessian":[3.0441638E2,1.8911533E2,1.15301056E2,1.8236697E2,6.7483597E0,5.2993007E0,1.10001755E2],"tree_param":{"num_deleted":"0","num_feature":"10","num_nodes":"7","size_leaf_vector":"1"}},{"base_weights":[-2.518285E-2,-1.1155492E0,1.5446017E0,-1.1480893E-1,-5.541127E-3,-3.803622E-2,1.6352364E0,9.0279795E-2,1.6622233E-1],"categories":[],"categories_nodes":[],"categories_segments":[],"categories_sizes":[],"default_left":[0,0,0,0,0,0,0,0,0],"id":6,"left_children":[1,3,5,-1,-1,-1,7,-1,-1],"loss_changes":[4.8885315E2,5.7499847E0,2.1047546E1,0E0,0E0,0E0,7.1313477E-1,0E0,0E0],"parents":[2147483647,0,0,1,1,2,2,6,6],"right_children":[2,4,6,-1,-1,-1,8,-1,-1],"split_conditions":[3.3683217E-1,4.31073E-1,2.4174231E-1,-1.1480893E-1,-5.541127E-3,-3.803622E-2,1.2218099E-1,9.0279795E-2,1.6622233E-1],"split_indices":[1,0,0,0,0,0,6,0,0],"split_type":[0,0,0,0,0,0,0,0,0],"sum_hessian":[2.835984E2,1.675253E2,1.16073074E2,1.6245589E2,5.0694184E0,5.0756736E0,1.10997406E2,5.16873E0,1.05828674E2],"tree_param":{"num_deleted":"0","num_feature":"10","num_nodes":"9","size_leaf_vector":"1"}},{"base_weights":[-2.7494654E-2,-1.0204765E0,1.36337E0,-1.096978E0,7.625287E-2,3.0801347E-1,1.5907933E-1,-1.116339E0,-6.400677E-2,-5.961165E-1,1.1689704E-1,-1.13972105E-1,-8.0110157E-1,-1.01230435E-1,-7.904119E-3,-1.0150962E-1,-3.7028413E-2],"categories":[],"categories_nodes":[],"categories_segments":[],"categories_sizes":[],"default_left":[0,0,0,0,0,0,0,0,0,0,0,0,0,0,0,0,0],"id":7,"left_children":[1,3,5,7,-1,9,-1,11,-1,13,-1,-1,15,-1,-1,-1,-1],"loss_changes":[3.7546683E2,2.24702E1,2.669159E1,6.344147E-1,0E0,1.7291338E1,0E0,1.5533447E-1,0E0,2.3002517E0,0E0,0E0,8.571415E-1,0E0,0E0,0E0,0E0],"parents":[2147483647,0,0,1,1,2,2,3,3,5,5,7,7,9,9,12,12],"right_children":[2,4,6,8,-1,10,-1,12,-1,14,-1,-1,16,-1,-1,-1,-1],"split_conditions":[3.5619694E-1,4.451101E-1,2.75072E-1,5.0591016E-1,7.625287E-2,4.820359E-1,1.5907933E-1,3.001615E-1,-6.400677E-2,2.5020555E-1,1.1689704E-1,-1.13972105E-1,1.9403909E-1,-1.01230435E-1,-7.904119E-3,-1.0150962E-1,-3.7028413E-2],"split_indices":[0,3,3,9,0,0,0,3,0,6,0,0,0,0,0,0,0],"split_type":[0,0,0,0,0,0,0,0,0,0,0,0,0,0,0,0,0],"sum_hessian":[2.698527E2,1.5760199E2,1.12250694E2,1.5148705E2,6.114934E0,2.0318262E1,9.1932434E1,1.4394435E2,7.5426908E0,1.0060688E1,1.0257574E1,1.3157E2,1.2374347E1,5.0434904E0,5.0171976E0,7.361534E0,5.012813E0],"tree_param":{"num_deleted":"0","num_feature":"10","num_nodes":"17","size_leaf_vector":"1"}},{"base_weights":[-6.081308E-2,-1.0801735E0,1.3370734E0,-1.1125741E-1,-1.8161772E-2,-9.798688E-3,1.4743291E-1],"categories":[],"categories_nodes":[],"categories_segments":[],"categories_sizes":[],"default_left":[0,0,0,0,0,0,0],"id":8,"left_children":[1,3,5,-1,-1,-1,-1],"loss_changes":[3.6015137E2,4.052307E0,2.1142166E1,0E0,0E0,0E0,0E0],"parents":[2147483647,0,0,1,1,2,2],"right_children":[2,4,6,-1,-1,-1,-1],"split_conditions":[3.3683217E-1,3.480994E-1,2.5454783E-1,-1.1125741E-1,-1.8161772E-2,-9.798688E-3,1.4743291E-1],"split_indices":[1,2,2,0,0,0,0],"split_type":[0,0,0,0,0,0,0],"sum_hessian":[2.507331E2,1.4512962E2,1.05603485E2,1.3984871E2,5.280915E0,9.243649E0,9.635983E1],"tree_param":{"num_deleted":"0","num_feature":"10","num_nodes":"7","size_leaf_vector":"1"}},{"base_weights":[-1.8889321E-2,-1.0684831E0,1.2986958E0,-1.1087306E-1,-2.8739674E-2,-6.314763E-2,1.4056885E0,8.6574435E-2,1.4297234E-1],"categories":[],"categories_nodes":[],"categories_segments":[],"categories_sizes":[],"default_left":[0,0,0,0,0,0,0,0,0],"id":9,"left_children":[1,3,5,-1,-1,-1,7,-1,-1],"loss_changes":[3.2602432E2,3.806137E0,2.2475891E1,0E0,0E0,0E0,5.1620483E-2,0E0,0E0],"parents":[2147483647,0,0,1,1,2,2,6,6],"right_children":[2,4,6,-1,-1,-1,8,-1,-1],"split_conditions":[3.278929E-1,3.8860983E-1,2.4615207E-1,-1.1087306E-1,-2.8739674E-2,-6.314763E-2,2.5206235E-1,8.6574435E-2,1.4297234E-1],"split_indices":[1,0,0,0,0,0,2,0,0],"split_type":[0,0,0,0,0,0,0,0,0],"sum_hessian":[2.3374571E2,1.3020941E2,1.035363E2,1.2342992E2,6.779496E0,5.1803064E0,9.8355995E1,5.7692904E0,9.25867E1],"tree_param":{"num_deleted":"0","num_feature":"10","num_nodes":"9","size_leaf_vector":"1"}},{"base_weights":[-2.5093604E-2,-1.0370376E0,1.2138911E0,-1.0847693E-1,3.1400272E-3,-7.9614945E-2,1.334339E0,5.981881E-2,1.371219E-1],"categories":[],"categories_nodes":[],"categories_segments":[],"categories_sizes":[],"default_left":[0,0,0,0,0,0,0,0,0],"id":10,"left_children":[1,3,5,-1,-1,-1,7,-1,-1],"loss_changes":[2.749941E2,6.190262E0,2.493718E1,0E0,0E0,0E0,1.7158203E0,0E0,0E0],"parents":[2147483647,0,0,1,1,2,2,6,6],"right_children":[2,4,6,-1,-1,-1,8,-1,-1],"split_conditions":[3.278929E-1,3.480994E-1,1.8212566E-1,-1.0847693E-1,3.1400272E-3,-7.9614945E-2,1.5511426E-1,5.981881E-2,1.371219E-1],"split_indices":[1,2,2,0,0,0,7,0,0],"split_type":[0,0,0,0,0,0,0,0,0],"sum_hessian":[2.1732744E2,1.1971384E2,9.7613594E1,1.1457979E2,5.1340547E0,5.2014594E0,9.241214E1,5.2303686E0,8.718177E1],"tree_param":{"num_deleted":"0","num_feature":"10","num_nodes":"9","size_leaf_vector":"1"}},{"base_weights":[-6.8461145E-3,-1.0217588E0,1.2283314E0,-1.0854838E-1,-1.1771115E-2,2.0378446E-2,1.3048568E-1],"categories":[],"categories_nodes":[],"categories_segments":[],"categories_sizes":[],"default_left":[0,0,0,0,0,0,0],"id":11,"left_children":[1,3,5,-1,-1,-1,-1],"loss_changes":[2.553636E2,6.314171E0,6.9381714E0,0E0,0E0,0E0,0E0],"parents":[2147483647,0,0,1,1,2,2],"right_children":[2,4,6,-1,-1,-1,-1],"split_conditions":[3.3683217E-1,3.7537712E-1,2.3276986E-1,-1.0854838E-1,-1.1771115E-2,2.0378446E-2,1.3048568E-1],"split_indices":[1,0,2,0,0,0,0],"split_type":[0,0,0,0,0,0,0],"sum_hessian":[2.0170346E2,1.10819115E2,9.088435E1,1.03334526E2,7.484588E0,6.571106E0,8.431325E1],"tree_param":{"num_deleted":"0","num_feature":"10","num_nodes":"7","size_leaf_vector":"1"}},{"base_weights":[-5.133622E-3,-1.030738E0,1.1357118E0,-1.07147574E-1,-3.3063255E-2,-5.865267E-2,1.2452143E0,5.5939913E-2,1.2823236E-1],"categories":[],"categories_nodes":[],"categories_segments":[],"categories_sizes":[],"default_left":[0,0,0,0,0,0,0,0,0],"id":12,"left_children":[1,3,5,-1,-1,-1,7,-1,-1],"loss_changes":[2.2464978E2,2.5292816E0,1.787223E1,0E0,0E0,0E0,1.4658203E0,0E0,0E0],"parents":[2147483647,0,0,1,1,2,2,6,6],"right_children":[2,4,6,-1,-1,-1,8,-1,-1],"split_conditions":[3.278929E-1,3.187798E-1,2.4174231E-1,-1.07147574E-1,-3.3063255E-2,-5.865267E-2,1.7740539E-1,5.5939913E-2,1.2823236E-1],"split_indices":[1,2,0,0,0,0,3,0,0],"split_type":[0,0,0,0,0,0,0,0,0],"sum_hessian":[1.8999867E2,1.0010351E2,8.989517E1,9.4097694E1,6.0058103E0,5.1135654E0,8.478161E1,5.1771536E0,7.9604454E1],"tree_param":{"num_deleted":"0","num_feature":"10","num_nodes":"9","size_leaf_vector":"1"}},{"base_weights":[-2.9060857E-2,-9.3388665E-1,1.0849553E0,-1.0334313E0,5.6396395E-2,-6.3797005E-2,1.2385646E0,-1.0657155E-1,-4.0729623E-2,6.700879E-2,1.2929116E-1],"categories":[],"categories_nodes":[],"categories_segments":[],"categories_sizes":[],"default_left":[0,0,0,0,0,0,0,0,0,0,0],"id":13,"left_children":[1,3,5,7,-1,-1,9,-1,-1,-1,-1],"loss_changes":[1.7878093E2,1.5173103E1,2.183171E1,1.4278564E0,0E0,0E0,1.3993683E0,0E0,0E0,0E0,0E0],"parents":[2147483647,0,0,1,1,2,2,3,3,6,6],"right_children":[2,4,6,8,-1,-1,10,-1,-1,-1,-1],"split_conditions":[3.5619694E-1,4.1857827E-1,1.8050027E-1,3.2846242E-1,5.6396395E-2,-6.3797005E-2,2.3091088E-1,-1.0657155E-1,-4.0729623E-2,6.700879E-2,1.2929116E-1],"split_indices":[0,3,2,2,0,0,3,0,0,0,0],"split_type":[0,0,0,0,0,0,0,0,0,0,0],"sum_hessian":[1.7535852E2,9.685372E1,7.85048E1,9.110883E1,5.744885E0,6.1681294E0,7.233667E1,8.5973885E1,5.134952E0,7.4751787E0,6.486149E1],"tree_param":{"num_deleted":"0","num_feature":"10","num_nodes":"11","size_leaf_vector":"1"}},{"base_weights":[-3.0589163E-2,-1.0001577E0,1.0548228E0,-1.05578005E-1,-9.094368E-3,-4.9466398E-2,1.1810372E0,5.8494758E-2,1.2223369E-1],"categories":[],"categories_nodes":[],"categories_segments":[],"categories_sizes":[],"default_left":[0,0,0,0,0,0,0,0,0],"id":14,"left_children":[1,3,5,-1,-1,-1,7,-1,-1],"loss_changes":[1.7364427E2,4.310631E0,1.5811813E1,0E0,0E0,0E0,1.0647583E0,0E0,0E0],"parents":[2147483647,0,0,1,1,2,2,6,6],"right_children":[2,4,6,-1,-1,-1,8,-1,-1],"split_conditions":[3.278929E-1,3.2846242E-1,2.4174231E-1,-1.05578005E-1,-9.094368E-3,-4.9466398E-2,2.6606694E-1,5.8494758E-2,1.2223369E-1],"split_indices":[1,2,0,0,0,0,2,0,0],"split_type":[0,0,0,0,0,0,0,0,0],"sum_hessian":[1.6299883E2,8.613518E1,7.686364E1,8.1017624E1,5.1175556E0,5.569519E0,7.129412E1,5.6020308E0,6.569209E1],"tree_param":{"num_deleted":"0","num_feature":"10","num_nodes":"9","size_leaf_vector":"1"}},{"base_weights":[-1.576747E-3,-8.7457234E-1,1.172445E0,-1.0243729E0,1.0451565E-1,7.3193066E-2,1.2051562E-1,-1.0615885E-1,-4.884776E-2],"categories":[],"categories_nodes":[],"categories_segments":[],"categories_sizes":[],"default_left":[0,0,0,0,0,0,0,0,0],"id":15,"left_children":[1,3,5,7,-1,-1,-1,-1,-1],"loss_changes":[1.5827681E2,2.654081E1,6.694031E-2,1.1300278E0,0E0,0E0,0E0,0E0,0E0],"parents":[2147483647,0,0,1,1,2,2,3,3],"right_children":[2,4,6,8,-1,-1,-1,-1,-1],"split_conditions":[4.168595E-1,4.7011596E-1,2.2249375E-1,3.086168E-1,1.0451565E-1,7.3193066E-2,1.2051562E-1,-1.0615885E-1,-4.884776E-2],"split_indices":[1,0,3,2,0,0,0,0,0],"split_type":[0,0,0,0,0,0,0,0,0],"sum_hessian":[1.524286E2,8.756836E1,6.4860245E1,8.166246E1,5.9059033E0,6.0991926E0,5.876105E1,7.544236E1,6.2200956E0],"tree_param":{"num_deleted":"0","num_feature":"10","num_nodes":"9","size_leaf_vector":"1"}},{"base_weights":[-1.0610872E-2,-8.5102654E-1,1.1314684E0,-9.9896646E-1,9.924791E-2,5.5349875E-2,1.1762519E-1,-1.05123185E-1,-2.3607774E-2],"categories":[],"categories_nodes":[],"categories_segments":[],"categories_sizes":[],"default_left":[0,0,0,0,0,0,0,0,0],"id":16,"left_children":[1,3,5,7,-1,-1,-1,-1,-1],"loss_changes":[1.3499925E2,2.3087597E1,8.92334E-1,2.7621536E0,0E0,0E0,0E0,0E0,0E0],"parents":[2147483647,0,0,1,1,2,2,3,3],"right_children":[2,4,6,8,-1,-1,-1,-1,-1],"split_conditions":[4.168595E-1,4.022551E-1,1.7162077E-1,4.6420032E-1,9.924791E-2,5.5349875E-2,1.1762519E-1,-1.05123185E-1,-2.3607774E-2],"split_indices":[1,2,6,8,0,0,0,0,0],"split_type":[0,0,0,0,0,0,0,0,0],"sum_hessian":[1.3864717E2,8.001893E1,5.8628246E1,7.449859E1,5.5203395E0,5.176783E0,5.3451466E1,6.936822E1,5.130371E0],"tree_param":{"num_deleted":"0","num_feature":"10","num_nodes":"9","size_leaf_vector":"1"}},{"base_weights":[-6.6084326E-3,-8.333603E-1,1.1336586E0,-9.8981243E-1,9.039511E-2,6.5712385E-2,1.17315926E-1,-1.0459168E-1,-2.3459788E-2],"categories":[],"categories_nodes":[],"categories_segments":[],"categories_sizes":[],"default_left":[0,0,0,0,0,0,0,0,0],"id":17,"left_children":[1,3,5,7,-1,-1,-1,-1,-1],"loss_changes":[1.22880585E2,2.1431515E1,2.6039124E-1,2.711769E0,0E0,0E0,0E0,0E0,0E0],"parents":[2147483647,0,0,1,1,2,2,3,3],"right_children":[2,4,6,8,-1,-1,-1,-1,-1],"split_conditions":[4.168595E-1,4.6191093E-1,1.8451789E-1,3.484378E-1,9.039511E-2,6.5712385E-2,1.17315926E-1,-1.0459168E-1,-2.3459788E-2],"split_indices":[1,0,7,3,0,0,0,0,0],"split_type":[0,0,0,0,0,0,0,0,0],"sum_hessian":[1.2834499E2,7.455671E1,5.3788273E1,6.879197E1,5.764741E0,5.467247E0,4.8321026E1,6.367656E1,5.1154113E0],"tree_param":{"num_deleted":"0","num_feature":"10","num_nodes":"9","size_leaf_vector":"1"}},{"base_weights":[-3.0253429E-2,-8.3110946E-1,1.1034056E0,-1.0016235E0,7.991032E-2,5.3602483E-2,1.1605587E-1,-1.0479164E-1,-4.5204993E-2],"categories":[],"categories_nodes":[],"categories_segments":[],"categories_sizes":[],"default_left":[0,0,0,0,0,0,0,0,0],"id":18,"left_children":[1,3,5,7,-1,-1,-1,-1,-1],"loss_changes":[1.10280304E2,2.0581226E1,1.0089226E0,1.1765671E0,0E0,0E0,0E0,0E0,0E0],"parents":[2147483647,0,0,1,1,2,2,3,3],"right_children":[2,4,6,8,-1,-1,-1,-1,-1],"split_conditions":[4.168595E-1,4.6191093E-1,2.2145084E-1,3.321396E-1,7.991032E-2,5.3602483E-2,1.1605587E-1,-1.0479164E-1,-4.5204993E-2],"split_indices":[1,0,9,3,0,0,0,0,0],"split_type":[0,0,0,0,0,0,0,0,0],"sum_hessian":[1.19457695E2,7.016066E1,4.929704E1,6.3866093E1,6.2945633E0,5.4611235E0,4.3835915E1,5.8067993E1,5.7981014E0],"tree_param":{"num_deleted":"0","num_feature":"10","num_nodes":"9","size_leaf_vector":"1"}},{"base_weights":[1.4471895E-2,-7.9318476E-1,1.0872282E0,-1.0089449E-1,4.7218878E-2,6.5709345E-2,1.13339856E-1],"categories":[],"categories_nodes":[],"categories_segments":[],"categories_sizes":[],"default_left":[0,0,0,0,0,0,0],"id":19,"left_children":[1,3,5,-1,-1,-1,-1],"loss_changes":[9.7226E1,1.795726E1,2.1231842E-1,0E0,0E0,0E0,0E0],"parents":[2147483647,0,0,1,1,2,2],"right_children":[2,4,6,-1,-1,-1,-1],"split_conditions":[4.168595E-1,3.086168E-1,2.5304458E-1,-1.0089449E-1,4.7218878E-2,6.5709345E-2,1.13339856E-1],"split_indices":[1,2,9,0,0,0,0],"split_type":[0,0,0,0,0,0,0],"sum_hessian":[1.10220604E2,6.30284E1,4.7192207E1,5.402004E1,9.00836E0,6.051055E0,4.1141155E1],"tree_param":{"num_deleted":"0","num_feature":"10","num_nodes":"7","size_leaf_vector":"1"}},{"base_weights":[1.246693E-2,-8.67837E-1,9.59317E-1,-1.0136282E-1,4.706594E-2,-3.113675E-2,1.1118281E0,7.042504E-2,1.159518E-1],"categories":[],"categories_nodes":[],"categories_segments":[],"categories_sizes":[],"default_left":[0,0,0,0,0,0,0,0,0],"id":20,"left_children":[1,3,5,-1,-1,-1,7,-1,-1],"loss_changes":[8.91081E1,1.1289322E1,1.0326572E1,0E0,0E0,0E0,8.141327E-2,0E0,0E0],"parents":[2147483647,0,0,1,1,2,2,6,6],"right_children":[2,4,6,-1,-1,-1,8,-1,-1],"split_conditions":[3.5619694E-1,4.016742E-1,2.046263E-1,-1.0136282E-1,4.706594E-2,-3.113675E-2,3.4019384E-1,7.042504E-2,1.159518E-1],"split_indices":[0,1,2,0,0,0,2,0,0],"split_type":[0,0,0,0,0,0,0,0,0],"sum_hessian":[1.0490749E2,5.440739E1,5.0500103E1,4.9282207E1,5.125184E0,5.3000207E0,4.520008E1,6.386421E0,3.881366E1],"tree_param":{"num_deleted":"0","num_feature":"10","num_nodes":"9","size_leaf_vector":"1"}},{"base_weights":[-2.2394834E-2,-9.2028785E-1,8.760182E-1,-1.01638414E-1,-8.670539E-3,-3.466208E-2,1.032023E0,5.139885E-2,1.0890045E-1],"categories":[],"categories_nodes":[],"categories_segments":[],"categories_sizes":[],"default_left":[0,0,0,0,0,0,0,0,0],"id":21,"left_children":[1,3,5,-1,-1,-1,7,-1,-1],"loss_changes":[7.7672745E1,3.7685127E0,9.540279E0,0E0,0E0,0E0,7.079582E-1,0E0,0E0],"parents":[2147483647,0,0,1,1,2,2,6,6],"right_children":[2,4,6,-1,-1,-1,8,-1,-1],"split_conditions":[3.1303623E-1,3.8860983E-1,1.9526915E-1,-1.01638414E-1,-8.670539E-3,-3.466208E-2,4.168595E-1,5.139885E-2,1.0890045E-1],"split_indices":[1,0,2,0,0,0,1,0,0],"split_type":[0,0,0,0,0,0,0,0,0],"sum_hessian":[9.428769E1,4.7145313E1,4.7142372E1,4.207551E1,5.069805E0,5.196281E0,4.194609E1,5.1496325E0,3.679646E1],"tree_param":{"num_deleted":"0","num_feature":"10","num_nodes":"9","size_leaf_vector":"1"}},{"base_weights":[-1.1300421E-2,-8.982413E-1,8.7316865E-1,-1.01057194E-1,-1.8752225E-3,-4.6139892E-2,1.059271E0,5.8185823E-2,1.11218765E-1],"categories":[],"categories_nodes":[],"categories_segments":[],"categories_sizes":[],"default_left":[0,0,0,0,0,0,0,0,0],"id":22,"left_children":[1,3,5,-1,-1,-1,7,-1,-1],"loss_changes":[6.932617E1,4.3396873E0,1.1480103E1,0E0,0E0,0E0,3.4171677E-1,0E0,0E0],"parents":[2147483647,0,0,1,1,2,2,6,6],"right_children":[2,4,6,-1,-1,-1,8,-1,-1],"split_conditions":[3.3281702E-1,3.871484E-1,2.3839577E-1,-1.01057194E-1,-1.8752225E-3,-4.6139892E-2,2.0504144E-1,5.8185823E-2,1.11218765E-1],"split_indices":[0,1,1,0,0,0,6,0,0],"split_type":[0,0,0,0,0,0,0,0,0],"sum_hessian":[8.637327E1,4.3118595E1,4.325467E1,3.8102943E1,5.015651E0,5.1125484E0,3.814212E1,5.002792E0,3.3139328E1],"tree_param":{"num_deleted":"0","num_feature":"10","num_nodes":"9","size_leaf_vector":"1"}},{"base_weights":[-3.261593E-2,-9.5204395E-1,8.256914E-1,-1.0079119E-1,-4.748827E-2,-8.149601E-3,1.0509717E-1],"categories":[],"categories_nodes":[],"categories_segments":[],"categories_sizes":[],"default_left":[0,0,0,0,0,0,0],"id":23,"left_children":[1,3,5,-1,-1,-1,-1],"loss_changes":[6.622614E1,6.010437E-1,8.960136E0,0E0,0E0,0E0,0E0],"parents":[2147483647,0,0,1,1,2,2],"right_children":[2,4,6,-1,-1,-1,-1],"split_conditions":[3.1303623E-1,4.0466058E-1,2.75072E-1,-1.0079119E-1,-4.748827E-2,-8.149601E-3,1.0509717E-1],"split_indices":[1,8,3,0,0,0,0],"split_type":[0,0,0,0,0,0,0],"sum_hessian":[8.1924545E1,3.9501213E1,4.2423332E1,3.4365276E1,5.1359353E0,8.566181E0,3.385715E1],"tree_param":{"num_deleted":"0","num_feature":"10","num_nodes":"7","size_leaf_vector":"1"}},{"base_weights":[-3.359916E-2,-7.8017354E-1,9.08659E-1,-9.715664E-2,5.288103E-2,-1.263914E-2,1.1209507E-1],"categories":[],"categories_nodes":[],"categories_segments":[],"categories_sizes":[],"default_left":[0,0,0,0,0,0,0],"id":24,"left_children":[1,3,5,-1,-1,-1,-1],"loss_changes":[5.4212963E1,1.1279881E1,7.6311455E0,0E0,0E0,0E0,0E0],"parents":[2147483647,0,0,1,1,2,2],"right_children":[2,4,6,-1,-1,-1,-1],"split_conditions":[3.187798E-1,3.7659913E-1,3.5619694E-1,-9.715664E-2,5.288103E-2,-1.263914E-2,1.1209507E-1],"split_indices":[2,3,0,0,0,0,0],"split_type":[0,0,0,0,0,0,0],"sum_hessian":[7.5057785E1,4.1973312E1,3.3084473E1,3.6843952E1,5.1293607E0,5.699687E0,2.7384787E1],"tree_param":{"num_deleted":"0","num_feature":"10","num_nodes":"7","size_leaf_vector":"1"}}]},"name":"gbtree"},"learner_model_param":{"base_score":"[2.4375E-1]","boost_from_average":"1","num_class":"0","num_feature":"10","num_target":"1"},"objective":{"name":"binary:logistic","reg_loss_param":{"scale_pos_weight":"1"}}},"version":[3,1,1]}